/* Generated by Edge Impulse
 *
 * Permission is hereby granted, free of charge, to any person obtaining a copy
 * of this software and associated documentation files (the "Software"), to deal
 * in the Software without restriction, including without limitation the rights
 * to use, copy, modify, merge, publish, distribute, sublicense, and/or sell
 * copies of the Software, and to permit persons to whom the Software is
 * furnished to do so, subject to the following conditions:
 *
 * The above copyright notice and this permission notice shall be included in
 * all copies or substantial portions of the Software.
 *
 * THE SOFTWARE IS PROVIDED "AS IS", WITHOUT WARRANTY OF ANY KIND, EXPRESS OR
 * IMPLIED, INCLUDING BUT NOT LIMITED TO THE WARRANTIES OF MERCHANTABILITY,
 * FITNESS FOR A PARTICULAR PURPOSE AND NONINFRINGEMENT. IN NO EVENT SHALL THE
 * AUTHORS OR COPYRIGHT HOLDERS BE LIABLE FOR ANY CLAIM, DAMAGES OR OTHER
 * LIABILITY, WHETHER IN AN ACTION OF CONTRACT, TORT OR OTHERWISE, ARISING FROM,
 * OUT OF OR IN CONNECTION WITH THE SOFTWARE OR THE USE OR OTHER DEALINGS IN THE
 * SOFTWARE.
 */
// Generated on: 22.11.2023 09:54:47

#include <stdio.h>
#include <stdlib.h>
#include "edge-impulse-sdk/tensorflow/lite/c/builtin_op_data.h"
#include "edge-impulse-sdk/tensorflow/lite/c/common.h"
#include "edge-impulse-sdk/tensorflow/lite/micro/micro_mutable_op_resolver.h"
#include "edge-impulse-sdk/porting/ei_classifier_porting.h"

#if EI_CLASSIFIER_PRINT_STATE
#if defined(__cplusplus) && EI_C_LINKAGE == 1
extern "C" {
    extern void ei_printf(const char *format, ...);
}
#else
extern void ei_printf(const char *format, ...);
#endif
#endif

#if defined __GNUC__
#define ALIGN(X) __attribute__((aligned(X)))
#elif defined _MSC_VER
#define ALIGN(X) __declspec(align(X))
#elif defined __TASKING__
#define ALIGN(X) __align(X)
#elif defined __ICCARM__
#define ALIGN(x) __attribute__((aligned(x)))
#endif

#ifndef EI_MAX_SCRATCH_BUFFER_COUNT
#ifndef CONFIG_IDF_TARGET_ESP32S3
#define EI_MAX_SCRATCH_BUFFER_COUNT 14
#else
#define EI_MAX_SCRATCH_BUFFER_COUNT 28
#endif // CONFIG_IDF_TARGET_ESP32S3
#endif // EI_MAX_SCRATCH_BUFFER_COUNT

#ifndef EI_MAX_OVERFLOW_BUFFER_COUNT
#define EI_MAX_OVERFLOW_BUFFER_COUNT 10
#endif // EI_MAX_OVERFLOW_BUFFER_COUNT

using namespace tflite;
using namespace tflite::ops;
using namespace tflite::ops::micro;

namespace {

#if defined(EI_CLASSIFIER_ALLOCATION_STATIC_HIMAX) || defined(EI_CLASSIFIER_ALLOCATION_STATIC_HIMAX_GNU)
constexpr int kTensorArenaSize = 368208;
#else
constexpr int kTensorArenaSize = 367184;
#endif

#if defined(EI_CLASSIFIER_ALLOCATION_STATIC)
uint8_t tensor_arena[kTensorArenaSize] ALIGN(16);
#elif defined(EI_CLASSIFIER_ALLOCATION_STATIC_HIMAX)
#pragma Bss(".tensor_arena")
uint8_t tensor_arena[kTensorArenaSize] ALIGN(16);
#pragma Bss()
#elif defined(EI_CLASSIFIER_ALLOCATION_STATIC_HIMAX_GNU)
uint8_t tensor_arena[kTensorArenaSize] ALIGN(16) __attribute__((section(".tensor_arena")));
#else
#define EI_CLASSIFIER_ALLOCATION_HEAP 1
uint8_t* tensor_arena = NULL;
#endif

static uint8_t* tensor_boundary;
static uint8_t* current_location;

template <int SZ, class T> struct TfArray {
  int sz; T elem[SZ];
};
enum used_operators_e {
  OP_CONV_2D, OP_DEPTHWISE_CONV_2D, OP_PAD, OP_ADD, OP_SOFTMAX,  OP_LAST
};
struct TensorInfo_t { // subset of TfLiteTensor used for initialization from constant memory
  TfLiteAllocationType allocation_type;
  TfLiteType type;
  void* data;
  TfLiteIntArray* dims;
  size_t bytes;
  TfLiteQuantization quantization;
};
struct NodeInfo_t { // subset of TfLiteNode used for initialization from constant memory
  struct TfLiteIntArray* inputs;
  struct TfLiteIntArray* outputs;
  void* builtin_data;
  used_operators_e used_op_index;
};

typedef struct {
  TfLiteTensor tensor;
  int16_t index;
} TfLiteTensorWithIndex;

typedef struct {
  TfLiteEvalTensor tensor;
  int16_t index;
} TfLiteEvalTensorWithIndex;

TfLiteContext ctx{};
static const int MAX_TFL_TENSOR_COUNT = 4;
static TfLiteTensorWithIndex tflTensors[MAX_TFL_TENSOR_COUNT];
static const int MAX_TFL_EVAL_COUNT = 4;
static TfLiteEvalTensorWithIndex tflEvalTensors[MAX_TFL_EVAL_COUNT];
TfLiteRegistration registrations[OP_LAST];
TfLiteNode tflNodes[27];

const TfArray<4, int> tensor_dimension0 = { 4, { 1,120,120,3 } };
const TfArray<1, float> quant0_scale = { 1, { 0.0022452904377132654, } };
const TfArray<1, int> quant0_zero = { 1, { -128 } };
const TfLiteAffineQuantization quant0 = { (TfLiteFloatArray*)&quant0_scale, (TfLiteIntArray*)&quant0_zero, 0 };
const ALIGN(16) int32_t tensor_data1[4*2] = { 
  0, 0, 
  0, 1, 
  0, 1, 
  0, 0, 
};
const TfArray<2, int> tensor_dimension1 = { 2, { 4,2 } };
const ALIGN(8) int32_t tensor_data2[3] = { 20474, -32426, -32325, };
const TfArray<1, int> tensor_dimension2 = { 1, { 3 } };
const TfArray<3, float> quant2_scale = { 3, { 0.00025599286891520023, 0.00018054019892588258, 0.00017767834651749581, } };
const TfArray<3, int> quant2_zero = { 3, { 0,0,0 } };
const TfLiteAffineQuantization quant2 = { (TfLiteFloatArray*)&quant2_scale, (TfLiteIntArray*)&quant2_zero, 0 };
const ALIGN(16) int8_t tensor_data3[3*1*1*32] = { 
  /* [0][0][][] */ 49,84,125,-61,-55,17,18,21,-9,33,23,18,-23,-60,48,12,-32,51,51,84,-18,-3,30,-48,-127,67,-35,-3,56,35,-13,37, 
  /* [1][0][][] */ 67,-43,-70,18,-12,126,-40,-8,123,-45,-4,-79,-65,108,36,-53,93,-44,-10,-95,-127,16,109,73,12,19,1,-14,-69,-53,-19,-27, 
  /* [2][0][][] */ -36,75,-81,83,83,-47,-47,117,93,44,127,-34,-100,-90,98,122,-86,-52,8,-116,73,116,-52,-103,102,-63,-18,-123,24,-80,90,-23, 
};
const TfArray<4, int> tensor_dimension3 = { 4, { 3,1,1,32 } };
const TfArray<3, float> quant3_scale = { 3, { 0.0045754946768283844, 0.0032268897630274296, 0.0031757382676005363, } };
const TfArray<3, int> quant3_zero = { 3, { 0,0,0 } };
const TfLiteAffineQuantization quant3 = { (TfLiteFloatArray*)&quant3_scale, (TfLiteIntArray*)&quant3_zero, 0 };
const ALIGN(16) int32_t tensor_data4[32] = { 490, 292, 148, -156, -55, 6, 589, -14, -97, -448, -29, 304, -397, -203, 119, 19, -330, -401, -253, -374, 357, -272, 106, 55, 287, -160, -461, -233, -200, 109, 8, -166, };
const TfArray<1, int> tensor_dimension4 = { 1, { 32 } };
const TfArray<32, float> quant4_scale = { 32, { 4.2603300244081765e-05, 4.5452765334630385e-05, 4.1248240449931473e-05, 4.1999108361778781e-05, 4.0718783566262573e-05, 4.5342527300817892e-05, 4.780670496984385e-05, 4.295967664802447e-05, 4.1573195630917326e-05, 4.3461161112645641e-05, 4.1236988181481138e-05, 5.4104923037812114e-05, 4.2901425331365317e-05, 4.6209384890971705e-05, 4.3170923163415864e-05, 4.5437209337251261e-05, 4.0665589040145278e-05, 4.2468105675652623e-05, 4.2812760511878878e-05, 4.1145671275444329e-05, 4.5223518100101501e-05, 4.1361017792951316e-05, 3.9372236642520875e-05, 4.4784123019780964e-05, 4.6652163291582838e-05, 4.77157263958361e-05, 4.2847746954066679e-05, 4.142570833209902e-05, 4.2272728023817763e-05, 4.1445498936809599e-05, 4.3505755456862971e-05, 4.3443222239147872e-05, } };
const TfArray<32, int> quant4_zero = { 32, { 0,0,0,0,0,0,0,0,0,0,0,0,0,0,0,0,0,0,0,0,0,0,0,0,0,0,0,0,0,0,0,0 } };
const TfLiteAffineQuantization quant4 = { (TfLiteFloatArray*)&quant4_scale, (TfLiteIntArray*)&quant4_zero, 0 };
const ALIGN(16) int8_t tensor_data5[32*1*1*96] = { 
  /* [0][0][][] */ -28,-37,113,27,127,-46,-79,-97,78,-100,-97,4,33,13,-27,69,-44,-23,-58,-62,-65,-93,14,120,-92,28,88,-44,123,-30,-11,-67,93,-54,-75,82,-98,-70,-81,41,87,-73,-84,111,66,-97,121,-2,26,-47,-66,106,-75,-46,-95,115,7,82,112,-97,-83,107,-39,56,-40,32,82,108,68,114,86,-112,110,-86,21,96,-118,22,-49,40,68,18,98,9,-47,-37,-71,120,37,124,8,-107,16,78,38,40, 
  /* [1][0][][] */ -65,28,-57,4,-38,78,42,12,68,-88,-96,104,70,-20,31,49,108,-37,31,119,-42,4,40,33,27,7,-35,108,14,10,94,-61,41,101,-7,23,55,60,-16,-57,-58,9,-13,-86,-30,32,-31,-47,-27,-79,114,54,21,80,-66,-41,22,87,67,79,-51,105,-67,-77,-55,28,82,43,92,31,19,15,-109,84,-45,48,86,-37,-35,58,-77,84,-46,-127,28,116,-71,-71,79,79,79,21,82,90,20,0, 
  /* [2][0][][] */ 38,36,-49,97,-30,-65,94,102,-109,87,-38,122,75,-16,89,-115,-52,-32,44,46,-108,-11,122,27,-23,73,106,31,-61,73,79,88,-82,-26,-98,-119,-76,92,108,-31,-127,-84,14,-1,-92,116,-36,-76,99,35,83,-100,-23,58,21,10,-71,85,-67,15,-27,92,-46,62,87,43,57,85,-109,65,17,-83,36,-87,36,41,-59,-17,7,4,35,-94,-19,-54,-1,-104,-22,-43,89,115,-22,-5,-52,-97,-57,-79, 
  /* [3][0][][] */ 69,3,33,-34,-81,59,-120,36,47,32,63,-1,104,100,73,-4,107,108,-68,33,127,-95,-67,-122,-40,-102,-80,102,44,-80,93,14,-50,-34,-22,-7,-96,-23,42,46,-23,-90,-101,1,78,33,-44,-93,74,-80,55,3,90,31,100,-91,-125,-113,-111,-71,-91,25,-33,95,65,-37,-69,-36,-45,-70,1,110,29,-110,63,-57,43,99,94,-62,-90,-122,49,99,30,48,-44,-119,-79,48,-13,-104,94,-81,-86,50, 
  /* [4][0][][] */ 52,107,-9,49,-39,-9,34,7,54,105,-9,54,57,-34,-11,-90,-24,3,-91,39,127,-98,90,28,-58,8,73,-71,-53,66,-68,-49,81,125,22,-103,-54,-1,-126,53,-47,-59,-78,-96,39,113,42,54,28,-37,1,-73,-105,53,-78,36,32,-87,39,4,23,-92,-27,-48,-41,55,-1,-32,29,-100,-104,-76,-49,25,117,47,80,-24,-8,-67,8,-42,-87,-21,0,79,93,4,-112,-75,33,58,38,122,-97,-5, 
  /* [5][0][][] */ 98,-82,69,81,38,-127,26,53,107,-109,0,-63,3,86,31,39,60,61,-66,93,32,48,15,-28,-97,-41,-11,-95,46,16,22,-89,-24,0,-64,24,-107,-30,54,24,-79,-46,40,91,-26,30,40,-47,-96,104,2,43,24,5,31,-18,76,54,-61,-40,20,-52,50,-59,-40,103,-28,32,75,6,90,-77,-40,81,-46,-69,-6,-50,13,79,109,36,22,115,-72,75,1,46,64,-89,121,89,-30,33,80,-69, 
  /* [6][0][][] */ 14,-17,124,68,-90,-55,9,75,-18,-50,15,-68,55,63,117,-95,61,6,8,83,-67,-91,123,68,-52,-75,0,-28,-9,-109,54,-77,-84,-101,-40,-83,25,40,-94,76,83,56,26,13,-97,100,-81,-28,-63,14,-31,-57,74,-50,92,-24,7,-18,-56,127,-88,38,59,-74,-37,62,107,-44,64,-11,-74,-5,72,-67,-51,-12,-68,-62,-40,-22,33,0,38,-29,-54,-65,-24,-92,80,94,94,2,-43,-60,67,-43, 
  /* [7][0][][] */ 111,67,-43,-44,-80,120,-20,-4,112,11,-98,15,69,-87,48,57,52,20,-13,127,60,34,-7,86,-97,108,44,50,-79,117,-19,40,27,27,68,103,-110,90,-10,-27,98,-74,85,67,54,-2,106,-114,54,-51,-101,-66,-32,88,24,39,110,-89,11,-68,14,-18,84,-102,-65,-57,66,26,-113,24,60,91,86,27,64,52,-57,52,-101,38,92,-36,-11,-76,87,36,-113,95,87,8,77,70,-53,-32,0,-56, 
  /* [8][0][][] */ 14,35,-53,-92,60,30,-78,-28,10,42,45,99,16,-48,-89,-77,-73,102,-68,34,39,-29,80,111,-127,111,52,68,-70,34,-90,127,106,-34,51,2,115,7,-17,75,87,110,-113,-127,-6,-25,-18,109,24,-82,-58,5,-82,-12,-26,-101,36,119,-94,98,122,39,54,127,-35,-44,-27,109,-87,60,23,2,80,78,5,16,-45,104,85,74,42,81,-106,-80,29,44,79,-35,44,-37,-83,113,-84,-90,-39,77, 
  /* [9][0][][] */ -3,-1,103,35,86,-101,-59,-123,30,43,-19,45,-30,-85,-110,-36,-1,-10,-102,-69,-5,88,-117,-114,101,-17,-21,18,-21,-62,-96,95,54,-9,18,-26,-84,8,-38,-55,38,-77,44,-99,71,12,-112,43,43,-19,-74,-51,68,-81,-73,96,82,-67,-20,-14,-90,97,85,-84,-77,-5,93,36,-49,91,102,-99,-1,73,-107,-104,-85,-127,-49,94,24,20,97,21,-53,-101,26,-25,89,24,-41,105,103,-7,54,-45, 
  /* [10][0][][] */ -70,85,89,-69,-24,113,111,25,37,39,23,-71,117,86,-35,-3,-39,87,-115,-49,-14,28,57,-74,8,62,-120,-127,-54,94,-98,-82,91,106,126,79,-48,10,-35,37,-35,123,-117,-42,-97,-61,0,-65,-1,6,48,12,55,24,-59,-26,-115,-16,38,-58,3,70,119,54,126,-83,-104,-20,16,-19,-105,-65,90,70,-83,104,-10,64,68,16,81,0,66,105,-107,74,102,-27,43,10,-18,-70,-54,-41,-45,-59, 
  /* [11][0][][] */ 96,16,-6,89,90,52,45,42,91,90,-56,95,-2,-32,28,-52,-47,-83,66,48,29,63,27,-83,-88,-85,-17,58,81,12,30,-11,-65,-42,39,39,-45,65,-9,-50,-17,88,-63,21,-28,-40,-67,-65,71,99,127,63,-63,-52,22,25,-49,-52,4,-73,-4,69,78,-4,61,67,-41,20,75,38,-61,-49,50,92,-61,47,-52,35,-34,75,-89,14,-40,-35,39,-59,9,-28,-75,4,-2,-44,-61,-35,-16,-41, 
  /* [12][0][][] */ 7,57,-64,-12,87,8,-44,28,-85,50,-24,6,-52,2,39,-86,-108,-43,-52,-89,17,-20,7,89,-67,-61,90,-107,84,5,-46,110,-93,-80,-54,5,-12,-84,-25,33,106,30,-121,-48,-31,-92,-49,109,-53,-127,-86,98,32,-8,-90,75,-17,-72,47,58,49,101,-13,43,104,25,-55,107,50,90,40,63,75,107,-24,-14,-44,26,-126,-104,-67,93,37,6,-46,23,43,106,-103,-118,86,37,91,-23,20,64, 
  /* [13][0][][] */ 113,-46,88,91,86,99,71,52,77,-101,11,-27,71,57,52,-36,-111,-59,-68,23,61,-30,106,-54,-56,61,9,8,-83,-91,85,40,52,90,-29,48,-78,-26,28,69,-55,70,-49,5,-34,35,8,-32,41,99,-44,-90,-107,18,82,-79,-47,38,-30,-68,-31,120,-58,23,-62,-47,-93,88,-23,-6,79,-12,-79,48,-81,-40,-110,55,76,-52,60,-99,86,42,-69,-100,96,127,-14,-43,-56,57,99,-38,83,5, 
  /* [14][0][][] */ -68,-97,99,58,45,-25,-13,-120,-82,-38,69,74,-37,-110,-85,-97,-44,-57,5,39,-45,36,2,65,-113,-51,-25,39,-106,-125,-67,42,105,-24,-36,11,102,119,29,-105,-3,-109,41,88,74,-110,67,-86,116,42,46,55,84,-23,-4,23,-80,-4,51,65,-45,-78,-27,85,-122,-10,77,-104,-82,-84,-98,79,-1,92,45,-70,49,-105,58,35,55,-48,-118,-31,-109,-88,-127,103,114,8,89,-58,50,118,-23,70, 
  /* [15][0][][] */ 8,-25,-29,68,82,-73,60,-92,47,9,-67,13,116,8,-80,-127,87,15,-97,37,54,19,71,106,57,60,41,87,22,66,63,-89,2,13,-54,-1,-64,112,103,-64,20,110,-44,-20,28,-73,-38,-76,-6,-70,9,32,-93,-88,-37,4,65,49,-35,96,-32,-74,6,107,-23,87,-66,3,-60,8,60,-60,19,-13,65,-107,9,55,100,63,-78,61,-92,-68,-115,-28,-93,32,88,70,-125,-32,59,116,-99,112, 
  /* [16][0][][] */ -57,8,103,-59,49,111,-61,39,65,42,-112,76,-26,-62,-67,-52,110,85,80,62,113,78,-46,45,-28,86,-68,60,-107,8,52,15,-93,72,56,72,-37,54,-42,-68,25,-51,77,88,71,118,117,-17,-51,-112,-4,124,-56,109,61,42,22,106,62,15,115,127,43,75,48,29,-45,107,55,112,-43,-20,34,110,52,93,-23,95,-114,-8,27,-96,57,38,21,97,120,28,77,17,1,124,66,-30,-65,37, 
  /* [17][0][][] */ 28,-119,24,76,-47,-121,-75,-102,34,-96,78,43,90,53,-124,40,25,46,108,109,-104,-21,6,-60,19,60,-88,18,101,-60,-41,70,-40,-31,25,-1,-57,94,-92,-39,-105,-50,-23,-17,0,4,79,-119,78,104,-23,19,-29,72,94,-83,-127,78,-91,-123,24,-102,67,91,-93,-83,35,-113,-119,-11,102,21,7,-127,-75,59,111,-57,34,-67,3,-26,-86,-103,-123,65,73,-42,12,70,-106,-126,-21,89,6,7, 
  /* [18][0][][] */ -91,93,102,-79,-1,-107,-107,11,-12,78,-112,-39,-43,27,57,-64,22,-39,52,-27,95,-47,17,-78,33,-100,-25,102,25,35,-4,37,32,-41,-112,-113,-35,29,-29,57,-47,-5,-43,-9,-121,11,23,-3,6,-33,59,35,-111,-24,7,81,-55,30,-21,-121,69,109,12,23,-65,-127,-33,82,65,-68,-71,105,-107,-48,-93,-112,51,51,-8,-84,-65,-26,-34,-74,96,-35,64,61,-114,-83,-69,106,79,-49,45,-15, 
  /* [19][0][][] */ 15,26,73,35,61,-91,95,91,91,-67,25,-17,-105,31,-62,56,72,-113,107,56,-27,78,-62,9,74,-86,25,-76,-98,-126,-72,44,78,-89,30,-4,5,-76,-62,-110,42,-124,-90,7,-93,26,75,-101,-33,36,-45,43,-41,12,3,-14,22,96,-3,-33,54,-59,100,60,-73,-7,-32,-7,-13,52,72,-56,-70,-127,-60,-88,-27,-121,10,105,55,-122,-34,75,-94,-12,3,-9,89,26,-10,62,-37,114,68,-54, 
  /* [20][0][][] */ -19,69,78,87,-78,106,25,55,5,20,-83,13,11,100,57,-76,-30,-28,-54,-14,33,-33,-61,-52,69,-87,-93,67,46,32,-39,103,89,55,-2,54,51,-22,-26,-103,-75,-23,-70,-85,-23,-65,-73,110,57,-90,-78,39,61,124,71,14,106,60,111,90,121,-37,-55,-18,-10,-73,-37,8,-73,-58,-56,94,-62,-85,57,23,127,88,106,102,77,19,91,-43,55,125,-18,55,33,89,19,56,41,23,-21,17, 
  /* [21][0][][] */ 89,76,55,-113,83,-78,68,5,-4,-66,-83,40,23,37,-62,-105,-115,-30,12,2,116,-60,66,-97,37,-81,-36,61,3,21,-10,-25,12,19,-104,-118,101,100,-127,-39,-8,6,23,-24,-104,-89,-81,87,-23,-67,5,88,21,71,-101,36,-61,58,-55,113,63,-100,13,-6,87,25,-48,-74,-115,-5,53,84,31,-26,75,56,-114,-40,57,105,10,100,44,-78,20,-104,63,-87,-105,77,98,-123,-45,-53,71,-27, 
  /* [22][0][][] */ 35,-53,-69,-114,107,-66,119,66,-106,97,-79,-118,115,-127,-127,-89,48,93,-120,-71,96,-79,40,36,101,7,-120,123,-55,-82,-66,-121,54,64,15,17,14,-18,-57,-126,2,-9,10,109,62,-119,100,-24,-72,-82,-8,-11,-69,-108,-48,33,-38,-35,-33,-30,110,-72,-75,-114,-79,26,-123,-63,118,125,-31,-4,-63,4,61,-89,55,-52,73,99,121,-108,-99,-118,91,94,114,-30,-65,36,-62,68,13,15,-30,121, 
  /* [23][0][][] */ 69,-74,5,56,87,-127,1,-108,63,-79,86,72,-9,-109,12,-30,85,-26,-99,90,89,-81,99,-41,-11,9,84,14,67,32,79,-26,-29,41,5,48,97,-1,-107,10,-94,3,12,-104,-57,-73,120,25,81,-106,-115,-43,69,-63,-63,89,-99,-6,84,43,-119,-80,-40,3,8,50,-117,-98,71,-8,97,-82,-2,-18,-55,-89,32,-25,93,119,-38,-59,8,-79,99,5,118,-3,-90,47,110,8,90,-49,-16,91, 
  /* [24][0][][] */ -80,-42,-104,-58,-125,-69,-52,-105,67,106,84,33,127,66,-30,-119,-65,62,14,-5,115,-71,-46,-26,23,8,82,52,96,97,3,-42,22,24,59,33,-49,-66,42,-2,-53,-75,95,-5,30,-37,53,60,-55,-41,12,27,65,69,80,-41,8,96,23,0,108,-33,69,120,-82,98,-40,-66,-83,53,-47,-5,-22,57,107,93,83,-65,-84,-75,-57,-82,-32,-100,10,74,-8,-71,46,-87,16,-52,0,53,-71,41, 
  /* [25][0][][] */ -77,-56,-64,-7,97,-33,-90,50,41,-94,-45,17,66,-15,-104,-14,-67,53,49,-88,52,75,-15,-48,21,-64,-90,42,72,-61,31,127,84,-108,39,61,90,-67,-10,-22,-87,85,-93,-5,84,28,40,30,-98,83,-71,16,49,-28,-58,-2,-11,39,-101,72,96,45,47,36,-3,78,-16,-12,-77,2,-23,-104,19,-105,54,24,70,61,16,22,53,29,-56,79,-65,-49,-98,-75,-22,-46,105,60,-110,23,-26,-60, 
  /* [26][0][][] */ 62,-117,-37,-29,-113,6,-19,-22,-113,-127,102,79,-83,-50,2,-20,107,28,-94,-66,14,61,92,6,28,66,8,35,5,9,-95,-2,-20,-62,-102,-98,-77,84,-57,105,-101,99,50,25,-76,72,-40,94,-23,26,-6,101,-6,-46,-9,-108,103,73,47,17,3,-109,74,-16,118,-24,-68,55,-78,74,79,95,77,-94,-80,-4,43,-117,-104,16,-32,73,82,-69,75,-2,-50,14,-85,109,-6,22,-56,120,50,87, 
  /* [27][0][][] */ 13,4,-69,-109,-57,-73,-73,-20,43,93,36,-111,-36,56,83,-34,65,-20,82,-91,-101,9,-34,-26,-106,44,-115,-6,65,26,-38,-12,58,69,-99,-99,-101,-68,-119,89,-100,13,25,12,99,20,69,104,89,69,55,-79,-95,-89,-11,-39,109,-33,-121,-80,-62,-67,-36,52,39,-49,-118,105,62,7,-127,2,54,-49,-11,-97,43,-73,88,100,86,-35,116,-61,-79,-89,-39,31,-54,-6,-42,-56,58,12,88,54, 
  /* [28][0][][] */ 103,-8,82,40,-105,-62,-104,-76,-44,-111,56,69,-60,-88,-1,98,90,108,-75,78,-34,18,-114,-82,-119,77,-91,-70,-77,-75,-6,-22,-108,12,76,69,13,-113,-38,26,102,39,-99,51,-114,-14,13,45,20,-56,-53,-32,-55,20,52,35,68,-18,77,47,-5,-44,-91,-1,67,69,-27,76,-78,21,-94,-48,67,33,2,-108,-127,-70,-93,41,-82,-95,113,-37,57,-110,62,-90,-111,-77,-45,-67,-39,49,-104,-76, 
  /* [29][0][][] */ 52,57,70,-51,-87,9,-116,14,103,-16,-89,-94,100,-102,-45,-39,-95,104,38,-77,-82,-27,64,13,-23,-2,-45,-14,-99,-13,106,-6,42,2,-85,-59,0,104,-10,98,49,110,-41,92,-2,108,-59,-20,15,-14,52,-101,99,-103,113,42,-86,53,-53,127,-125,111,-106,-65,-69,-63,63,88,100,-88,50,-77,115,76,60,38,119,-54,-27,39,-6,-84,-16,-83,68,121,48,79,-41,101,75,80,-104,6,-6,55, 
  /* [30][0][][] */ 28,-63,-60,33,-97,23,-67,-34,121,-14,-2,-57,-99,-1,58,18,-4,36,89,-99,42,-101,-111,14,-115,23,-83,94,-31,-107,-90,7,-81,-68,-127,-52,15,-16,-19,13,88,-78,-10,98,103,-51,102,56,-69,72,16,-116,90,-50,-9,102,-101,-55,-81,-66,-114,-8,-72,-36,-113,-85,-109,91,-59,102,46,-47,-88,105,40,-83,-58,-70,-80,-56,30,23,-114,-10,-104,29,-89,107,-36,-114,63,56,-47,-2,9,-65, 
  /* [31][0][][] */ 83,-92,32,107,66,54,-59,-98,-29,-25,-76,-92,119,-117,-48,124,-63,-89,62,43,58,38,-31,102,70,-114,34,32,-77,-81,46,108,17,24,-90,-7,93,-31,-68,-104,61,-64,-10,30,6,-54,-36,29,70,18,91,-33,-115,-52,-85,20,-120,77,5,127,-43,-2,81,-77,70,111,-42,-70,92,-99,-127,17,-108,-41,-4,3,-64,-46,49,89,-76,-35,52,71,55,96,-87,18,13,-57,-81,-58,18,101,-8,-15, 
};
const TfArray<4, int> tensor_dimension5 = { 4, { 32,1,1,96 } };
const TfArray<32, float> quant5_scale = { 32, { 0.0018106402130797505, 0.0019317424157634377, 0.001753050135448575, 0.0017849620198830962, 0.0017305483343079686, 0.0019270573975518346, 0.0020317849703133106, 0.0018257861956954002, 0.0017668608343228698, 0.0018470992799848318, 0.0017525720177218318, 0.0022994591854512691, 0.0018233105074614286, 0.0019638987723737955, 0.0018347641453146935, 0.0019310814095661044, 0.0017282875487580895, 0.0018048944184556603, 0.0018195422599092126, 0.0017486909637227654, 0.0019219995010644197, 0.0017578431870788336, 0.0016733199590817094, 0.0019033252028748393, 0.0019827168434858322, 0.0020279183518141508, 0.001821029232814908, 0.0017605925677344203, 0.0017965908627957106, 0.0017614336684346199, 0.0018489945214241743, 0.0018463368760421872, } };
const TfArray<32, int> quant5_zero = { 32, { 0,0,0,0,0,0,0,0,0,0,0,0,0,0,0,0,0,0,0,0,0,0,0,0,0,0,0,0,0,0,0,0 } };
const TfLiteAffineQuantization quant5 = { (TfLiteFloatArray*)&quant5_scale, (TfLiteIntArray*)&quant5_zero, 0 };
const ALIGN(16) int32_t tensor_data6[96] = { -1952, 3286, 7878, 2308, -3143, -3397, 21103, 2293, 2460, -1500, 7025, -308, -9902, 2204, 14702, 6922, 15502, 5310, -3947, -4887, 3557, 32606, 19837, 17240, 1058, 912, 3739, 2521, 2062, -4162, 5847, -2425, -292, 5069, 34, 900, 10441, 4506, -1716, 4088, 8007, 6184, 5341, 11313, 4025, 3811, 1655, 7645, 5223, -5805, -4991, 283, -199, -1315, 2088, -41, 232, -629, -4947, 7886, -923, 1304, -1192, -1476, -3397, 5416, 17939, 1559, -2718, 729, 1538, 2381, 1909, -1068, 622, 10473, -384, 15184, 15763, -900, 9276, 1558, -513, 1037, 15392, 8246, 3512, 1212, 5343, 3933, -310, -6417, 778, -1864, -1656, -2127, };
const TfArray<1, int> tensor_dimension6 = { 1, { 96 } };
const TfArray<96, float> quant6_scale = { 96, { 0.00032439746428281069, 0.00047491100849583745, 0.00030389236053451896, 0.00038439684431068599, 0.00033418100792914629, 0.00043148268014192581, 0.00015742819232400507, 0.00031454261625185609, 0.00024506499175913632, 0.00043939272291027009, 0.00027899674023501575, 0.0002352174196857959, 0.00025569053832441568, 0.0012660525972023606, 0.00021101157472003251, 0.0001718689309200272, 0.00012078580039087683, 0.00027227806276641786, 0.00049165793461725116, 0.00034292993950657547, 0.00017254857812076807, 8.2060592831112444e-05, 0.00015469989739358425, 9.7439471574034542e-05, 0.00018197100143879652, 0.00054382282542064786, 0.00079217733582481742, 0.00043071873369626701, 0.00024045922327786684, 0.00046710629248991609, 0.000252552330493927, 0.00031951459823176265, 0.000188647914910689, 0.00022905420337338001, 0.00035005016252398491, 0.00027263336232863367, 0.00018258951604366302, 0.00024024545564316213, 0.00034242859692312777, 0.00042937655234709382, 0.00015737148351036012, 0.00041785239591263235, 0.00028793886303901672, 0.00020571167988236994, 0.00047461359645240009, 0.00026589634944684803, 0.00031075987499207258, 0.00027599555323831737, 0.00026119456742890179, 0.00022853956033941358, 0.00031807462801225483, 0.00022231694310903549, 0.00050655769882723689, 0.00023049430456012487, 0.00037656165659427643, 0.00035669328644871712, 0.00043075278517790139, 0.00042342065717093647, 0.00031178540666587651, 0.00023341288033407182, 0.00081334298010915518, 0.00050981604726985097, 0.00022747745970264077, 0.00052067992510274053, 0.00055468699429184198, 0.00035260006552562118, 0.00012209187843836844, 0.00024918746203184128, 0.00042726672836579382, 0.000374490802641958, 0.00023752056586090475, 0.00021305042901076376, 0.00069260550662875175, 0.00037798023549839854, 0.00030032123322598636, 0.00020777908503077924, 0.00032084560371004045, 0.00012343084381427616, 0.00011556832760106772, 0.00020950326870661229, 0.00015860803250689059, 0.00020727899391204119, 0.00018573951092548668, 0.00022125594841782004, 0.00011964141594944522, 0.00028989018755964935, 0.00066037866054102778, 0.00024365170975215733, 0.00013603930710814893, 0.00052737334044650197, 0.0003109559474978596, 0.00030653655994683504, 0.0002609138609841466, 0.00056063238298520446, 0.00038209531339816749, 0.00020035395573358983, } };
const TfArray<96, int> quant6_zero = { 96, { 0,0,0,0,0,0,0,0,0,0,0,0,0,0,0,0,0,0,0,0,0,0,0,0,0,0,0,0,0,0,0,0,0,0,0,0,0,0,0,0,0,0,0,0,0,0,0,0,0,0,0,0,0,0,0,0,0,0,0,0,0,0,0,0,0,0,0,0,0,0,0,0,0,0,0,0,0,0,0,0,0,0,0,0,0,0,0,0,0,0,0,0,0,0,0,0 } };
const TfLiteAffineQuantization quant6 = { (TfLiteFloatArray*)&quant6_scale, (TfLiteIntArray*)&quant6_zero, 0 };
const ALIGN(16) int8_t tensor_data7[96*1*1*16] = { 
  /* [0][0][][] */ -8,108,-9,-127,-29,-12,-19,-83,-30,10,-13,58,40,-58,-29,60, 
  /* [1][0][][] */ -25,20,-62,5,-25,-37,16,-76,63,63,-66,24,1,1,36,-127, 
  /* [2][0][][] */ -5,16,-47,34,45,37,-27,-86,127,-50,-2,-5,-13,116,-53,4, 
  /* [3][0][][] */ 37,-54,19,-101,18,-18,-17,2,127,13,88,56,8,26,10,119, 
  /* [4][0][][] */ -78,70,16,59,25,-17,7,24,-15,8,6,-34,-127,-14,-23,9, 
  /* [5][0][][] */ 9,48,116,-1,17,76,-88,63,-59,59,-34,-48,34,-45,-127,29, 
  /* [6][0][][] */ 62,-49,127,-100,60,-10,-60,110,-93,-123,46,-44,-7,101,-40,95, 
  /* [7][0][][] */ 31,127,-23,-37,100,19,11,-40,126,98,-20,23,27,-11,42,35, 
  /* [8][0][][] */ 26,-93,6,-89,24,-56,14,-73,17,49,60,-18,18,127,76,62, 
  /* [9][0][][] */ 17,-39,-3,127,33,-10,31,-46,-53,109,22,-19,-4,-53,-18,-14, 
  /* [10][0][][] */ -12,19,-54,-127,6,9,5,16,21,-50,5,-48,4,-36,5,21, 
  /* [11][0][][] */ 0,6,25,-24,89,-32,82,-67,-93,26,-13,19,0,127,-66,-16, 
  /* [12][0][][] */ 110,-53,-125,-31,49,-110,20,20,7,73,-100,-63,-23,127,3,58, 
  /* [13][0][][] */ -14,11,-25,11,7,-127,-9,19,1,-12,1,5,10,-19,10,17, 
  /* [14][0][][] */ 12,-17,103,-18,66,15,-127,-78,-6,-22,41,35,18,-58,-32,-41, 
  /* [15][0][][] */ -121,16,-7,-98,-15,-7,127,32,-46,75,104,-38,-5,46,117,16, 
  /* [16][0][][] */ 33,99,127,127,6,34,119,79,-126,-8,-100,-20,16,2,-1,-102, 
  /* [17][0][][] */ -28,-100,-20,28,-68,-19,-48,8,-127,-40,3,-54,1,39,51,-34, 
  /* [18][0][][] */ 2,45,9,64,51,3,13,1,78,46,-21,-25,4,127,53,27, 
  /* [19][0][][] */ 30,-18,22,9,77,22,-70,-74,-87,-58,-43,-127,-19,-45,9,-25, 
  /* [20][0][][] */ 81,-34,-76,-37,-4,-90,38,7,-61,10,-127,-43,19,6,37,4, 
  /* [21][0][][] */ 66,-4,125,-37,16,22,2,117,5,-82,123,77,4,127,51,115, 
  /* [22][0][][] */ -10,42,-51,127,-56,20,120,44,-26,9,-31,11,18,25,36,-8, 
  /* [23][0][][] */ 96,-4,93,-101,73,20,-10,41,7,-5,-11,-49,-16,0,-127,34, 
  /* [24][0][][] */ -127,49,18,-14,3,103,13,-15,5,25,104,3,-81,7,56,-27, 
  /* [25][0][][] */ 26,21,3,16,3,4,63,-54,-7,-127,-21,-25,-13,-35,17,27, 
  /* [26][0][][] */ -36,-8,-4,12,-42,-4,-28,-28,-105,-34,-1,-40,20,127,-37,41, 
  /* [27][0][][] */ -2,26,9,64,41,-34,-26,-38,52,1,-31,-4,4,127,-12,19, 
  /* [28][0][][] */ 24,56,65,58,127,-8,10,48,-77,-7,-37,-21,20,88,28,-28, 
  /* [29][0][][] */ 5,-16,14,8,22,-11,-4,27,-31,-10,-31,-127,8,-24,-18,9, 
  /* [30][0][][] */ -26,91,-46,77,-37,-12,54,-127,-36,67,-5,0,66,45,87,84, 
  /* [31][0][][] */ -51,-31,-8,-65,-2,2,-65,-109,28,94,-9,-127,-44,-50,12,22, 
  /* [32][0][][] */ -127,-87,-19,68,54,36,-21,1,-9,-58,-121,43,68,-1,57,78, 
  /* [33][0][][] */ 0,-48,-48,-12,-102,-20,-91,-12,57,4,3,-60,37,-122,127,37, 
  /* [34][0][][] */ 50,-18,54,17,38,12,-49,69,-83,-54,55,12,4,-6,-10,127, 
  /* [35][0][][] */ -34,58,-75,21,-8,-20,35,-127,80,84,-97,-11,5,-7,78,-127, 
  /* [36][0][][] */ -23,37,7,127,40,15,121,4,-25,50,-35,-25,-23,22,-71,-53, 
  /* [37][0][][] */ 14,-12,14,-52,1,-10,-46,-44,-73,-6,-6,-4,0,-127,45,-35, 
  /* [38][0][][] */ 35,93,-12,-44,127,-2,26,-35,125,87,-18,6,6,-35,46,7, 
  /* [39][0][][] */ -34,57,-13,-127,-19,17,-30,19,39,-76,-23,-26,22,72,52,18, 
  /* [40][0][][] */ 2,-34,11,-93,7,-12,-14,-36,-127,-3,-17,-25,-11,-123,75,-46, 
  /* [41][0][][] */ -4,-24,-47,-25,0,-35,15,-22,-37,10,-54,-12,-127,8,26,38, 
  /* [42][0][][] */ 127,114,-36,-36,-70,-51,-4,-59,12,25,104,-62,-46,59,104,-125, 
  /* [43][0][][] */ -29,125,-56,-19,71,-3,127,-26,63,87,-26,6,25,-109,-63,-53, 
  /* [44][0][][] */ -17,-14,2,-49,48,-2,-82,-127,-25,-18,5,-8,-17,-34,64,-49, 
  /* [45][0][][] */ -16,69,-127,-38,37,-53,44,-69,23,41,20,-75,34,-8,48,-30, 
  /* [46][0][][] */ 11,6,-19,-100,-7,22,32,-40,-127,-36,10,-5,-9,-121,78,-36, 
  /* [47][0][][] */ 16,45,28,-22,127,-20,-28,15,-70,34,-6,15,4,3,123,-23, 
  /* [48][0][][] */ -127,-88,-27,48,63,10,3,-25,-3,-15,-122,46,53,6,78,48, 
  /* [49][0][][] */ 4,24,99,87,127,4,58,40,-111,-47,-27,-65,11,122,17,-65, 
  /* [50][0][][] */ 19,-29,-106,-4,31,-127,-14,-10,-5,-26,8,-39,31,-10,-4,-5, 
  /* [51][0][][] */ 17,28,37,-1,24,5,-3,13,-127,43,-13,-109,0,-100,-12,98, 
  /* [52][0][][] */ 5,61,7,67,52,7,-9,56,86,108,-19,-54,42,127,58,39, 
  /* [53][0][][] */ 4,-49,-26,-3,-92,-17,-86,-3,39,11,4,-57,33,-127,113,14, 
  /* [54][0][][] */ 45,-1,-34,16,127,81,-110,-24,-73,-16,-23,-69,12,-35,-26,-45, 
  /* [55][0][][] */ 44,-7,14,0,48,-41,-80,-127,-30,-68,-49,24,-6,-25,14,-11, 
  /* [56][0][][] */ -13,9,25,-28,-12,-36,-108,70,-16,127,-10,-21,25,4,-6,15, 
  /* [57][0][][] */ 2,22,-35,-17,-35,-42,127,78,-35,14,-21,-21,27,37,106,-16, 
  /* [58][0][][] */ 44,29,-127,43,97,107,-31,60,-96,-41,1,3,-31,26,-10,-29, 
  /* [59][0][][] */ -88,70,104,32,-76,-67,109,127,21,14,25,-7,7,8,59,-2, 
  /* [60][0][][] */ 22,-6,-60,-1,18,-127,-30,-3,-19,-29,-19,-35,25,-16,3,17, 
  /* [61][0][][] */ 17,-10,31,127,89,26,40,9,-98,-7,24,39,-17,28,41,-57, 
  /* [62][0][][] */ -32,127,9,-49,-42,-10,-75,48,-27,-85,-108,-65,-6,-103,-56,-30, 
  /* [63][0][][] */ -41,20,-23,127,-71,17,-64,-41,-62,-40,-46,-42,31,55,31,32, 
  /* [64][0][][] */ -1,1,3,49,7,16,-12,70,28,7,-11,-43,-19,-127,47,-6, 
  /* [65][0][][] */ -14,-33,-3,-127,39,-23,81,-24,-15,25,-2,-107,-2,4,21,-30, 
  /* [66][0][][] */ 25,-8,77,-8,10,-1,-25,127,34,-46,73,69,-11,91,0,61, 
  /* [67][0][][] */ -2,55,-11,-127,-8,8,-47,32,84,-97,-24,-12,44,86,73,24, 
  /* [68][0][][] */ -51,46,127,-8,9,8,0,9,-42,-24,-9,-23,15,-19,106,-21, 
  /* [69][0][][] */ 127,98,-8,6,-59,-25,-21,-44,2,20,96,-71,-61,61,54,-103, 
  /* [70][0][][] */ 39,11,-59,-17,-32,40,73,127,-37,90,-43,-1,20,69,-24,12, 
  /* [71][0][][] */ 13,-11,-7,15,2,-86,-8,20,-33,24,-87,12,-127,-7,34,52, 
  /* [72][0][][] */ 15,9,-127,14,18,16,27,92,-40,-24,8,-4,18,22,-4,10, 
  /* [73][0][][] */ -39,25,29,-1,43,-18,-59,-127,11,-77,24,-32,16,-35,38,-6, 
  /* [74][0][][] */ 9,15,29,127,10,-11,-96,81,-80,-5,-67,40,21,-123,39,-88, 
  /* [75][0][][] */ 0,11,-57,9,6,-19,0,-12,115,12,-27,-3,7,127,-38,13, 
  /* [76][0][][] */ 0,-15,2,28,9,-18,-19,71,23,-23,-16,-127,-7,-6,-1,6, 
  /* [77][0][][] */ 3,23,-24,127,-54,18,89,76,-1,22,-22,21,-12,-17,-4,-9, 
  /* [78][0][][] */ 27,2,20,-117,41,-43,-47,25,13,-75,-7,-56,23,127,23,47, 
  /* [79][0][][] */ -4,-97,-93,-41,-96,-11,18,-89,127,14,20,66,17,39,49,-56, 
  /* [80][0][][] */ -23,15,90,-83,11,-9,39,-103,-73,20,-54,-127,26,102,84,-44, 
  /* [81][0][][] */ -40,37,-126,21,66,-127,-22,52,-9,-46,58,1,25,0,13,2, 
  /* [82][0][][] */ 127,4,2,19,16,-114,-14,21,-14,-5,-98,4,118,9,-9,19, 
  /* [83][0][][] */ -38,81,-114,-96,-30,-3,56,-127,65,42,-40,-120,26,56,61,95, 
  /* [84][0][][] */ -36,33,55,-38,-7,-42,58,-127,-51,45,-15,-69,21,55,64,0, 
  /* [85][0][][] */ -81,127,20,-125,-84,-37,-37,-7,-66,-13,-85,18,-3,-10,-98,-28, 
  /* [86][0][][] */ -3,16,-12,-9,-10,-20,127,7,-11,-39,1,-15,8,32,70,-19, 
  /* [87][0][][] */ -31,-39,0,-127,7,-28,65,-13,1,22,-5,-121,-18,5,20,-47, 
  /* [88][0][][] */ 127,-14,43,10,34,-94,-17,17,-49,9,-122,-61,25,25,55,1, 
  /* [89][0][][] */ 26,-17,-33,-39,29,-18,-36,-2,-35,19,37,-55,127,-14,16,-57, 
  /* [90][0][][] */ 0,-58,37,-56,61,3,-56,92,64,-76,-28,-20,-8,115,23,-127, 
  /* [91][0][][] */ -36,9,-32,-38,21,-6,-29,-99,-4,64,-4,-127,-15,-13,-10,19, 
  /* [92][0][][] */ -32,32,44,18,3,-127,21,-7,-2,-30,1,-22,6,-26,20,3, 
  /* [93][0][][] */ 41,-18,127,-5,-48,51,22,-24,-15,32,-68,-13,-29,-11,28,-2, 
  /* [94][0][][] */ 20,1,-8,-34,25,-2,-11,-2,-22,-25,21,-44,127,-16,39,-26, 
  /* [95][0][][] */ 127,92,1,34,-96,-14,-58,-15,-28,-25,88,-60,-53,33,76,-86, 
};
const TfArray<4, int> tensor_dimension7 = { 4, { 96,1,1,16 } };
const TfArray<96, float> quant7_scale = { 96, { 0.00081281806342303753, 0.0011899484088644385, 0.00076144002377986908, 0.00096315395785495639, 0.00083733192877843976, 0.001081133377738297, 0.00039445585571229458, 0.00078812555875629187, 0.00061404070584103465, 0.0011009529698640108, 0.00069906091084703803, 0.0005893664201721549, 0.00064066436607390642, 0.0031722516287118196, 0.00052871566731482744, 0.00043063890188932419, 0.00030264380620792508, 0.00068222644040361047, 0.0012319098459556699, 0.00085925345774739981, 0.00043234185432083905, 0.00020561298879329115, 0.00038761977339163423, 0.000244146678596735, 0.00045595091069117188, 0.0013626154977828264, 0.001984898466616869, 0.0010792191606014967, 0.00060250039678066969, 0.0011703927302733064, 0.00063280115136876702, 0.00080058345338329673, 0.00047268075286410749, 0.00057392369490116835, 0.00087709410581737757, 0.00068311672657728195, 0.0004575006605591625, 0.00060196476988494396, 0.00085799733642488718, 0.0010758561547845602, 0.0003943137708120048, 0.0010469809640198946, 0.00072146649472415447, 0.00051543611334636807, 0.0011892032343894243, 0.00066623627208173275, 0.00077864743070676923, 0.00069154106313362718, 0.00065445539075881243, 0.0005726342205889523, 0.00079697545152157545, 0.00055704265832901001, 0.0012692430755123496, 0.0005775320460088551, 0.00094352191081270576, 0.00089373922673985362, 0.0010793044930323958, 0.0010609329910948873, 0.00078121700789779425, 0.00058484490728005767, 0.0020379316993057728, 0.0012774072820320725, 0.00056997296633198857, 0.0013046280946582556, 0.0013898370089009404, 0.00088348315330222249, 0.00030591635731980205, 0.00062437006272375584, 0.0010705697350203991, 0.00093833316350355744, 0.00059513724409043789, 0.00053382426267489791, 0.0017354089068248868, 0.00094707636162638664, 0.0007524920511059463, 0.00052061624592170119, 0.00080391846131533384, 0.00030927127227187157, 0.0002895707730203867, 0.00052493641851469874, 0.0003974120772909373, 0.00051936320960521698, 0.00046539338654838502, 0.00055438419803977013, 0.00029977640951983631, 0.00072635582182556391, 0.0016546606784686446, 0.00061049958458170295, 0.00034086336381733418, 0.0013213993515819311, 0.00077913870336487889, 0.00076806539436802268, 0.00065375200938433409, 0.0014047339791432023, 0.00095738715026527643, 0.00050201168050989509, } };
const TfArray<96, int> quant7_zero = { 96, { 0,0,0,0,0,0,0,0,0,0,0,0,0,0,0,0,0,0,0,0,0,0,0,0,0,0,0,0,0,0,0,0,0,0,0,0,0,0,0,0,0,0,0,0,0,0,0,0,0,0,0,0,0,0,0,0,0,0,0,0,0,0,0,0,0,0,0,0,0,0,0,0,0,0,0,0,0,0,0,0,0,0,0,0,0,0,0,0,0,0,0,0,0,0,0,0 } };
const TfLiteAffineQuantization quant7 = { (TfLiteFloatArray*)&quant7_scale, (TfLiteIntArray*)&quant7_zero, 0 };
const ALIGN(16) int32_t tensor_data8[16] = { -9305, 11328, -19466, -275, -11570, 8778, 29243, -50949, -2684, 14972, 24245, 17899, -6874, 11239, -5883, 10338, };
const TfArray<1, int> tensor_dimension8 = { 1, { 16 } };
const TfArray<16, float> quant8_scale = { 16, { 0.0009180536144413054, 0.00049699266673997045, 0.0002138702548108995, 0.00020960751862730831, 0.00038949257577769458, 0.0004200707480777055, 0.00035423101508058608, 0.00028642543475143611, 0.00033791028545238078, 0.00028677275986410677, 0.00078017509076744318, 0.00053465616656467319, 0.00046454695984721184, 0.00023655836412217468, 0.00051600969163700938, 0.00049088167725130916, } };
const TfArray<16, int> quant8_zero = { 16, { 0,0,0,0,0,0,0,0,0,0,0,0,0,0,0,0 } };
const TfLiteAffineQuantization quant8 = { (TfLiteFloatArray*)&quant8_scale, (TfLiteIntArray*)&quant8_zero, 0 };
const ALIGN(16) int8_t tensor_data9[16*1*1*96] = { 
  /* [0][0][][] */ -18,-9,-2,-38,12,-11,-34,-2,12,5,-12,7,-10,-5,-28,6,0,0,-10,-2,5,-24,-3,9,6,11,2,127,32,-30,49,-6,5,3,7,5,-15,10,-39,-9,2,4,1,26,5,8,16,4,31,4,-4,5,18,-13,-9,70,8,5,-24,-31,-3,19,-6,-21,-43,-54,-20,28,1,6,12,-20,-1,-33,-5,-31,-33,17,-4,4,-6,-25,18,16,0,-10,-3,-81,2,-16,5,1,42,-36,-28,-14, 
  /* [1][0][][] */ 29,-68,-87,-58,127,-27,65,21,-25,-66,-47,-8,4,-13,-50,52,-51,-5,34,33,28,36,-12,-45,0,2,-10,-47,38,-16,-49,16,-12,27,2,6,4,9,15,8,-18,32,-38,-7,-16,61,27,13,27,-73,7,-41,-10,32,40,26,-51,-25,-29,-33,15,-21,-5,-30,-72,93,-27,-26,-17,-36,-18,13,50,-76,-19,0,20,-36,47,9,21,-30,28,0,-55,34,-22,39,3,-45,-15,2,12,-2,21,93, 
  /* [2][0][][] */ -15,77,-85,1,78,84,11,88,3,-108,24,-30,4,4,36,7,7,-17,-45,64,26,-1,75,3,49,37,-4,-40,30,-2,54,-81,20,39,-28,45,-127,-112,60,45,-4,-56,27,-19,27,-28,0,68,-8,30,-10,-13,96,-5,-6,59,15,12,14,24,15,14,41,-32,0,12,-36,13,-38,8,-20,-22,-48,-83,30,56,55,49,25,-23,19,-44,3,4,-42,19,43,66,2,39,23,-25,-4,-34,-42,-2, 
  /* [3][0][][] */ 60,41,114,10,24,-6,-2,13,-10,-87,35,-63,1,40,37,80,11,6,36,5,107,-13,35,11,60,-16,-15,13,23,43,-15,82,-105,8,16,-5,-6,-41,1,67,-91,-27,85,2,5,60,-60,-94,-59,-8,-42,45,0,-127,5,6,-110,84,59,43,13,93,7,-59,27,76,12,-40,44,-8,-3,-61,45,-52,38,-27,12,-16,18,32,-35,-56,6,15,-16,2,36,43,48,31,39,43,53,119,76,-43, 
  /* [4][0][][] */ 9,7,1,-16,127,26,-18,-23,-39,-57,-22,-40,-48,24,-8,44,28,-90,-49,67,-18,17,29,-20,1,-9,8,-27,13,-8,68,-60,99,7,-31,22,44,3,26,5,-36,-24,-24,-32,8,-66,-10,28,52,10,0,14,7,-30,12,-28,16,-18,-35,42,-5,58,62,32,30,59,-27,-17,-43,13,38,63,25,-82,-30,-37,14,33,81,-49,6,-36,-3,-2,-69,10,65,74,-42,36,13,-42,-1,3,39,-27, 
  /* [5][0][][] */ -3,-6,-27,3,15,-30,30,-30,-26,-34,-7,5,0,22,-3,14,-2,-8,3,-17,17,19,-40,56,5,-3,4,-76,-4,30,21,29,7,-4,4,-43,17,9,2,-8,-7,-11,31,-22,-6,-10,7,-21,-5,-24,14,-17,6,-10,-11,-49,-14,7,-18,19,58,4,-8,33,-12,61,-4,67,2,89,2,21,8,11,1,72,-44,-3,11,3,-13,-11,-4,20,-4,6,-6,127,4,18,-5,-6,-7,1,-43,15, 
  /* [6][0][][] */ 30,-97,-10,-52,-17,-5,36,7,-2,12,-26,-61,-36,-8,-38,49,32,-12,-8,2,-44,41,13,-1,-30,3,-18,-6,-6,12,47,-7,70,8,66,-7,-20,7,17,-117,-6,100,-15,-24,24,-33,-15,18,-12,17,-35,58,-4,-56,-19,2,2,-75,-3,10,-16,58,24,-73,31,-30,-5,-38,-20,-11,127,-4,-33,24,-22,29,-99,1,32,4,25,31,18,-11,-27,3,40,31,-7,-7,34,-46,-29,-15,-45,-18, 
  /* [7][0][][] */ 7,127,64,29,103,61,35,-17,-22,-40,39,-20,-19,28,24,6,5,-31,19,33,30,-43,40,5,-7,20,19,-4,1,-14,12,12,35,-2,-35,8,20,-16,-4,96,-55,35,21,21,-17,-6,11,-22,-31,-10,27,21,10,-46,-37,39,40,14,-25,7,-9,-36,1,-3,-51,75,-27,-70,0,-29,3,74,-23,-32,9,16,63,49,41,-21,-49,-25,-14,2,-20,45,4,-9,-9,43,-19,-42,-23,1,31,-5, 
  /* [8][0][][] */ -31,-6,48,19,-127,-45,43,-20,29,93,76,8,-20,31,22,-3,-43,-2,-4,-17,-51,6,-109,72,31,-28,58,-2,17,30,-2,43,92,-12,4,9,-29,-26,37,26,5,-34,47,3,-25,-10,39,10,-88,9,35,26,-51,-32,-31,48,4,-68,-84,-22,14,-41,-30,4,-12,84,-12,-69,24,-6,-52,-15,38,55,72,-13,-28,-40,-16,11,-84,3,-16,14,27,16,81,79,30,-45,42,59,-5,-12,56,18, 
  /* [9][0][][] */ -11,-91,0,32,81,96,-50,-13,27,-49,99,77,-29,35,86,-127,6,-36,-4,-2,-68,-35,28,-10,0,4,-3,45,-32,21,5,-32,34,11,-101,46,-6,-20,-7,75,14,-76,8,50,-7,-1,-80,-25,36,35,-2,-80,56,36,-16,-59,-18,82,-5,-1,16,-62,-26,119,-108,-3,-17,-13,16,51,-64,-72,23,-17,13,21,55,-73,19,-4,-5,-20,11,37,0,-71,42,19,27,-32,-38,44,-60,-1,19,-53, 
  /* [10][0][][] */ -52,-22,-47,-46,-19,-21,56,-30,28,22,29,31,23,-8,-7,-3,-12,5,-35,-30,-5,40,10,24,-15,-2,8,-112,19,-38,56,-38,14,17,-2,1,-10,24,15,-16,5,-33,18,-50,25,-13,28,30,8,23,-21,-24,-23,-17,-6,-45,11,3,-4,-30,15,4,-9,11,-51,93,-24,-39,7,-33,-6,-20,-27,-3,28,46,-20,42,-14,3,-10,-12,6,22,0,-15,4,127,-7,-12,7,15,6,-46,47,-40, 
  /* [11][0][][] */ -103,17,10,10,18,-74,-31,10,-55,-15,1,19,35,42,-24,-24,46,-4,-69,-61,17,-7,-12,-2,84,20,77,15,-35,32,-40,-2,0,26,1,5,-11,-15,43,8,-34,-1,12,3,87,34,63,26,54,38,5,39,20,-66,26,-2,-82,-26,-43,-38,-2,-11,6,21,-17,-28,21,4,19,12,-4,39,-30,12,46,16,-19,95,-127,60,-34,-9,-68,-59,122,21,68,0,23,53,-29,-66,-21,55,-9,-15, 
  /* [12][0][][] */ -13,-3,-41,3,58,14,0,-11,-9,24,19,-17,4,-21,28,-10,-38,-2,2,-29,-10,-8,-46,51,-31,29,-23,90,-11,21,-43,4,-9,30,0,34,-20,-23,3,3,-2,-20,-6,-6,-20,-11,19,25,4,-5,0,-30,-20,15,-8,-32,-8,-10,16,20,-14,-17,-8,41,34,-76,5,39,-36,-127,-7,32,4,-5,17,73,5,-20,-6,-3,-2,25,-49,-7,17,-8,7,-44,-7,10,6,5,-37,27,-8,22, 
  /* [13][0][][] */ -66,53,-25,-30,-45,-2,-7,9,-42,-27,21,27,79,13,-23,9,-11,21,-60,7,11,-12,42,-47,51,26,-3,19,7,-28,-36,-80,-72,-30,12,12,-16,30,34,-30,-18,87,-9,11,57,-21,-12,-1,58,-20,31,75,64,-47,66,-16,-22,49,51,11,13,38,-28,23,6,-24,1,-10,-6,16,24,-127,15,-5,-71,4,25,41,-32,-32,79,-27,-2,-46,22,-28,87,14,-26,-12,-33,17,26,-59,-37,5, 
  /* [14][0][][] */ -21,10,-32,-62,44,-13,7,21,-95,14,2,18,-30,-73,-75,-11,-90,-15,63,21,39,-4,17,-99,-47,15,-52,-24,20,-38,-20,-17,-62,-24,20,10,-17,18,-12,-15,13,89,-86,-11,-43,7,14,14,127,-37,17,-15,26,57,-104,23,-13,28,-99,10,12,37,29,29,9,27,-3,-7,-67,10,62,23,43,2,-29,1,52,-80,-22,-94,20,-39,6,23,23,-65,-53,-2,-64,13,18,48,15,27,3,-17, 
  /* [15][0][][] */ -38,-80,-16,-28,5,22,-6,-76,-12,20,-15,-37,39,-16,45,-8,-92,6,-8,20,-12,-5,-60,-53,-21,-3,-6,8,-28,-16,62,-97,-17,28,26,1,-9,21,-104,15,38,-85,-11,39,-31,-49,57,28,47,23,-14,-127,-7,44,-2,41,42,-7,-20,35,16,2,49,0,21,-12,-13,4,-11,34,9,50,-46,14,-6,-24,-26,-9,13,14,-14,47,-11,77,-16,-49,-50,-42,-39,67,19,75,-31,2,-15,-8, 
};
const TfArray<4, int> tensor_dimension9 = { 4, { 16,1,1,96 } };
const TfArray<16, float> quant9_scale = { 16, { 0.039017278701066971, 0.021122187376022339, 0.0090894857421517372, 0.0089083192870020866, 0.016553433611989021, 0.017853006720542908, 0.015054818242788315, 0.012173080816864967, 0.014361186884343624, 0.012187842279672623, 0.033157441765069962, 0.022722886875271797, 0.019743245095014572, 0.010053730569779873, 0.021930411458015442, 0.02086247131228447, } };
const TfArray<16, int> quant9_zero = { 16, { 0,0,0,0,0,0,0,0,0,0,0,0,0,0,0,0 } };
const TfLiteAffineQuantization quant9 = { (TfLiteFloatArray*)&quant9_scale, (TfLiteIntArray*)&quant9_zero, 0 };
const ALIGN(16) int32_t tensor_data10[96] = { 17478, 61855, 232, 50, 14995, -3533, -13, -391, 4588, 13969, -3249, 133, 96, 4521, 3982, -9003, -4054, -690, -453, 13082, -11148, 14577, -3964, 5461, 29190, 158, -6338, 17498, 13324, -18860, 1629, 21867, 23252, -11327, 3062, 756, -243, -629, 3735, -7663, -5607, -1164, -6809, -3, 31413, -1821, 12767, 160, -13635, 1201, 161, 149, -1714, 16719, -2650, 17568, 15421, -32, 33128, -373, -9414, -1058, 1209, 16, -2938, 12619, -633, -8687, -2638, 2118, -152, -4431, 1625, 109, -2744, -5598, -442, -1644, 44224, -7939, -6697, -11645, -190, 473, 63100, -13107, -9129, -27539, -7868, 9156, -1717, 39005, 18, -2083, -3402, 444, };
const TfArray<1, int> tensor_dimension10 = { 1, { 96 } };
const TfArray<96, float> quant10_scale = { 96, { 0.00013677273818757385, 9.3514987383969128e-05, 0.00014261368778534234, 0.00024466743343509734, 0.00023349942057393491, 0.00021536856365855783, 6.0862683312734589e-05, 0.00010141951497644186, 0.00026869052089750767, 0.00017339689657092094, 0.00028794718673452735, 0.0001107286152546294, 0.00029725694912485778, 0.0002136433613486588, 0.00042614073026925325, 0.0001793652045307681, 0.00020090857287868857, 0.00018453935626894236, 0.00021373531490098685, 8.3291575720068067e-05, 6.7677385231945664e-05, 3.7468777009053156e-05, 0.0001412493729731068, 0.00012104485358577222, 8.5387830040417612e-05, 9.0547146101016551e-05, 0.00015423342119902372, 0.00017730274703353643, 7.9120014561340213e-05, 0.00049704592674970627, 0.00039171893149614334, 0.00023419657372869551, 0.0001069141217158176, 0.00014756344899069518, 0.00027105977642349899, 0.0004891927819699049, 0.00041772201075218618, 0.00019364379113540053, 0.00025072932476177812, 7.0246860559564084e-05, 0.00023644242901355028, 0.00023891506134532392, 0.00035059041692875326, 6.8538531195372343e-05, 0.00041772425174713135, 0.00010406868386780843, 0.00010913632286246866, 0.00032414298038929701, 0.00081066804705187678, 0.00011654667468974367, 0.0004398355376906693, 0.00017917930381372571, 0.00030988210346549749, 0.0001691982033662498, 0.0003064592310693115, 0.00010469635162735358, 0.00017983776342589408, 0.00048542540753260255, 4.8440509999636561e-05, 0.0001651912898523733, 0.00028956503956578672, 0.00032109854510053992, 0.00011403572716517374, 0.00015454291133210063, 0.00013404240598902106, 0.00014335133892018348, 0.00034710808540694416, 0.0002492491330485791, 0.00023405317915603518, 0.00018030502542387694, 0.00023129823966883123, 0.00010717893746914342, 0.00028557871701195836, 0.00014199457655195147, 0.00021566795476246625, 0.00033490124042145908, 0.0001361116737825796, 7.4332143412902951e-05, 5.7665540225571021e-05, 0.00015858479309827089, 0.00025705271400511265, 0.00023582178982906044, 0.00016345878248102963, 0.00029786248342134058, 5.5444281315430999e-05, 0.00012433693336788565, 8.1262413004878908e-05, 0.00052027124911546707, 0.00024469912750646472, 0.00013895575830247253, 0.000404351856559515, 2.5930658011930063e-05, 0.00014502640988212079, 0.00011523938155733049, 0.00029461065423674881, 0.00029071408789604902, } };
const TfArray<96, int> quant10_zero = { 96, { 0,0,0,0,0,0,0,0,0,0,0,0,0,0,0,0,0,0,0,0,0,0,0,0,0,0,0,0,0,0,0,0,0,0,0,0,0,0,0,0,0,0,0,0,0,0,0,0,0,0,0,0,0,0,0,0,0,0,0,0,0,0,0,0,0,0,0,0,0,0,0,0,0,0,0,0,0,0,0,0,0,0,0,0,0,0,0,0,0,0,0,0,0,0,0,0 } };
const TfLiteAffineQuantization quant10 = { (TfLiteFloatArray*)&quant10_scale, (TfLiteIntArray*)&quant10_zero, 0 };
const ALIGN(16) int8_t tensor_data11[1*3*3*96] = { 
  /* [0][0][][] */ -46,-72,-12,127,22,71,71,-60,-12,-19,-14,-6,-28,0,38,4,-8,-44,26,22,19,-127,127,4,-83,6,50,-29,-123,-127,37,25,14,29,57,-18,-30,-8,30,-3,-14,26,-109,72,25,-66,36,44,-18,52,-25,18,2,-6,15,48,-90,-48,-59,-18,-11,0,11,37,71,-24,71,15,-7,16,20,127,23,23,27,1,-10,18,127,-4,-13,14,-28,20,126,19,-81,-15,2,-31,-16,-40,1,-26,-14,26, 127,-127,71,106,-43,127,42,-119,71,3,-18,127,127,-100,-12,16,12,127,127,-110,127,-73,80,67,-127,-116,-67,-34,-55,47,-62,-21,-94,52,-127,-84,-42,-16,-52,63,-1,127,127,78,-52,-112,-114,-51,-15,-127,40,83,68,-31,45,81,-46,42,-78,-111,-45,-43,-61,65,75,-59,24,33,-79,33,-17,91,118,127,12,22,2,60,-32,54,66,127,127,-23,-6,77,-118,127,-118,-98,5,-127,-91,-127,-38,105, -74,-14,27,-80,14,-21,65,-8,81,-35,-27,19,-18,-4,-7,-9,-10,-17,7,-3,-20,-98,30,-2,-124,97,9,-54,123,50,-16,9,-1,15,12,-29,-9,32,20,16,25,11,-121,63,18,-18,37,13,-15,11,-19,4,-11,1,-4,20,-65,8,-29,52,1,40,31,-1,-6,-37,-30,28,9,2,-2,35,9,-25,-9,4,-12,-5,-84,1,-19,-24,-19,2,-108,10,-38,-22,-48,25,-25,-31,30,-26,-14,1, 
  /* [0][1][][] */ -64,-76,70,-36,-48,90,19,127,-50,-23,-1,-122,26,-116,79,29,-2,-59,-18,89,51,-69,48,51,-93,-12,127,-22,-22,64,122,-104,-127,93,-86,-56,-35,33,-28,102,-47,-25,-5,45,-47,127,-24,62,16,95,18,-3,14,-54,27,31,127,121,-71,-85,127,-32,-35,127,74,-36,-15,1,127,40,127,96,-41,102,-4,13,15,13,-31,10,-41,125,-80,109,3,33,-54,31,79,-127,-32,-9,127,-70,-23,0, 67,125,55,-114,127,83,89,38,-127,127,127,-39,-64,-127,-127,127,127,-62,-124,-49,97,99,-121,127,-113,-92,-46,127,-127,109,-127,-127,-89,127,104,127,127,-127,-105,127,-64,-93,113,-127,-127,-34,-127,-127,127,-113,83,42,127,127,127,-127,102,-127,-127,127,19,-79,-127,-99,-127,127,-127,127,-121,-127,-106,-82,-127,-78,127,127,-127,127,-78,127,127,30,-42,-127,62,127,94,47,127,15,127,-1,-68,36,127,-127, -54,-16,-49,39,-56,-91,38,-26,19,-34,-29,94,2,95,15,11,-6,63,-6,127,3,-79,-41,9,-74,103,-73,-19,-69,-18,19,-64,-72,39,4,-19,-29,45,-67,49,127,-5,-41,25,-40,-59,17,43,8,117,-13,6,-37,-71,4,18,96,4,3,23,-35,127,90,-54,-43,14,36,-9,-74,123,-18,-86,-2,-52,-16,-20,27,16,76,-37,-67,-43,56,14,-47,-17,72,23,16,64,-44,23,-42,98,-26,-4, 
  /* [0][2][][] */ -67,1,-6,-23,13,-40,65,24,56,-29,-36,-4,19,20,-25,-2,-7,65,7,2,-54,-81,3,-8,-27,-54,36,-68,95,39,26,26,20,-8,-11,-46,-6,33,-2,0,-16,-4,-68,102,2,30,10,34,-14,-30,9,-20,22,-1,8,15,-69,24,-14,14,14,1,-21,-6,1,-45,-46,17,-29,16,25,29,13,-18,29,4,18,4,-79,-13,-7,-8,17,14,-127,6,17,-44,-56,-51,-28,-49,9,59,-19,-7, 121,32,-127,-38,-72,-21,37,30,-64,-29,-20,-109,-76,115,-11,37,2,-49,-9,-125,90,-52,-38,0,-116,127,-52,21,-36,-22,-9,-5,-60,16,25,5,-23,-30,127,58,12,-12,66,-35,-40,77,-67,-43,-32,-6,-127,-127,-53,-25,0,38,-63,-8,13,39,-8,-16,8,-48,-53,35,66,-21,115,111,-21,-70,11,-56,5,4,101,4,51,20,12,-98,-49,2,3,8,127,39,-58,39,-19,-111,41,82,-10,26, -54,12,-19,24,15,-64,-127,3,-11,-8,-16,3,16,-23,20,-2,-7,-16,5,17,-45,-74,15,3,23,-96,22,4,-50,-41,-5,16,45,-22,-7,-26,-36,1,42,-37,22,-1,-51,-34,2,66,24,17,-9,-4,8,-9,18,6,-7,-5,-60,-13,6,-36,-13,11,83,-12,35,-1,0,29,4,6,-2,21,-19,17,0,14,36,0,75,-14,3,-7,-8,-18,78,0,40,-39,61,41,-17,-51,-7,5,-15,-14, 
};
const TfArray<4, int> tensor_dimension11 = { 4, { 1,3,3,96 } };
const TfArray<96, float> quant11_scale = { 96, { 0.0058128410018980503, 0.0039743869565427303, 0.006061081774532795, 0.010398365557193756, 0.009923725388944149, 0.0091531639918684959, 0.0025866639334708452, 0.00431032944470644, 0.011419346556067467, 0.0073693678714334965, 0.01223775465041399, 0.0047059659846127033, 0.012633419595658779, 0.0090798428282141685, 0.018110981211066246, 0.007623021025210619, 0.0085386140272021294, 0.0078429225832223892, 0.0090837506577372551, 0.0035398919135332108, 0.0028762887232005596, 0.0015924230683594942, 0.0060030980966985226, 0.0051444061100482941, 0.0036289826966822147, 0.0038482537493109703, 0.0065549202263355255, 0.0075353663414716721, 0.0033626006916165352, 0.021124452352523804, 0.016648054122924805, 0.0099533544853329659, 0.0045438501983880997, 0.0062714465893805027, 0.011520040221512318, 0.020790692418813705, 0.017753185704350471, 0.0082298610359430313, 0.010655996389687061, 0.0029854916501790285, 0.010048802942037582, 0.010153889656066895, 0.014900092035531998, 0.002912887604907155, 0.017753280699253082, 0.0044229188933968544, 0.0046382937580347061, 0.013776076026260853, 0.034453392028808594, 0.0049532335251569748, 0.01869300939142704, 0.0076151201501488686, 0.013169988989830017, 0.0071909232065081596, 0.013024517334997654, 0.0044495947659015656, 0.0076431049965322018, 0.020630579441785812, 0.0020587216131389141, 0.0070206294767558575, 0.012306514196097851, 0.013646688312292099, 0.0048465183936059475, 0.0065680737607181072, 0.0056968024000525475, 0.0060924319550395012, 0.014752093702554703, 0.01059308834373951, 0.0099472599104046822, 0.0076629635877907276, 0.0098301749676465988, 0.0045551047660410404, 0.0121370954439044, 0.0060347695834934711, 0.0091658877208828926, 0.0142333023250103, 0.0057847457937896252, 0.0031591160222887993, 0.0024507853668183088, 0.0067398534156382084, 0.010924740694463253, 0.010022426024079323, 0.0069469981826841831, 0.012659154832363129, 0.0023563818540424109, 0.005284319631755352, 0.0034536526072770357, 0.022111527621746063, 0.01039971224963665, 0.0059056193567812443, 0.017184954136610031, 0.0011020529782399535, 0.0061636222526431084, 0.0048976736143231392, 0.012520953081548214, 0.012355349026620388, } };
const TfArray<96, int> quant11_zero = { 96, { 0,0,0,0,0,0,0,0,0,0,0,0,0,0,0,0,0,0,0,0,0,0,0,0,0,0,0,0,0,0,0,0,0,0,0,0,0,0,0,0,0,0,0,0,0,0,0,0,0,0,0,0,0,0,0,0,0,0,0,0,0,0,0,0,0,0,0,0,0,0,0,0,0,0,0,0,0,0,0,0,0,0,0,0,0,0,0,0,0,0,0,0,0,0,0,0 } };
const TfLiteAffineQuantization quant11 = { (TfLiteFloatArray*)&quant11_scale, (TfLiteIntArray*)&quant11_zero, 3 };
const ALIGN(16) int32_t tensor_data12[96] = { 1491, 7076, 14844, 22844, 16379, -3003, -1741, 6400, 30100, -3238, 14389, 4389, 9922, 10792, 32233, 1588, 2833, 6463, 13984, 4932, -66, 691, 15423, -1144, 3905, 56, 10619, 9917, 6548, 39984, 58195, 17643, 6030, -533, 13469, 3221, 1786, 3924, 24284, -973, 15068, 7311, 37690, -4106, 27340, 7932, 5717, 17827, 46942, 9192, -414, 7249, -4208, -290, -2342, 8360, -682, 13539, 6232, 7546, 4805, 14822, 8646, 6167, 8355, 7672, 5429, -4170, 6966, -3032, 5135, 9417, 19708, 6274, -3551, -5666, 6104, 366, 2897, -905, 15963, 12893, 5038, 15892, 2891, 351, 12574, 74360, 7863, 10408, 7963, -226, 6020, 7417, 3756, 10009, };
const TfArray<1, int> tensor_dimension12 = { 1, { 96 } };
const TfArray<96, float> quant12_scale = { 96, { 0.00023316165606956929, 0.00021045173343736678, 0.00012834004883188754, 9.9575103376992047e-05, 0.00018462701700627804, 0.00034310107002966106, 0.00046583043877035379, 0.00025911917327903211, 7.7310091000981629e-05, 0.00042328442214056849, 0.00018635312153492123, 0.00020645227050408721, 0.00012929114745929837, 0.00021266797557473183, 7.4522024078760296e-05, 0.00036306070978753269, 0.00017129926709458232, 0.00019200218957848847, 0.00015973263361956924, 0.0002375181793468073, 0.00037690394674427807, 0.00036334170727059245, 0.0001333496329607442, 0.00049433042295277119, 0.00067598558962345123, 0.00025493663270026445, 0.00021029551862739027, 0.00014683161862194538, 0.00024581403704360127, 8.7872125732246786e-05, 4.8836212954483926e-05, 0.00013844794011674821, 0.00026646148762665689, 0.00033209336106665432, 0.0001491229486418888, 0.00018077938875649124, 0.00029083038680255413, 0.00037825200706720352, 0.00011089434701716527, 0.00060371641302481294, 0.00012339180102571845, 0.00021130595996510237, 7.0846108428668231e-05, 0.00024699568166397512, 0.00012013613013550639, 0.0001924532261909917, 0.00030022114515304565, 0.00015272559539880604, 8.7208689365070313e-05, 0.00023244536714628339, 0.00026466723647899926, 0.0002386085398029536, 0.00024843410938046873, 0.00023796311870682985, 0.00045056754606775939, 0.00013585505075752735, 0.0001785530912457034, 0.00013615547504741699, 0.00033662005444057286, 0.00019672150665428489, 0.00033704913221299648, 9.5224510005209595e-05, 0.00017331226263195276, 0.00016455067088827491, 0.0002933524374384433, 0.00025218911468982697, 0.00023556269297841936, 0.00031522524659521878, 0.00023823209630791098, 0.00023839346249587834, 0.00021476253459695727, 0.00016658486856613308, 0.00010610518074827269, 0.00016163931286428124, 0.00043818136327899992, 0.00023647421039640903, 0.00027791730826720595, 0.00027950585354119539, 0.00025646280846558511, 0.00040587427793070674, 0.00012801142293028533, 0.00012762164988089353, 0.00017289046081714332, 0.0001231961214216426, 0.00041746324859559536, 0.00024859057157300413, 0.00018475241085980088, 5.12763908773195e-05, 0.00017469110025558621, 0.00021677922632079571, 0.00016133270401041955, 0.00041110962047241628, 0.00024976441636681557, 0.00021576012659352273, 0.0003060404269490391, 0.00016832334222272038, } };
const TfArray<96, int> quant12_zero = { 96, { 0,0,0,0,0,0,0,0,0,0,0,0,0,0,0,0,0,0,0,0,0,0,0,0,0,0,0,0,0,0,0,0,0,0,0,0,0,0,0,0,0,0,0,0,0,0,0,0,0,0,0,0,0,0,0,0,0,0,0,0,0,0,0,0,0,0,0,0,0,0,0,0,0,0,0,0,0,0,0,0,0,0,0,0,0,0,0,0,0,0,0,0,0,0,0,0 } };
const TfLiteAffineQuantization quant12 = { (TfLiteFloatArray*)&quant12_scale, (TfLiteIntArray*)&quant12_zero, 0 };
const ALIGN(16) int8_t tensor_data13[96*1*1*16] = { 
  /* [0][0][][] */ 29,69,-30,112,47,46,2,5,65,46,-92,127,-3,-104,24,-86, 
  /* [1][0][][] */ 20,43,0,-42,32,-21,122,-127,-11,55,-19,-33,-3,-45,41,2, 
  /* [2][0][][] */ -127,38,-80,-15,-6,-35,40,108,-53,41,123,34,-60,-21,34,-28, 
  /* [3][0][][] */ -64,106,61,32,-54,26,54,121,-7,74,-105,22,25,-127,-60,-63, 
  /* [4][0][][] */ 20,-13,34,68,-29,67,0,32,9,-20,4,-2,16,2,-127,-33, 
  /* [5][0][][] */ -7,-38,37,1,20,-33,-12,12,-64,72,-30,-127,-5,23,-46,-29, 
  /* [6][0][][] */ -4,29,7,-32,44,68,-58,-76,-6,8,72,3,127,-34,19,-50, 
  /* [7][0][][] */ 26,31,127,-2,-14,-13,25,-7,-72,35,-75,-36,0,-6,38,-25, 
  /* [8][0][][] */ 4,32,53,49,-51,125,48,57,38,-2,-3,-94,-35,-9,-127,-64, 
  /* [9][0][][] */ 10,-85,42,43,-8,-19,2,29,127,6,78,13,-19,22,-81,-33, 
  /* [10][0][][] */ -14,-107,16,-32,-108,16,54,127,99,114,49,-36,-54,92,85,-25, 
  /* [11][0][][] */ 15,-11,-4,-100,27,-16,-72,-127,-40,34,-13,-52,13,-40,40,-57, 
  /* [12][0][][] */ -37,-11,-1,-49,-44,-39,-90,-27,-59,-81,-15,18,2,127,108,63, 
  /* [13][0][][] */ -17,-85,-57,27,-10,-65,10,-22,50,15,-9,-7,18,25,127,38, 
  /* [14][0][][] */ -8,-51,73,39,23,38,12,127,35,49,21,-53,23,41,-66,120, 
  /* [15][0][][] */ 10,-25,-3,65,21,-13,107,-3,0,-127,8,-48,-10,-14,0,-35, 
  /* [16][0][][] */ 29,-69,-61,32,1,-10,42,-71,127,72,94,-3,-5,96,82,117, 
  /* [17][0][][] */ -58,-54,46,109,92,31,9,-44,102,-23,11,-31,0,16,-127,11, 
  /* [18][0][][] */ 13,13,2,24,-115,-13,-17,46,-72,-3,-37,-63,37,-127,45,-5, 
  /* [19][0][][] */ 47,-17,105,-47,36,38,-127,108,94,-108,42,45,5,55,9,30, 
  /* [20][0][][] */ 34,-13,51,-50,-6,0,-35,46,-17,-59,89,-14,-4,25,-50,127, 
  /* [21][0][][] */ -53,-56,34,-56,15,-4,-126,-67,-45,56,-23,-4,-127,-12,38,18, 
  /* [22][0][][] */ 14,-31,8,-27,9,-76,-3,-15,-127,26,-11,-38,-21,-9,91,-26, 
  /* [23][0][][] */ 12,12,17,3,9,3,-13,9,-8,-4,47,-12,127,-6,1,-52, 
  /* [24][0][][] */ -4,4,34,-57,-10,-21,35,11,-65,8,-8,-127,26,-109,32,3, 
  /* [25][0][][] */ -83,-9,2,12,68,-42,-75,-127,-38,56,-13,-81,-101,-50,-31,-40, 
  /* [26][0][][] */ 47,-13,28,-97,127,-15,19,5,94,-14,57,-17,14,83,10,94, 
  /* [27][0][][] */ 122,-22,18,-52,-29,-54,7,-29,-29,26,-127,26,24,-9,15,42, 
  /* [28][0][][] */ -90,-32,-127,-106,55,-31,90,-51,-11,48,-100,51,91,-31,-34,74, 
  /* [29][0][][] */ -70,-43,6,127,-22,8,14,-49,-38,-23,-74,84,34,-100,66,-49, 
  /* [30][0][][] */ 83,-16,127,-8,67,55,-17,91,-72,-82,59,-54,-6,17,-103,101, 
  /* [31][0][][] */ -12,-83,1,-64,9,-59,12,-41,-18,41,115,19,-20,103,66,127, 
  /* [32][0][][] */ -18,78,-36,22,-127,34,-55,-54,-45,-33,14,48,-1,63,52,63, 
  /* [33][0][][] */ 33,-19,30,127,27,6,20,-31,-87,58,63,-15,14,15,-8,82, 
  /* [34][0][][] */ 50,-3,31,5,104,-43,-127,-17,-45,117,-12,-7,-25,-3,-13,0, 
  /* [35][0][][] */ 82,25,7,-1,24,-127,-43,-18,-26,-12,-87,-1,85,17,-13,23, 
  /* [36][0][][] */ 24,0,-127,14,66,23,-29,11,-31,-10,7,-5,7,9,-21,-5, 
  /* [37][0][][] */ 9,-3,127,-15,-61,43,33,-70,1,24,-32,40,25,15,19,-14, 
  /* [38][0][][] */ -122,41,-6,43,21,80,31,-33,26,-4,127,-23,-3,5,-20,-42, 
  /* [39][0][][] */ -3,-7,11,33,26,-25,-127,35,5,28,-14,-45,-4,-14,-3,-2, 
  /* [40][0][][] */ 31,86,-4,127,18,48,50,36,-70,-14,-17,54,12,21,-91,-49, 
  /* [41][0][][] */ 25,-3,-64,-27,-56,-16,127,87,-74,69,-52,-5,34,62,42,-10, 
  /* [42][0][][] */ 29,-1,-21,6,41,0,-3,127,47,-112,64,47,-29,26,-96,3, 
  /* [43][0][][] */ -79,-33,45,-15,41,-4,-115,-76,-43,39,-40,-38,-127,-35,-2,0, 
  /* [44][0][][] */ 2,9,-20,-3,-17,-11,7,-65,127,-18,26,32,18,83,6,37, 
  /* [45][0][][] */ -74,-62,38,-68,49,18,21,62,38,-60,-4,-22,19,127,-39,104, 
  /* [46][0][][] */ -21,28,-30,109,-74,-23,-5,-69,-127,44,-53,-1,-5,31,-1,-34, 
  /* [47][0][][] */ -26,4,-127,105,3,60,19,-30,0,63,41,69,-70,-8,16,-17, 
  /* [48][0][][] */ -13,-27,28,-127,24,-23,-55,-23,-51,38,29,-43,24,22,68,22, 
  /* [49][0][][] */ -23,-23,10,102,-22,24,-66,-15,42,-9,-127,-70,-45,-68,-91,-108, 
  /* [50][0][][] */ 7,53,32,-114,63,16,-23,37,127,-26,-31,-3,5,-35,12,-27, 
  /* [51][0][][] */ 14,-22,7,-1,47,-14,-53,-127,16,-71,-2,-12,-1,-11,-8,-21, 
  /* [52][0][][] */ 32,10,-9,36,43,-23,-78,106,-92,127,-49,-67,87,124,10,-41, 
  /* [53][0][][] */ 18,114,-4,-75,-20,-3,19,-15,-59,-21,-67,71,36,-127,-109,1, 
  /* [54][0][][] */ -5,8,13,24,40,-29,3,-30,-1,27,-12,-17,-13,127,-35,-4, 
  /* [55][0][][] */ -126,104,105,-36,29,-17,-40,-17,-67,4,107,-34,-14,-48,127,-10, 
  /* [56][0][][] */ 61,15,15,-127,84,8,-10,29,63,-41,48,123,-26,28,78,76, 
  /* [57][0][][] */ -29,-12,19,61,-19,33,45,127,-5,-2,17,-17,23,48,18,27, 
  /* [58][0][][] */ 12,127,-6,-117,9,41,-3,9,94,-18,-2,86,6,-79,29,60, 
  /* [59][0][][] */ 41,36,53,-127,-49,0,46,-11,20,28,28,-50,-6,-116,-66,19, 
  /* [60][0][][] */ 47,-4,110,-35,-28,127,42,-21,-14,48,-44,1,27,5,22,-5, 
  /* [61][0][][] */ -37,33,-30,-69,-66,16,127,114,-29,78,20,14,19,68,20,-50, 
  /* [62][0][][] */ -33,-1,12,-31,-101,21,-65,17,-46,-35,28,-34,18,-127,106,-9, 
  /* [63][0][][] */ 8,-9,6,-84,56,-32,-119,-127,-78,108,10,-18,20,-3,19,-55, 
  /* [64][0][][] */ -47,-25,21,41,61,3,-10,-127,20,-75,3,-47,1,-24,-5,-10, 
  /* [65][0][][] */ -127,4,38,-54,1,43,27,-50,-72,20,36,-16,5,9,-21,-22, 
  /* [66][0][][] */ 63,-9,71,34,-45,16,-18,39,-43,5,81,-106,-11,44,-127,-34, 
  /* [67][0][][] */ 48,-17,-17,61,62,-12,-59,-105,18,-127,-58,-14,-62,6,-57,12, 
  /* [68][0][][] */ 13,-24,-45,53,-65,-90,-24,-52,-29,-19,60,-46,-34,60,127,-7, 
  /* [69][0][][] */ -26,46,-46,64,3,-109,29,87,32,11,50,-3,127,33,-20,-10, 
  /* [70][0][][] */ 28,26,-53,-39,-46,10,127,112,-29,67,-41,9,20,66,21,-10, 
  /* [71][0][][] */ 9,-3,-16,-40,20,-1,4,40,-37,-45,-21,9,6,-127,61,19, 
  /* [72][0][][] */ 54,6,-39,38,30,-61,-47,-127,10,66,-68,22,87,55,35,35, 
  /* [73][0][][] */ -62,-127,-39,-76,-90,-3,70,-30,-33,11,-20,-21,21,-65,67,-8, 
  /* [74][0][][] */ -33,27,59,84,-5,-9,-127,73,9,-46,-41,-50,-4,-12,-9,4, 
  /* [75][0][][] */ -58,27,-45,20,-30,91,91,127,2,56,-4,-37,-113,63,8,13, 
  /* [76][0][][] */ 35,-28,-15,-10,29,-78,-127,-91,-7,-2,-18,-29,44,0,53,-20, 
  /* [77][0][][] */ -54,4,-36,-29,-55,-14,-22,-38,127,17,-48,25,-30,34,46,-63, 
  /* [78][0][][] */ -106,-126,20,89,80,54,-58,49,-30,-104,-127,87,69,-63,100,63, 
  /* [79][0][][] */ 20,-1,34,-58,127,-3,55,13,88,36,0,41,-27,-31,26,-41, 
  /* [80][0][][] */ -2,-62,47,-127,-14,-23,-9,-16,-72,-38,0,-75,31,112,-30,27, 
  /* [81][0][][] */ 6,-25,63,35,23,66,-26,-34,6,-32,-8,-52,-3,41,-127,20, 
  /* [82][0][][] */ -33,-36,46,-126,-19,-41,-12,-38,-42,-25,-12,-127,-31,-103,-93,29, 
  /* [83][0][][] */ 8,18,-47,-82,-51,2,-17,47,-82,-10,3,-98,11,-127,16,69, 
  /* [84][0][][] */ 127,41,22,40,-68,-18,-59,13,-21,-46,100,13,-71,21,86,-85, 
  /* [85][0][][] */ -24,-5,18,-11,35,-25,-68,127,-98,-96,-76,6,-24,56,68,-116, 
  /* [86][0][][] */ 23,-32,-4,3,-98,72,-112,54,-122,-111,50,-53,-4,-127,-11,82, 
  /* [87][0][][] */ 109,-46,20,-33,-73,-61,8,5,-9,12,-127,-16,-2,-20,6,86, 
  /* [88][0][][] */ 66,53,-12,-11,-24,-53,-19,3,63,19,59,29,-28,-25,127,-121, 
  /* [89][0][][] */ 44,77,-59,-18,-30,-8,17,-65,38,36,28,-27,-19,8,-14,-127, 
  /* [90][0][][] */ -33,-43,7,-88,-104,6,110,-73,127,-91,11,-87,61,-23,-41,9, 
  /* [91][0][][] */ 4,20,-20,-88,-43,10,25,-35,-29,25,66,40,-11,2,44,127, 
  /* [92][0][][] */ 15,16,5,-1,41,-15,-74,-127,45,-74,6,-10,-47,-16,16,-19, 
  /* [93][0][][] */ 99,-29,44,-102,-51,-20,-43,23,42,-45,60,-39,-4,127,-35,27, 
  /* [94][0][][] */ -90,57,-85,-6,61,-127,-19,12,3,-56,72,-35,19,-11,-26,-10, 
  /* [95][0][][] */ -20,23,29,-127,-6,-12,-18,-14,0,-40,-15,-80,3,6,-52,-13, 
};
const TfArray<4, int> tensor_dimension13 = { 4, { 96,1,1,16 } };
const TfArray<96, float> quant13_scale = { 96, { 0.00072249578079208732, 0.00065212475601583719, 0.000397686060750857, 0.00030855240765959024, 0.00057210196973755956, 0.0010631639743223786, 0.0014434643089771271, 0.00080293009523302317, 0.0002395600313320756, 0.0013116273330524564, 0.00057745061349123716, 0.00063973164651542902, 0.00040063323103822768, 0.0006589922122657299, 0.00023092067567631602, 0.0011250127572566271, 0.00053080340148881078, 0.0005949553451500833, 0.00049496197607368231, 0.00073599530151113868, 0.0011679086601361632, 0.0011258834274485707, 0.00041320922900922596, 0.001531776855699718, 0.0020946699660271406, 0.00078996969386935234, 0.0006516407011076808, 0.00045498571125790477, 0.0007617016090080142, 0.00027228851104155183, 0.00015132830594666302, 0.00042900728294625878, 0.00082568160723894835, 0.0010290545178577304, 0.00046208582352846861, 0.00056017935276031494, 0.00090119329979643226, 0.0011720858747139573, 0.00034362723818048835, 0.0018707303097471595, 0.00038235299871303141, 0.00065477174939587712, 0.00021953016403131187, 0.00076536316191777587, 0.00037226467975415289, 0.00059635296929627657, 0.00093029235722497106, 0.00047324932529591024, 0.00027023273287340999, 0.00072027620626613498, 0.00082012178609147668, 0.00073937396518886089, 0.00076982041355222464, 0.00073737400816753507, 0.0013961693039163947, 0.00042097273399122059, 0.00055328075541183352, 0.00042190364911220968, 0.0010430812835693359, 0.00060957903042435646, 0.0010444108629599214, 0.00029507128056138754, 0.00053704105084761977, 0.00050989160081371665, 0.00090900837676599622, 0.00078145600855350494, 0.00072993582580238581, 0.00097678543534129858, 0.00073820748366415501, 0.0007387075456790626, 0.00066548259928822517, 0.00051619490841403604, 0.00032878710771910846, 0.00050087017007172108, 0.0013577883364632726, 0.00073276035254821181, 0.00086117972387000918, 0.00086610211292281747, 0.00079469883348792791, 0.0012576787266880274, 0.00039666774682700634, 0.0003954599960707128, 0.00053573399782180786, 0.00038174662040546536, 0.001293589361011982, 0.00077030522515997291, 0.00057249050587415695, 0.00015888965572230518, 0.00054131360957399011, 0.00067173171555623412, 0.00049992010463029146, 0.0012739014346152544, 0.00077394262189045548, 0.00066857383353635669, 0.00094832450849935412, 0.00052158191101625562, } };
const TfArray<96, int> quant13_zero = { 96, { 0,0,0,0,0,0,0,0,0,0,0,0,0,0,0,0,0,0,0,0,0,0,0,0,0,0,0,0,0,0,0,0,0,0,0,0,0,0,0,0,0,0,0,0,0,0,0,0,0,0,0,0,0,0,0,0,0,0,0,0,0,0,0,0,0,0,0,0,0,0,0,0,0,0,0,0,0,0,0,0,0,0,0,0,0,0,0,0,0,0,0,0,0,0,0,0 } };
const TfLiteAffineQuantization quant13 = { (TfLiteFloatArray*)&quant13_scale, (TfLiteIntArray*)&quant13_zero, 0 };
const ALIGN(16) int32_t tensor_data14[16] = { -1165, -527, -19779, 27829, 21424, 5114, -3329, -4701, 20745, 6097, 26643, 26894, -6735, 13638, 37197, -25952, };
const TfArray<1, int> tensor_dimension14 = { 1, { 16 } };
const TfArray<16, float> quant14_scale = { 16, { 0.00039759182254783809, 0.00022904400248080492, 0.00027245216188021004, 0.00025177063071168959, 0.00034358838456682861, 0.00031182458042167127, 0.00026629611966200173, 0.00034615315962582827, 0.00021282651869114488, 0.00028217813814990222, 0.00034750468330457807, 0.00071991747245192528, 0.00037888012593612075, 0.00042593938997015357, 0.00054805399850010872, 0.00031957559986039996, } };
const TfArray<16, int> quant14_zero = { 16, { 0,0,0,0,0,0,0,0,0,0,0,0,0,0,0,0 } };
const TfLiteAffineQuantization quant14 = { (TfLiteFloatArray*)&quant14_scale, (TfLiteIntArray*)&quant14_zero, 0 };
const ALIGN(16) int8_t tensor_data15[16*1*1*96] = { 
  /* [0][0][][] */ -8,5,-10,17,51,60,-37,-20,37,2,5,8,11,22,19,56,-8,-19,-3,5,89,-54,25,-20,-29,-46,-37,-101,-8,-4,37,35,127,-13,13,10,2,-33,-22,0,-41,6,12,-40,1,-21,-8,31,-19,23,5,-8,-37,-26,14,6,38,28,-18,-31,-63,31,-12,-17,13,11,60,0,-6,4,3,-38,-68,-10,-9,5,2,-84,16,-17,45,-14,-59,-48,31,-17,-3,16,5,-6,9,-36,35,18,-11,127, 
  /* [1][0][][] */ 69,-112,61,81,-25,-93,-39,-33,-22,-100,-11,24,-4,-52,-43,-62,-110,-11,11,32,-22,-127,-53,45,116,-64,-81,29,-48,114,-16,32,4,-7,0,26,-26,-23,85,-30,5,-64,77,-15,-66,1,59,2,35,18,13,-57,66,-80,37,-17,21,14,-22,-94,39,-51,4,-70,-1,-113,39,39,18,60,-47,-15,-97,43,-15,46,28,113,30,-21,30,2,-102,52,-113,71,-25,52,-42,25,34,10,11,-44,37,12, 
  /* [2][0][][] */ 26,1,10,-21,11,-6,7,24,63,-16,18,78,-22,3,60,11,-10,-13,9,-11,-25,-53,19,-38,10,5,-19,32,10,20,104,-53,29,-84,-24,60,20,127,-45,-27,15,-29,7,18,-46,-48,-40,24,19,25,-36,-15,18,16,-10,-41,-17,13,0,46,14,14,75,90,3,-59,4,-63,0,1,-3,20,-12,10,-23,19,22,56,3,14,28,78,23,-29,-17,11,20,24,10,23,4,-41,-42,14,-5,71, 
  /* [3][0][][] */ -8,-16,-31,28,33,0,17,-37,-11,23,11,13,-5,-21,54,4,51,-25,21,-4,-18,-13,6,-9,-9,12,14,4,36,-38,47,-8,21,5,-35,47,-8,5,-29,8,12,-76,21,-40,2,6,13,0,-127,25,-9,28,-115,-36,-13,-54,17,26,-11,52,-3,10,14,27,-9,-74,-48,17,64,15,3,39,-45,11,-15,-30,-43,-55,21,-36,25,-23,27,46,48,53,44,22,13,-3,-17,19,-30,2,-13,-20, 
  /* [4][0][][] */ -5,-49,27,-63,-9,-23,-36,5,-31,-51,-33,5,3,75,18,2,45,-24,12,-7,-17,30,74,10,-1,5,23,30,16,2,-7,-11,-15,-11,7,26,30,-32,-7,-12,16,3,-85,-42,27,0,0,-6,-5,90,-13,-21,-32,-5,7,-19,10,-34,18,46,16,7,9,-5,43,-101,16,-12,-47,22,-11,13,-15,11,-31,29,-20,70,46,0,22,9,127,-52,31,-15,-15,2,66,17,1,14,-31,27,-2,-40, 
  /* [5][0][][] */ -14,-9,9,-10,-21,-26,-1,122,50,-25,-22,-22,-23,21,43,24,-30,-20,-2,-37,-56,-11,-10,-36,5,8,17,88,78,5,56,44,-50,8,0,-2,-60,-55,-35,-10,-22,-16,-8,-13,55,18,9,25,5,22,-13,7,-26,-8,-3,-18,-11,-38,-10,40,-42,24,-27,-42,-1,23,-18,20,-3,18,4,6,31,-2,6,-12,2,34,-4,121,-8,-42,14,26,-2,-2,15,-28,-5,-10,22,-127,-37,-22,-5,-123, 
  /* [6][0][][] */ -37,-18,8,-70,-19,-46,-36,32,-7,12,-33,-11,31,-59,-12,-24,-21,-89,21,35,1,6,-36,47,86,-25,-13,-3,8,-13,7,-21,-41,-9,1,-2,16,-8,44,44,-3,-17,-69,-21,-15,-24,19,-127,24,46,25,6,12,-7,-10,-38,51,-33,-5,12,23,34,-7,-3,33,66,44,-18,-40,-11,4,-44,21,-2,56,-20,-32,39,10,-1,-37,2,41,-19,-9,51,11,-47,34,2,-33,-9,-26,5,-12,17, 
  /* [7][0][][] */ 23,24,31,-24,-2,12,1,-44,0,-6,-10,-16,-11,-98,29,13,3,-24,-12,-6,14,-19,-37,-11,-17,-7,3,-24,13,16,10,9,-15,19,-27,-21,4,2,-38,17,4,-23,-16,32,1,13,-16,71,-3,21,-21,-22,-24,5,0,-69,29,9,-8,10,-5,1,-5,0,-20,48,9,-27,-1,-9,6,54,-15,-6,-11,9,48,-4,-5,-26,7,-39,48,-4,-22,127,-1,7,-36,-23,-9,28,-30,7,-5,5, 
  /* [8][0][][] */ -60,35,-35,10,43,-25,-9,29,8,53,-50,18,8,36,67,-24,-22,22,-89,13,15,27,-17,-5,-41,-25,17,39,74,-74,0,-14,54,-11,17,4,-28,51,-31,39,1,13,13,-127,-50,6,78,-12,-60,41,-3,55,-104,83,22,-10,15,-28,-30,-3,9,-30,4,41,-42,34,25,-16,-7,6,41,68,-32,32,47,29,-2,-74,-16,-33,-1,-14,15,-16,-56,15,9,-43,8,36,-30,10,27,-7,-14,-8, 
  /* [9][0][][] */ 16,-64,-17,-40,15,48,-10,3,25,-7,7,21,-48,-37,0,33,-2,2,42,-22,-38,-9,-25,-42,40,13,21,-1,-23,-32,-30,14,4,10,-11,36,9,57,-62,12,8,-12,-20,-108,2,-2,39,-126,-47,9,-1,23,-6,21,-11,-11,-61,37,-19,21,30,5,21,32,24,127,31,35,29,-11,22,2,-15,-20,-36,22,54,-15,15,3,0,1,20,-59,10,27,5,-6,-58,28,-41,14,1,22,8,-34, 
  /* [10][0][][] */ 25,44,-11,32,53,-127,-14,-18,-4,42,29,11,-21,-2,22,-85,5,25,-35,36,-87,-13,-16,-16,-66,-20,-52,64,8,22,7,31,-15,-27,46,-15,72,-24,-3,-8,-2,68,53,-21,-62,-19,-45,19,-15,-7,-40,-13,-17,-2,-13,-21,19,15,-25,-8,8,12,-18,18,0,39,46,38,16,-1,31,50,-45,-22,-58,-20,-1,33,-27,0,22,-8,-75,-39,42,-34,77,-9,-15,33,33,-7,72,39,-13,-121, 
  /* [11][0][][] */ 40,31,-25,15,4,10,49,-3,0,-11,-21,-13,4,-6,40,7,-13,-18,-87,-4,-3,3,1,-17,-44,-20,-11,17,18,24,2,1,7,-2,-10,22,2,23,-6,15,0,9,50,-108,24,-24,11,-4,-127,31,11,-53,27,23,-6,1,-11,-15,4,4,16,-17,-1,17,-50,52,-15,7,8,-13,34,12,-63,-29,16,34,-6,-32,-59,6,16,10,84,33,14,-4,-14,-15,-5,11,-29,3,-5,15,-20,6, 
  /* [12][0][][] */ -51,-10,11,2,-31,29,0,-5,127,5,-15,18,4,16,-46,-50,18,16,7,76,47,24,4,-25,-7,-5,9,-36,-121,15,32,-39,16,4,-8,-25,19,-4,28,-21,-47,-30,-1,9,4,34,21,5,6,11,-47,9,19,-12,4,-6,84,-23,3,23,15,-17,13,-19,-13,34,-41,-5,-6,22,-18,-32,26,0,-79,7,23,-19,6,-78,-8,9,39,41,-26,-15,-29,-29,8,13,-3,43,-20,-27,15,6, 
  /* [13][0][][] */ 37,-18,-23,26,22,-13,3,13,-15,-2,16,0,15,-17,2,-26,16,-76,-42,22,-12,-14,20,4,4,5,4,-1,-19,-40,-2,8,-4,-6,24,42,18,-12,13,19,1,19,20,42,14,20,-19,-127,29,-8,2,5,-22,-8,9,10,-11,8,23,12,16,24,-7,0,-7,-24,-13,-55,0,15,-9,-46,-10,37,-15,11,-33,13,20,-5,26,-13,-19,26,8,35,6,18,3,-7,22,-18,8,8,-12,-14, 
  /* [14][0][][] */ -103,-49,32,45,18,-34,-47,19,-12,12,-3,2,60,16,-127,-3,66,-16,-12,38,-4,-10,20,24,-106,-1,27,-13,-57,-62,-22,-8,-21,9,29,-65,26,17,19,18,12,41,-14,-21,7,103,40,55,-90,39,11,19,-50,-21,27,5,3,1,64,41,26,48,6,33,0,-28,-30,28,-7,60,-50,-85,-64,3,-6,34,-20,46,89,1,32,14,33,40,37,9,38,27,27,31,57,-10,1,7,16,-24, 
  /* [15][0][][] */ 95,-20,22,-1,0,72,19,-8,-11,62,15,5,-64,-4,-13,35,13,45,52,-11,23,30,-70,60,27,4,42,-12,21,30,-50,-82,21,-60,55,3,33,-35,-46,-100,-11,36,1,35,1,54,-24,-50,105,-55,-53,26,29,-112,57,-88,0,-55,19,4,-127,10,11,3,85,-27,-55,37,-18,71,-40,-1,39,40,24,-1,31,-48,74,-10,-5,-3,44,79,-16,-9,-8,-58,17,-6,52,-13,-53,45,24,-10, 
};
const TfArray<4, int> tensor_dimension15 = { 4, { 16,1,1,96 } };
const TfArray<16, float> quant15_scale = { 16, { 0.016897652298212051, 0.0097343698143959045, 0.011579216457903385, 0.010700251907110214, 0.014602506533265114, 0.013252544216811657, 0.011317584663629532, 0.014711509458720684, 0.009045126847922802, 0.011992570944130421, 0.014768948778510094, 0.030596490949392319, 0.01610240526497364, 0.018102424219250679, 0.023292293772101402, 0.013581962324678898, } };
const TfArray<16, int> quant15_zero = { 16, { 0,0,0,0,0,0,0,0,0,0,0,0,0,0,0,0 } };
const TfLiteAffineQuantization quant15 = { (TfLiteFloatArray*)&quant15_scale, (TfLiteIntArray*)&quant15_zero, 0 };
const ALIGN(16) int32_t tensor_data16[96] = { 10018, -8613, 2796, 47779, -1516, -4950, -10887, 1876, -2957, 565, 3144, -965, 1210, -4374, 5666, -6758, -427, 17858, 24913, 2564, 2926, -2479, 246, 373, 16039, -951, -2529, -3434, -5245, -7776, 8080, -8839, -384, -2084, -920, 11793, 1090, -4706, 22007, 874, -178, 1825, -8732, -7547, -7861, 69089, 12, 16572, 29322, -13539, -857, 6286, 7527, -418, -6391, 2330, -10935, 1532, 2766, -7008, -2105, -849, -11026, -1982, 1617, 16505, 28922, 29407, -11809, 22, -8396, -561, 50957, 9891, -161, 760, 19414, 33241, -102, -4813, -1799, -1869, 1254, -3222, 981, 1517, 2176, -743, 1830, -2701, 510, -1329, -143, -444, 44, 49339, };
const TfArray<1, int> tensor_dimension16 = { 1, { 96 } };
const TfArray<96, float> quant16_scale = { 96, { 0.00020318487077020109, 0.00014254437701310962, 0.00026297438307665288, 4.361302126199007e-05, 0.00015434612578246742, 0.00017318592290394008, 0.00035722187021747231, 7.6469805208034813e-05, 0.00010793371620820835, 0.00037413425161503255, 0.00018000448471866548, 0.00036084969178773463, 9.594205766916275e-05, 0.00045047170715406537, 0.00017293420387431979, 0.00010925267270067707, 0.00011130978964501992, 0.00031856322311796248, 5.9967434935970232e-05, 0.00021570459648501128, 4.0959963371278718e-05, 0.00019136993796564639, 0.0001691785582806915, 0.00033246751991100609, 0.00022489138063974679, 0.00027934531681239605, 0.00013539982319343835, 0.00020729027164634317, 0.0001089538709493354, 0.00010094897879753262, 0.00010640195978339761, 0.00017726882651913911, 0.00013373847468756139, 0.00013434987340588123, 0.00022897815506439656, 0.00019985689141321927, 0.00043555800220929086, 0.00013202939589973539, 5.9731624787673354e-05, 0.0001527963177068159, 0.00021122542966622859, 0.00031516890157945454, 0.00043311869376339018, 0.00015970569802448153, 0.0001678423723205924, 5.2098526793997735e-05, 0.00022896559676155448, 0.00020380798378027976, 9.0542627731338143e-05, 0.00017542763089295477, 0.00015561285545118153, 0.00019425951177254319, 0.00023287412477657199, 0.00028442006441764534, 0.00025036113220266998, 0.00048025115393102169, 0.00036358734359964728, 0.0002201376628363505, 0.00013012503040954471, 8.6294763605110347e-05, 0.00029749207897111773, 0.0001465225504944101, 0.00032208312768489122, 0.00013638338714372367, 0.00023043293913360685, 0.0001800445606932044, 7.689895574003458e-05, 6.157565803732723e-05, 0.00037363977753557265, 0.00027191941626369953, 0.00021903264860156924, 0.00010740797006292269, 0.00011251288378844038, 0.00016531396249774843, 0.00016031156701501459, 0.00024684640811756253, 0.00055677362252026796, 5.6411623518215492e-05, 0.00029504217673093081, 0.00039737005135975778, 0.00016851203690748662, 0.0010947457049041986, 0.000104990613181144, 0.00018566184735391289, 0.00013395289715845138, 8.912970224628225e-05, 0.00014162229490466416, 0.00017839306383393705, 0.00023231770319398493, 0.00012438712292350829, 0.00023563901777379215, 0.00011815061589004472, 0.00015670845459681004, 0.00043134926818311214, 0.027767729014158249, 8.110628550639376e-05, } };
const TfArray<96, int> quant16_zero = { 96, { 0,0,0,0,0,0,0,0,0,0,0,0,0,0,0,0,0,0,0,0,0,0,0,0,0,0,0,0,0,0,0,0,0,0,0,0,0,0,0,0,0,0,0,0,0,0,0,0,0,0,0,0,0,0,0,0,0,0,0,0,0,0,0,0,0,0,0,0,0,0,0,0,0,0,0,0,0,0,0,0,0,0,0,0,0,0,0,0,0,0,0,0,0,0,0,0 } };
const TfLiteAffineQuantization quant16 = { (TfLiteFloatArray*)&quant16_scale, (TfLiteIntArray*)&quant16_zero, 0 };
const ALIGN(16) int8_t tensor_data17[1*3*3*96] = { 
  /* [0][0][][] */ -18,8,-19,105,-18,26,-61,-54,16,-4,98,-9,3,-9,-3,56,4,14,-37,3,74,3,32,-36,2,18,46,47,23,13,23,46,-6,30,12,-15,5,48,-59,-27,18,9,26,20,-86,-60,26,-4,-12,-19,-6,-7,48,5,-8,2,-4,-35,26,-31,28,-3,127,27,-13,-11,11,-55,64,35,2,-8,76,-33,72,3,16,-127,30,63,1,15,127,-13,38,29,-30,-19,36,-5,-16,84,0,20,-2,12, -49,16,-7,11,51,-6,-10,-127,37,14,-127,-5,-17,-13,5,88,16,-31,-13,-16,79,-96,127,25,-60,-30,-103,-15,28,36,-49,17,122,16,-12,-2,-24,127,-62,-127,8,-18,-31,15,47,-127,127,-43,-78,52,51,6,38,-64,32,57,36,42,-100,83,127,33,4,-19,43,-39,-97,-2,35,-31,-17,47,-48,-47,106,-5,-31,-60,-33,64,-65,62,-16,9,-11,48,53,-41,-28,53,-14,74,-127,-31,23,-127, 0,-2,-22,-72,7,22,38,22,-4,0,3,62,0,-12,-10,10,-13,17,-18,17,7,25,23,-35,0,-30,12,11,-5,5,46,-79,47,19,8,-23,13,5,-34,-22,6,2,-18,10,24,-34,20,1,7,-4,7,-6,4,6,-5,8,-7,45,7,-3,12,-18,2,-17,-27,-18,29,-51,-106,-8,41,-18,-127,-21,-10,15,10,-13,6,11,-13,23,-36,-4,-40,21,25,36,-25,-15,24,-9,19,7,-2,-46, 
  /* [0][1][][] */ -40,60,-16,38,-86,-14,-9,-44,25,96,-44,-21,-32,-26,-5,65,127,-24,-94,-14,57,-127,-28,14,-35,-46,-126,-8,39,35,-50,27,-125,-75,-52,4,66,-1,-53,46,-20,86,1,-2,35,-54,-13,-31,127,44,-3,20,43,10,-35,-17,31,10,-127,127,-36,-87,20,127,-59,-36,-82,126,-36,127,-18,54,-36,-53,38,7,-35,-70,127,48,127,36,5,0,127,27,-98,48,-37,-35,-103,42,95,102,28,-58, 127,127,127,127,-47,-127,127,24,127,-127,14,-127,-106,127,127,127,-17,-127,-63,-127,127,22,-67,127,127,127,-53,-127,127,127,-127,127,-7,-127,-120,127,-127,-43,92,109,-127,-127,127,127,127,-116,-108,127,-14,127,-127,-127,-127,127,127,-127,127,-127,-42,41,-106,-27,-70,-65,127,127,-70,127,127,-106,-127,127,-41,127,-127,-127,-127,124,-76,127,-42,127,76,127,-38,-127,-27,-106,-127,-127,-23,-127,-22,-127,-127,117, -24,68,-37,3,127,74,-20,49,4,24,-14,-7,-25,-29,-13,-6,-105,-22,-127,39,30,76,-11,-119,-34,-40,127,70,11,34,72,8,127,-48,127,-4,56,5,-96,13,35,24,-25,0,-22,-52,-13,-42,82,18,-11,39,-6,-5,-74,-13,24,20,127,-87,2,127,-1,-35,-111,-30,-75,100,15,-17,112,25,-20,-54,14,45,-29,-8,-45,-2,-46,8,46,23,-89,34,127,-45,32,-22,127,-9,-112,34,33,17, 
  /* [0][2][][] */ -4,-43,-20,-59,-5,15,41,33,-3,10,-20,53,23,-35,-7,8,39,2,6,21,-7,30,-16,-27,2,-23,11,4,-11,-6,48,-75,-40,69,-24,-25,30,-34,-59,16,8,10,-32,19,12,-82,-12,0,-10,9,17,-7,7,1,-22,6,1,44,-51,34,-4,-12,5,19,-8,-10,23,-53,-55,12,-18,-10,-118,-28,0,16,15,-10,57,17,23,21,-41,16,11,24,-21,10,5,23,22,-4,20,40,-7,-31, -28,-13,-25,25,-45,77,-24,67,4,-6,54,-13,127,-7,-17,-16,-2,-41,-61,24,-19,79,-44,-114,-46,-46,103,69,12,42,53,-2,-126,67,-13,-23,-28,-26,-127,-5,43,-13,-14,38,-27,-44,-18,-47,-61,30,70,25,-12,-81,30,53,18,26,74,-54,23,-56,-9,2,18,-27,-127,-55,-10,-26,-61,26,35,-43,-28,-8,-45,22,-57,1,50,33,17,11,4,61,-93,127,15,123,-30,-17,114,-21,46,80, -10,-37,-25,28,12,66,-42,15,3,-6,0,13,12,-49,-9,-12,-45,-6,17,21,-21,5,-19,5,-4,20,0,51,-3,-6,33,28,19,46,22,-23,-5,-26,-36,8,11,-10,21,9,-75,-33,-13,5,-2,-14,0,-4,-9,8,-17,-5,0,-50,11,-27,-20,47,9,-28,-10,-3,33,-55,46,7,54,-18,28,-52,-16,21,10,12,-6,22,-29,32,91,-15,-18,53,37,-8,108,12,3,-18,10,-22,-7,-52, 
};
const TfArray<4, int> tensor_dimension17 = { 4, { 1,3,3,96 } };
const TfArray<96, float> quant17_scale = { 96, { 0.0086353570222854614, 0.0060581360012292862, 0.011176411062479019, 0.0018535533454269171, 0.0065597100183367729, 0.007360401563346386, 0.015181928873062134, 0.0032499667722731829, 0.0045871827751398087, 0.015900705009698868, 0.0076501904986798763, 0.015336111187934875, 0.0040775374509394169, 0.019145047292113304, 0.007349703460931778, 0.004643238615244627, 0.0047306660562753677, 0.013538937084376812, 0.0025486159138381481, 0.0091674448922276497, 0.0017407984705641866, 0.0081332223489880562, 0.0071900887414813042, 0.014129869639873505, 0.0095578832551836967, 0.011872176080942154, 0.0057544922456145287, 0.0088098365813493729, 0.0046305395662784576, 0.0042903316207230091, 0.0045220833271741867, 0.0075339251197874546, 0.0056838849559426308, 0.0057098697870969772, 0.009731571190059185, 0.0084939179942011833, 0.018511215224862099, 0.0056112492457032204, 0.002538593951612711, 0.0064938436262309551, 0.0089770806953310966, 0.013394678011536598, 0.018407544121146202, 0.006787491962313652, 0.0071333008818328381, 0.0022141872905194759, 0.0097310375422239304, 0.0086618391796946526, 0.0038480616640299559, 0.0074556744657456875, 0.0066135465167462826, 0.008256029337644577, 0.0098971500992774963, 0.012087852694094181, 0.010640347376465797, 0.020410673692822456, 0.015452462248504162, 0.0093558505177497864, 0.0055303135886788368, 0.0036675273440778255, 0.012643413618206978, 0.0062272083014249802, 0.013688532635569572, 0.0057962937280535698, 0.0097933998331427574, 0.0076518934220075607, 0.0032682055607438087, 0.0026169654447585344, 0.015879690647125244, 0.011556575074791908, 0.0093088876456022263, 0.0045648384839296341, 0.0047817975282669067, 0.0070258434861898422, 0.0068132416345179081, 0.010490972548723221, 0.023662878200411797, 0.0023974939249455929, 0.012539292685687542, 0.016888227313756943, 0.0071617616340517998, 0.046526689082384109, 0.0044621010310947895, 0.0078906286507844925, 0.0056929979473352432, 0.0037880123127251863, 0.0060189473442733288, 0.0075817047618329525, 0.0098735019564628601, 0.0052864528261125088, 0.010014657862484455, 0.0050214012153446674, 0.0066601093858480453, 0.018332343548536301, 1.1801284551620483, 0.0034470169339329004, } };
const TfArray<96, int> quant17_zero = { 96, { 0,0,0,0,0,0,0,0,0,0,0,0,0,0,0,0,0,0,0,0,0,0,0,0,0,0,0,0,0,0,0,0,0,0,0,0,0,0,0,0,0,0,0,0,0,0,0,0,0,0,0,0,0,0,0,0,0,0,0,0,0,0,0,0,0,0,0,0,0,0,0,0,0,0,0,0,0,0,0,0,0,0,0,0,0,0,0,0,0,0,0,0,0,0,0,0 } };
const TfLiteAffineQuantization quant17 = { (TfLiteFloatArray*)&quant17_scale, (TfLiteIntArray*)&quant17_zero, 3 };
const ALIGN(16) int32_t tensor_data18[96] = { 16308, 1213, 6285, -605, 4273, 4263, 12880, 5269, -1085, 12581, 5889, 2183, 5795, 22252, -335, -1913, 8698, 9423, 2193, -130, -579, 13016, 4580, 3434, 6749, 4088, 4901, 5247, -44, -39, 4586, 10435, 13069, 2130, 4583, -551, 17088, 11009, 801, 3332, 811, 10041, 11127, 3592, 3507, 13083, 15519, 6612, 4383, 3959, 243, -643, 16565, 7131, 7722, 11304, -301, 8045, 3264, 3733, 11068, 5090, 3508, 9949, 4885, 4441, 6963, -722, 17282, 7688, 5772, -1112, -1703, 3009, 1417, 3151, 20853, 13301, 12426, -2380, 4846, -5030, -1501, 501, 5646, 3760, 6110, 3337, 10350, 3840, 6927, 3422, 13979, 18704, -10751, 13043, };
const TfArray<1, int> tensor_dimension18 = { 1, { 96 } };
const TfArray<96, float> quant18_scale = { 96, { 0.00016019736358430237, 0.00026409508427605033, 0.00020704751659650356, 0.00092181790387257934, 0.00037580516072921455, 0.00020702906476799399, 0.00023967611195985228, 0.00067319319350644946, 0.00042367758578620851, 0.00014348921831697226, 0.00024253223091363907, 0.00038003650843165815, 0.00047792657278478146, 0.00021396168449427933, 0.00033724028617143631, 0.00037190195871517062, 0.00025574452592991292, 0.00025065930094569921, 0.00024030508939176798, 0.00091703998623415828, 0.00040182785596698523, 0.000190710139577277, 0.00032849045237526298, 0.00023617540136910975, 0.00026279091252945364, 0.00049801619024947286, 0.00028561495128087699, 0.00018174733850173652, 0.00070645497180521488, 0.00036173773696646094, 0.0003121968184132129, 0.00018020800780504942, 0.00015031080693006516, 0.00050368299707770348, 0.00036296143662184477, 0.00045489324838854373, 0.00013258811668492854, 0.00023488819715566933, 0.00059485284145921469, 0.00028792503871954978, 0.0006384383887052536, 0.00018600111070554703, 0.00019350186630617827, 0.00019038056780118495, 0.00032223391463048756, 0.00025268335593864322, 0.00018579274183139205, 0.00022868749510962516, 0.00036510234349407256, 0.00022627454018220305, 0.00042668177047744393, 0.0010370700620114803, 0.00016155587218236178, 0.00022442085901275277, 0.00030521224834956229, 0.00016453432908747345, 0.0003947887453250587, 0.0002142086741514504, 0.00025522959185764194, 0.0004330301599111408, 0.00015107283252291381, 0.00027522104210220277, 0.00029330089455470443, 0.0002780047943815589, 0.00021526185446418822, 0.0002524133597034961, 0.00027560090529732406, 0.00045992512605153024, 0.00015495433763135225, 0.00015151982370298356, 0.00034035331918857992, 0.00044039409840479493, 0.00025497673777863383, 0.00042676605517044663, 0.00027822173433378339, 0.00041031892760656774, 0.00011543923756107688, 0.00033435295335948467, 0.00013291988580022007, 0.00051376287592574954, 0.00022211967734619975, 0.00040797473047859967, 0.00026505897403694689, 0.00051874044584110379, 0.00028300230042077601, 0.00040977407479658723, 0.00026896639610640705, 0.00040147436084225774, 0.00016585231060162187, 0.00041612872155383229, 0.00020101275003980845, 0.00048931228229776025, 0.00015293160686269403, 0.00014815552276559174, 0.00027387368027120829, 0.00025138855562545359, } };
const TfArray<96, int> quant18_zero = { 96, { 0,0,0,0,0,0,0,0,0,0,0,0,0,0,0,0,0,0,0,0,0,0,0,0,0,0,0,0,0,0,0,0,0,0,0,0,0,0,0,0,0,0,0,0,0,0,0,0,0,0,0,0,0,0,0,0,0,0,0,0,0,0,0,0,0,0,0,0,0,0,0,0,0,0,0,0,0,0,0,0,0,0,0,0,0,0,0,0,0,0,0,0,0,0,0,0 } };
const TfLiteAffineQuantization quant18 = { (TfLiteFloatArray*)&quant18_scale, (TfLiteIntArray*)&quant18_zero, 0 };
const ALIGN(16) int8_t tensor_data19[96*1*1*16] = { 
  /* [0][0][][] */ 26,-41,127,102,90,-5,56,-66,108,-43,-37,-89,48,119,-29,-115, 
  /* [1][0][][] */ 70,44,-1,24,94,-42,-34,46,42,100,-64,127,8,-39,115,-76, 
  /* [2][0][][] */ 44,-47,11,13,-15,47,-57,102,-77,-58,2,88,20,-127,58,-103, 
  /* [3][0][][] */ 127,127,9,39,-110,2,-65,-33,2,-5,115,-44,-64,98,-58,-49, 
  /* [4][0][][] */ -9,-9,8,7,-33,27,-20,33,-56,-42,1,-14,0,-127,27,1, 
  /* [5][0][][] */ 88,-35,-19,1,-17,-95,-36,11,-4,18,-127,8,19,-17,-16,28, 
  /* [6][0][][] */ -100,-56,-29,122,-36,-2,-25,51,-127,-66,-86,-31,23,50,-12,86, 
  /* [7][0][][] */ -6,14,-75,46,39,-127,-23,43,5,-25,7,-7,8,22,-49,22, 
  /* [8][0][][] */ 32,-47,-5,-13,14,16,-63,-56,-17,15,-65,7,-127,4,-9,25, 
  /* [9][0][][] */ 26,-68,62,118,9,20,-8,-110,100,-127,-1,-37,-14,53,-65,53, 
  /* [10][0][][] */ -104,-58,48,-71,127,31,36,78,102,-96,-66,18,114,-102,-122,59, 
  /* [11][0][][] */ 45,0,-127,32,62,30,-31,46,-16,-30,-18,-4,0,10,-52,-4, 
  /* [12][0][][] */ 110,-50,-20,29,-3,-49,-61,-9,51,21,-127,-28,-40,-32,10,61, 
  /* [13][0][][] */ 24,-55,14,-64,53,-10,-64,-127,16,-17,25,-2,4,-20,27,15, 
  /* [14][0][][] */ -70,29,-88,-44,66,-127,57,-56,37,35,-5,-99,1,84,-7,39, 
  /* [15][0][][] */ 26,-13,51,44,46,-54,-39,5,16,-87,-63,-20,-127,-43,-16,55, 
  /* [16][0][][] */ -125,61,12,14,14,81,58,69,-17,26,127,9,17,4,15,-60, 
  /* [17][0][][] */ -23,-12,-39,-29,-27,21,42,61,-20,127,-13,8,-16,68,58,-1, 
  /* [18][0][][] */ -11,127,-51,-20,8,30,66,-85,11,122,-53,125,3,-44,27,-86, 
  /* [19][0][][] */ 13,-20,39,19,10,46,2,24,11,15,-40,-3,-127,0,-25,28, 
  /* [20][0][][] */ 110,-86,-7,-99,-27,29,28,-100,-62,4,-127,-32,42,32,68,5, 
  /* [21][0][][] */ 51,-28,127,55,-35,65,23,-5,5,21,-25,-17,-18,101,10,-1, 
  /* [22][0][][] */ 20,6,3,6,-20,17,35,127,34,-7,23,28,11,48,24,25, 
  /* [23][0][][] */ -21,43,-120,39,35,-127,10,62,-4,-7,2,22,-63,1,-14,46, 
  /* [24][0][][] */ 33,-64,-6,-61,47,8,-27,-16,27,40,65,79,-43,85,127,47, 
  /* [25][0][][] */ -127,-61,-47,21,21,28,39,-47,-55,13,-54,24,11,58,18,50, 
  /* [26][0][][] */ 19,2,40,5,-32,1,-45,77,-80,-44,-27,18,21,-127,39,-4, 
  /* [27][0][][] */ -97,52,-68,30,25,-10,2,44,43,-34,127,33,-15,9,-5,-10, 
  /* [28][0][][] */ -33,-4,16,26,-2,5,20,82,31,19,-25,-4,-127,-8,-16,47, 
  /* [29][0][][] */ -6,60,40,-38,42,-18,11,-15,-127,35,-39,4,1,40,-93,14, 
  /* [30][0][][] */ -8,7,-127,-34,26,-43,10,28,-21,-16,-2,-8,-25,-27,0,19, 
  /* [31][0][][] */ 127,-26,-104,12,40,-1,-41,64,-17,1,-72,-40,19,-2,-90,24, 
  /* [32][0][][] */ -112,57,36,23,-13,63,4,47,11,-24,127,3,-35,38,-6,-10, 
  /* [33][0][][] */ -2,-28,127,-19,-67,21,-2,-62,-5,12,-11,20,-9,13,46,20, 
  /* [34][0][][] */ -10,-39,-34,-88,12,34,14,-31,-9,-31,-10,-127,-2,9,27,12, 
  /* [35][0][][] */ 2,-54,31,41,39,-33,2,-34,-127,26,-31,7,-25,120,-28,-43, 
  /* [36][0][][] */ -99,38,-43,-3,-6,31,46,68,-11,35,127,-28,-16,28,18,-29, 
  /* [37][0][][] */ -22,21,127,-23,-108,-95,37,-22,40,36,-26,7,13,-78,67,37, 
  /* [38][0][][] */ 6,-13,-15,28,31,-53,-67,24,-15,-9,64,-6,127,18,-24,38, 
  /* [39][0][][] */ -9,-26,-21,-22,-44,-79,41,127,-44,-9,-29,-49,3,37,50,62, 
  /* [40][0][][] */ 60,-7,-21,-13,-24,62,-22,8,17,6,4,-4,127,1,-9,-5, 
  /* [41][0][][] */ -3,-27,-22,-127,48,4,-19,-89,4,-60,11,-52,13,5,-12,50, 
  /* [42][0][][] */ 48,33,12,111,-78,13,-61,17,-65,-50,67,-49,-12,127,-61,-5, 
  /* [43][0][][] */ 20,108,-16,127,28,20,37,-100,-36,56,-41,34,7,-48,63,22, 
  /* [44][0][][] */ -7,-13,-127,24,46,77,-43,48,-20,-23,34,-29,7,-24,-39,2, 
  /* [45][0][][] */ -10,19,-27,-127,-28,2,49,-29,-18,10,-50,7,0,-98,49,-18, 
  /* [46][0][][] */ 9,25,84,-45,14,-9,-66,27,6,-77,-36,3,5,127,76,-18, 
  /* [47][0][][] */ 5,-15,27,-56,-30,24,-63,43,-29,-44,26,30,-14,-127,43,13, 
  /* [48][0][][] */ 14,-7,17,-127,-16,-2,9,13,16,-32,18,-18,3,57,-6,57, 
  /* [49][0][][] */ 24,-44,6,127,117,-13,-24,58,-87,3,36,38,5,53,117,-15, 
  /* [50][0][][] */ -31,-69,89,-43,18,115,-57,-124,44,-36,127,25,91,-41,13,-110, 
  /* [51][0][][] */ 37,46,3,12,23,-7,-43,28,44,5,-7,127,21,30,28,-46, 
  /* [52][0][][] */ -23,56,127,9,13,-33,8,-45,-31,-1,-4,20,-6,61,-116,-26, 
  /* [53][0][][] */ 0,-19,-68,-127,-48,4,26,-50,-37,38,5,0,20,-49,67,20, 
  /* [54][0][][] */ 2,3,-16,-81,27,-1,-29,-9,62,-19,-1,-35,-1,127,23,33, 
  /* [55][0][][] */ -12,-35,-37,4,14,-28,-5,-127,7,-84,-10,-6,-14,-61,-50,-26, 
  /* [56][0][][] */ 26,29,22,60,-4,-31,10,127,21,-30,9,-43,88,-4,-50,36, 
  /* [57][0][][] */ 88,-46,127,3,-69,-27,6,-37,39,25,-109,10,46,-61,53,21, 
  /* [58][0][][] */ 127,98,58,91,-109,-28,-6,81,-27,35,83,-12,-86,-34,-52,-86, 
  /* [59][0][][] */ 112,-48,2,-3,-26,-32,-14,6,-29,10,-127,-12,14,-7,1,32, 
  /* [60][0][][] */ -127,34,10,-11,11,8,30,27,15,10,92,6,-25,-3,5,-37, 
  /* [61][0][][] */ -62,55,55,0,43,6,-85,-47,95,-68,88,-12,51,-31,-127,-68, 
  /* [62][0][][] */ -35,-27,-127,69,80,114,-13,110,15,-75,46,-6,-101,-18,-110,-34, 
  /* [63][0][][] */ -56,5,127,-45,-76,-61,36,-32,18,15,1,9,-2,-42,92,25, 
  /* [64][0][][] */ 38,58,-4,35,61,-14,56,-91,-21,127,-1,-4,2,-82,-13,37, 
  /* [65][0][][] */ 14,27,1,-31,59,11,-3,-127,-25,-91,-32,-52,7,-49,46,17, 
  /* [66][0][][] */ -127,7,-29,-1,-61,11,16,-41,-72,-29,-92,53,57,15,64,101, 
  /* [67][0][][] */ -2,-24,2,127,11,-4,-12,25,57,40,-1,1,-15,-53,-91,-19, 
  /* [68][0][][] */ 31,11,-9,127,-68,-34,6,-36,-52,19,-5,-46,-1,-59,-29,-46, 
  /* [69][0][][] */ 98,82,5,127,57,2,64,-92,5,103,4,77,18,-20,12,-10, 
  /* [70][0][][] */ 31,-18,15,-37,127,-13,33,32,62,-7,38,-14,27,67,38,51, 
  /* [71][0][][] */ 19,44,2,75,35,-127,-42,69,31,-87,0,13,9,-56,-46,44, 
  /* [72][0][][] */ -127,-62,-9,45,25,32,-27,19,-71,-25,-101,63,44,11,-12,110, 
  /* [73][0][][] */ -21,-19,-19,72,9,-14,13,-12,81,27,-6,-5,33,127,-73,-40, 
  /* [74][0][][] */ 41,-58,27,-32,-41,11,44,-41,-28,-28,-89,21,-127,-8,29,36, 
  /* [75][0][][] */ -21,-16,-39,127,-44,7,-4,-34,-74,17,-4,-49,-14,-55,-5,-32, 
  /* [76][0][][] */ -11,-29,-6,29,27,7,-37,-111,14,-127,4,16,-19,-9,30,-39, 
  /* [77][0][][] */ 127,-29,38,66,-38,-13,-58,-5,49,-15,-37,40,28,25,-63,37, 
  /* [78][0][][] */ -10,-10,37,14,20,-8,-90,57,66,-34,-81,-49,37,127,50,-43, 
  /* [79][0][][] */ -11,6,46,25,43,67,-49,-49,21,-52,73,-17,127,-20,-29,-43, 
  /* [80][0][][] */ -127,-67,-80,114,2,29,27,-5,-92,36,-106,17,56,-86,-5,43, 
  /* [81][0][][] */ 76,29,-80,44,127,96,-25,-19,7,-86,-2,-92,-19,-1,-124,31, 
  /* [82][0][][] */ 76,125,-29,36,-127,-27,-69,-14,-64,-10,87,-39,-52,80,4,-13, 
  /* [83][0][][] */ 127,39,14,-31,8,-18,-3,26,28,16,65,-22,-54,-31,-22,-63, 
  /* [84][0][][] */ 9,-56,-69,-26,29,18,-9,-127,-29,-69,11,13,-9,-16,5,-10, 
  /* [85][0][][] */ -30,-4,-44,-52,-16,-17,52,76,-17,127,-12,-52,18,51,65,-12, 
  /* [86][0][][] */ 101,-27,-5,7,1,-21,2,-36,4,6,-127,-3,21,16,-14,16, 
  /* [87][0][][] */ -24,29,16,-25,-5,60,-22,52,-1,-14,43,9,-3,-127,16,-3, 
  /* [88][0][][] */ 9,-32,-105,-64,41,-13,-16,-127,-1,-13,17,-38,-51,-16,43,-4, 
  /* [89][0][][] */ 10,-5,19,-120,48,26,-49,127,95,-75,55,8,-22,4,57,31, 
  /* [90][0][][] */ 28,18,-16,50,58,-35,107,-79,37,127,-34,33,6,-11,-32,-23, 
  /* [91][0][][] */ 32,-11,-33,-8,-3,-127,-9,-5,0,-2,-46,2,22,-19,14,32, 
  /* [92][0][][] */ 34,35,127,65,29,2,1,66,-32,44,-76,21,5,83,9,4, 
  /* [93][0][][] */ 119,-36,-42,-22,-15,-67,8,28,-36,55,-127,-8,-9,27,-22,56, 
  /* [94][0][][] */ 21,-28,51,90,127,-30,-13,73,1,-7,0,65,-7,126,-34,-84, 
  /* [95][0][][] */ -125,50,44,45,40,43,14,1,17,13,127,5,-11,26,-18,-33, 
};
const TfArray<4, int> tensor_dimension19 = { 4, { 96,1,1,16 } };
const TfArray<96, float> quant19_scale = { 96, { 0.00047109776642173529, 0.00077663327101618052, 0.00060887157451361418, 0.0027108208741992712, 0.001105142873711884, 0.00060881732497364283, 0.00070482358569279313, 0.001979681896045804, 0.0012459228746592999, 0.00042196354479528964, 0.00071322266012430191, 0.0011175861582159996, 0.0014054547064006329, 0.00062920432537794113, 0.00099173386115580797, 0.0010936645558103919, 0.00075207650661468506, 0.00073712226003408432, 0.00070667325053364038, 0.0026967702433466911, 0.0011816687183454633, 0.00056082772789523005, 0.00096600287361070514, 0.00069452892057597637, 0.00077279808465391397, 0.0014645329210907221, 0.00083991751307621598, 0.00053447048412635922, 0.0020774959120899439, 0.0010637743398547173, 0.00091808766592293978, 0.00052994373254477978, 0.00044202402932569385, 0.0014811975415796041, 0.0010673728538677096, 0.0013377198483794928, 0.00038990631583146751, 0.00069074361817911267, 0.0017493037739768624, 0.00084671087097376585, 0.0018774771597236395, 0.00054697971791028976, 0.00056903745280578732, 0.00055985851213335991, 0.00094760413048788905, 0.00074307445902377367, 0.00054636696586385369, 0.00067250902066007257, 0.0010736687108874321, 0.00066541315754875541, 0.0012547574006021023, 0.0030497468542307615, 0.00047509279102087021, 0.00065996195189654827, 0.00089754792861640453, 0.00048385161790065467, 0.0011609685607254505, 0.00062993064057081938, 0.0007505622343160212, 0.0012734263436868787, 0.00044426496606320143, 0.00080935179721564054, 0.00086251978063955903, 0.00081753806443884969, 0.00063302775379270315, 0.00074228044832125306, 0.00081046880222856998, 0.0013525172835215926, 0.00045567943016067147, 0.00044557944056577981, 0.0010008884128183126, 0.0012950816890224814, 0.00074981868965551257, 0.0012550052488222718, 0.00081817596219480038, 0.0012066386407241225, 0.00033947604242712259, 0.00098324299324303865, 0.00039088196353986859, 0.0015108396764844656, 0.00065319478744640946, 0.0011997449910268188, 0.00077946780947968364, 0.0015254773898050189, 0.00083223439287394285, 0.0012050364166498184, 0.00079095852561295033, 0.0011806291295215487, 0.00048772746231406927, 0.0012237237533554435, 0.00059112493181601167, 0.0014389370335265994, 0.00044973113108426332, 0.00043568594264797866, 0.00080538954352959991, 0.0007392668048851192, } };
const TfArray<96, int> quant19_zero = { 96, { 0,0,0,0,0,0,0,0,0,0,0,0,0,0,0,0,0,0,0,0,0,0,0,0,0,0,0,0,0,0,0,0,0,0,0,0,0,0,0,0,0,0,0,0,0,0,0,0,0,0,0,0,0,0,0,0,0,0,0,0,0,0,0,0,0,0,0,0,0,0,0,0,0,0,0,0,0,0,0,0,0,0,0,0,0,0,0,0,0,0,0,0,0,0,0,0 } };
const TfLiteAffineQuantization quant19 = { (TfLiteFloatArray*)&quant19_scale, (TfLiteIntArray*)&quant19_zero, 0 };
const ALIGN(16) int32_t tensor_data20[16] = { -43820, 4679, 3672, -7365, -273, -8165, -10723, -40930, -1226, 25305, 29713, -6187, -2271, -23030, 42026, -46950, };
const TfArray<1, int> tensor_dimension20 = { 1, { 16 } };
const TfArray<16, float> quant20_scale = { 16, { 0.00053980009397491813, 0.0008659401792101562, 0.00099425006192177534, 0.0011046953732147813, 0.00059714150847867131, 0.0010449613910168409, 0.001270527602173388, 0.00058053852990269661, 0.00064248713897541165, 0.00069796503521502018, 0.00082134606782346964, 0.0005451632896438241, 0.0011266277870163321, 0.0013718962436541915, 0.00047091668238863349, 0.00060220324667170644, } };
const TfArray<16, int> quant20_zero = { 16, { 0,0,0,0,0,0,0,0,0,0,0,0,0,0,0,0 } };
const TfLiteAffineQuantization quant20 = { (TfLiteFloatArray*)&quant20_scale, (TfLiteIntArray*)&quant20_zero, 0 };
const ALIGN(16) int8_t tensor_data21[16*1*1*48] = { 
  /* [0][0][][] */ -23,-1,-27,9,34,3,-7,116,-46,24,51,-3,13,-14,-17,16,9,-18,-17,-13,63,-14,16,127,-20,97,5,-8,23,-17,21,-31,-12,46,18,-55,16,40,26,-15,-114,-19,13,39,35,26,-121,-50, 
  /* [1][0][][] */ -34,-7,19,17,-26,10,-6,49,-49,-34,5,-42,-19,-21,2,-3,-27,119,-8,18,9,6,-26,-19,27,-39,25,22,-23,-80,-35,19,-17,-7,35,-7,-7,-34,-1,14,-21,-30,127,13,5,-5,22,-11, 
  /* [2][0][][] */ -16,-12,-12,-37,-1,-69,4,-23,-1,8,10,25,18,14,-14,9,-3,-19,-27,-15,-8,-2,-1,-127,-15,72,-16,2,-2,-18,-2,-4,-14,58,8,2,25,13,23,8,-34,1,-26,-3,4,-4,15,10, 
  /* [3][0][][] */ -6,27,0,-31,-6,-3,6,-1,-26,-4,-6,37,-127,6,-10,-3,1,6,-21,0,-34,8,6,20,-8,-15,3,25,-9,12,3,22,3,6,13,21,-10,25,45,8,16,5,21,-29,12,-6,1,18, 
  /* [4][0][][] */ 35,-35,14,6,16,31,28,-21,-38,7,-15,-20,2,13,-3,14,29,-11,-90,2,-10,7,13,74,-3,-28,1,52,6,-79,13,11,13,-34,32,-127,18,31,0,20,-19,22,2,-30,-11,-13,12,3, 
  /* [5][0][][] */ 26,2,-13,53,-3,-2,7,24,1,-2,38,11,0,47,1,0,-26,16,25,0,7,2,-3,-28,-1,-45,9,-16,-7,-3,5,6,62,-127,6,26,-13,-14,15,7,-89,58,14,-7,-9,-2,-92,-11, 
  /* [6][0][][] */ 24,-1,7,4,-10,-2,-1,-18,0,8,-2,4,-17,6,5,3,-4,-13,127,7,5,7,13,-40,4,6,30,-10,-9,1,0,6,5,-18,33,-42,-2,-41,69,8,-5,-3,-8,6,-16,0,6,-9, 
  /* [7][0][][] */ -40,-17,-9,35,-14,76,-1,47,-4,29,-14,127,78,-4,-10,2,-6,-21,-11,-20,-34,-1,-14,71,3,-44,-51,-33,-15,-19,-16,-13,3,5,-26,7,13,-61,94,4,28,25,-58,-55,26,-13,-3,3, 
  /* [8][0][][] */ -54,-47,-2,9,0,11,3,33,5,-72,10,52,47,4,6,17,-7,59,-26,7,-48,21,-10,-19,6,-7,7,40,-11,127,-17,29,0,3,-10,-126,-110,62,33,35,15,2,116,-27,5,35,30,22, 
  /* [9][0][][] */ -24,-4,-9,25,13,-35,2,2,50,-39,5,52,-58,7,3,6,-2,13,-39,-16,47,6,-19,-12,3,3,42,-26,8,4,5,0,-8,25,74,-93,-6,-127,-92,14,-22,22,51,12,10,6,-17,-41, 
  /* [10][0][][] */ -23,-1,-28,-127,48,95,3,-11,4,38,20,14,47,-55,-34,21,36,-45,54,-37,34,-29,34,50,-44,-112,8,-31,44,43,42,-37,-28,-86,29,-9,18,-45,8,-38,-39,-59,-13,9,10,10,21,-41, 
  /* [11][0][][] */ 0,37,-9,76,40,-71,-77,-27,5,81,-21,3,2,58,-12,-72,25,61,6,-11,-70,-114,12,3,9,-56,31,-21,64,-53,28,-104,50,-15,-51,-94,97,15,-3,-127,5,82,99,-72,-11,-79,36,27, 
  /* [12][0][][] */ 120,2,-13,10,-3,17,5,102,17,-10,-57,-23,-4,12,-13,-8,-7,3,-11,-7,-1,0,2,21,-7,17,-5,4,-7,14,-10,1,0,-61,-5,9,-18,-19,-24,-3,-15,-77,6,-127,-57,-2,73,-2, 
  /* [13][0][][] */ 10,4,0,6,8,-8,-1,-1,2,8,6,22,-7,6,5,-1,4,-2,9,5,12,-12,6,-5,2,1,14,127,9,0,5,-2,4,-4,-33,18,10,-5,7,-15,-14,0,0,4,0,-1,-7,-11, 
  /* [14][0][][] */ 66,-20,50,-69,58,24,31,-105,-49,-61,-9,117,-69,-9,73,15,43,30,-50,70,19,11,76,-19,22,62,-25,-117,27,-42,65,35,-7,64,-127,-51,-41,54,86,3,-43,6,59,7,-10,-2,8,-23, 
  /* [15][0][][] */ -10,-42,-62,-28,57,37,76,-53,1,22,-8,-35,85,24,-99,55,62,55,88,-74,-97,-20,68,-26,-89,45,30,57,56,56,48,-49,30,53,91,127,-18,-108,-9,-42,83,63,123,-51,-7,-34,-9,72, 
};
const TfArray<4, int> tensor_dimension21 = { 4, { 16,1,1,48 } };
const TfArray<16, float> quant21_scale = { 16, { 0.022941503673791885, 0.03680245578289032, 0.042255628854036331, 0.04694955050945282, 0.0253785140812397, 0.044410858303308487, 0.053997423499822617, 0.024672888219356537, 0.027305701747536659, 0.029663514345884323, 0.034907206892967224, 0.023169439285993576, 0.047881681472063065, 0.058305587619543076, 0.020013958215713501, 0.025593636557459831, } };
const TfArray<16, int> quant21_zero = { 16, { 0,0,0,0,0,0,0,0,0,0,0,0,0,0,0,0 } };
const TfLiteAffineQuantization quant21 = { (TfLiteFloatArray*)&quant21_scale, (TfLiteIntArray*)&quant21_zero, 0 };
const ALIGN(16) int32_t tensor_data22[48] = { 3469, 33021, -1162, 50974, 4999, 125941, -2018, 52006, 7623, 30307, 29427, 3539, -2375, 32467, -850, -1492, -197, 1387, 3498, -2077, 563, -3332, 200, -22152, -5292, 40462, 134503, 101943, 3604, 1367, -3764, -539, 27013, -940, 25667, 6032, 35291, 3120, 58968, 2230, -666, 62160, 1297, 5295, 46827, 23, 4529, 50388, };
const TfArray<1, int> tensor_dimension22 = { 1, { 48 } };
const TfArray<48, float> quant22_scale = { 48, { 7.6142096077091992e-05, 3.9252197893802077e-05, 0.0001603695418452844, 4.5982644223840907e-05, 0.00014141923747956753, 6.7142405896447599e-05, 0.00015004516171757132, 0.00010994584590662271, 5.6986533309100196e-05, 4.078049460076727e-05, 5.773819430032745e-05, 8.9926128566730767e-05, 4.7839872422628105e-05, 3.9170692616607994e-05, 0.0001713777455734089, 0.0001935995533131063, 0.00019786570919677615, 6.9032146711833775e-05, 0.00010473893053131178, 0.00015388851170428097, 8.6125772213563323e-05, 0.00015135813737288117, 0.00010556217603152618, 0.00015404168516397476, 0.00010937059414573014, 0.00011292576527921483, 3.5746277717407793e-05, 6.9613182859029621e-05, 0.00012667225382756442, 0.00014786100655328482, 0.00011182589514646679, 0.00014558112889062613, 5.0006485253106803e-05, 0.0001889365230454132, 3.1897950975690037e-05, 4.6995824959594756e-05, 0.00016393404803238809, 9.2077665613032877e-05, 9.4488037575501949e-05, 0.00012107394286431372, 0.00012988784874323756, 9.4448943855240941e-05, 7.5304873462300748e-05, 7.5499840022530407e-05, 2.8632846806431189e-05, 0.00016472255811095238, 8.3643783000297844e-05, 3.1649109587306157e-05, } };
const TfArray<48, int> quant22_zero = { 48, { 0,0,0,0,0,0,0,0,0,0,0,0,0,0,0,0,0,0,0,0,0,0,0,0,0,0,0,0,0,0,0,0,0,0,0,0,0,0,0,0,0,0,0,0,0,0,0,0 } };
const TfLiteAffineQuantization quant22 = { (TfLiteFloatArray*)&quant22_scale, (TfLiteIntArray*)&quant22_zero, 0 };
const ALIGN(16) int8_t tensor_data23[1*3*3*48] = { 
  /* [0][0][][] */ 69,-94,97,70,52,-33,107,-64,61,-90,-80,47,54,-43,-72,-91,103,78,49,77,65,-73,-83,52,-32,-40,-64,-65,-67,61,-61,-114,-12,40,69,64,-65,53,-49,-22,51,-73,57,62,-94,10,77,-34, 81,-97,127,85,-78,-67,-59,-83,96,-103,-62,74,80,-107,-95,90,-39,96,84,127,85,-113,51,71,-51,-78,-68,-81,54,79,-29,-127,-84,79,81,83,-82,83,-82,-16,76,-95,83,89,-74,-127,94,-102, 35,-48,69,37,17,-41,-49,-40,41,-31,4,35,30,-79,-56,-2,-55,37,35,68,32,-54,31,25,-29,-47,-44,-23,30,31,88,-89,-82,45,35,34,-29,38,-37,-11,40,-40,34,44,-6,-9,37,-72, 
