/* Generated by Edge Impulse
 *
 * Permission is hereby granted, free of charge, to any person obtaining a copy
 * of this software and associated documentation files (the "Software"), to deal
 * in the Software without restriction, including without limitation the rights
 * to use, copy, modify, merge, publish, distribute, sublicense, and/or sell
 * copies of the Software, and to permit persons to whom the Software is
 * furnished to do so, subject to the following conditions:
 *
 * The above copyright notice and this permission notice shall be included in
 * all copies or substantial portions of the Software.
 *
 * THE SOFTWARE IS PROVIDED "AS IS", WITHOUT WARRANTY OF ANY KIND, EXPRESS OR
 * IMPLIED, INCLUDING BUT NOT LIMITED TO THE WARRANTIES OF MERCHANTABILITY,
 * FITNESS FOR A PARTICULAR PURPOSE AND NONINFRINGEMENT. IN NO EVENT SHALL THE
 * AUTHORS OR COPYRIGHT HOLDERS BE LIABLE FOR ANY CLAIM, DAMAGES OR OTHER
 * LIABILITY, WHETHER IN AN ACTION OF CONTRACT, TORT OR OTHERWISE, ARISING FROM,
 * OUT OF OR IN CONNECTION WITH THE SOFTWARE OR THE USE OR OTHER DEALINGS IN THE
 * SOFTWARE.
 */
// Generated on: 23.11.2023 23:02:11

#include <stdio.h>
#include <stdlib.h>
#include "edge-impulse-sdk/tensorflow/lite/c/builtin_op_data.h"
#include "edge-impulse-sdk/tensorflow/lite/c/common.h"
#include "edge-impulse-sdk/tensorflow/lite/micro/micro_mutable_op_resolver.h"
#include "edge-impulse-sdk/porting/ei_classifier_porting.h"

#if EI_CLASSIFIER_PRINT_STATE
#if defined(__cplusplus) && EI_C_LINKAGE == 1
extern "C" {
    extern void ei_printf(const char *format, ...);
}
#else
extern void ei_printf(const char *format, ...);
#endif
#endif

#if defined __GNUC__
#define ALIGN(X) __attribute__((aligned(X)))
#elif defined _MSC_VER
#define ALIGN(X) __declspec(align(X))
#elif defined __TASKING__
#define ALIGN(X) __align(X)
#elif defined __ICCARM__
#define ALIGN(x) __attribute__((aligned(x)))
#endif

#ifndef EI_MAX_SCRATCH_BUFFER_COUNT
#ifndef CONFIG_IDF_TARGET_ESP32S3
#define EI_MAX_SCRATCH_BUFFER_COUNT 14
#else
#define EI_MAX_SCRATCH_BUFFER_COUNT 28
#endif // CONFIG_IDF_TARGET_ESP32S3
#endif // EI_MAX_SCRATCH_BUFFER_COUNT

#ifndef EI_MAX_OVERFLOW_BUFFER_COUNT
#define EI_MAX_OVERFLOW_BUFFER_COUNT 10
#endif // EI_MAX_OVERFLOW_BUFFER_COUNT

using namespace tflite;
using namespace tflite::ops;
using namespace tflite::ops::micro;

namespace {

#if defined(EI_CLASSIFIER_ALLOCATION_STATIC_HIMAX) || defined(EI_CLASSIFIER_ALLOCATION_STATIC_HIMAX_GNU)
constexpr int kTensorArenaSize = 1410816;
#else
constexpr int kTensorArenaSize = 1409792;
#endif

#if defined(EI_CLASSIFIER_ALLOCATION_STATIC)
uint8_t tensor_arena[kTensorArenaSize] ALIGN(16);
#elif defined(EI_CLASSIFIER_ALLOCATION_STATIC_HIMAX)
#pragma Bss(".tensor_arena")
uint8_t tensor_arena[kTensorArenaSize] ALIGN(16);
#pragma Bss()
#elif defined(EI_CLASSIFIER_ALLOCATION_STATIC_HIMAX_GNU)
uint8_t tensor_arena[kTensorArenaSize] ALIGN(16) __attribute__((section(".tensor_arena")));
#else
#define EI_CLASSIFIER_ALLOCATION_HEAP 1
uint8_t* tensor_arena = NULL;
#endif

static uint8_t* tensor_boundary;
static uint8_t* current_location;

template <int SZ, class T> struct TfArray {
  int sz; T elem[SZ];
};
enum used_operators_e {
  OP_CONV_2D, OP_DEPTHWISE_CONV_2D, OP_PAD, OP_ADD, OP_SOFTMAX,  OP_LAST
};
struct TensorInfo_t { // subset of TfLiteTensor used for initialization from constant memory
  TfLiteAllocationType allocation_type;
  TfLiteType type;
  void* data;
  TfLiteIntArray* dims;
  size_t bytes;
  TfLiteQuantization quantization;
};
struct NodeInfo_t { // subset of TfLiteNode used for initialization from constant memory
  struct TfLiteIntArray* inputs;
  struct TfLiteIntArray* outputs;
  void* builtin_data;
  used_operators_e used_op_index;
};

typedef struct {
  TfLiteTensor tensor;
  int16_t index;
} TfLiteTensorWithIndex;

typedef struct {
  TfLiteEvalTensor tensor;
  int16_t index;
} TfLiteEvalTensorWithIndex;

TfLiteContext ctx{};
static const int MAX_TFL_TENSOR_COUNT = 4;
static TfLiteTensorWithIndex tflTensors[MAX_TFL_TENSOR_COUNT];
static const int MAX_TFL_EVAL_COUNT = 4;
static TfLiteEvalTensorWithIndex tflEvalTensors[MAX_TFL_EVAL_COUNT];
TfLiteRegistration registrations[OP_LAST];
TfLiteNode tflNodes[27];

const TfArray<4, int> tensor_dimension0 = { 4, { 1,240,240,1 } };
const TfArray<1, float> quant0_scale = { 1, { 0.0032602844294160604, } };
const TfArray<1, int> quant0_zero = { 1, { -128 } };
const TfLiteAffineQuantization quant0 = { (TfLiteFloatArray*)&quant0_scale, (TfLiteIntArray*)&quant0_zero, 0 };
const ALIGN(16) int32_t tensor_data1[4*2] = { 
  0, 0, 
  0, 1, 
  0, 1, 
  0, 0, 
};
const TfArray<2, int> tensor_dimension1 = { 2, { 4,2 } };
const ALIGN(16) int32_t tensor_data2[18] = { 11419, -21789, -17224, -19279, -21458, -17098, -19411, -22885, -19825, -15117, -17578, -23146, -21433, -24425, -13873, -26499, -13236, -20325, };
const TfArray<1, int> tensor_dimension2 = { 1, { 18 } };
const TfArray<18, float> quant2_scale = { 18, { 0.00061705615371465683, 0.00044519317452795804, 0.00055129255633801222, 0.00049837335245683789, 0.00044868580880574882, 0.0005588834173977375, 0.00049499882152304053, 0.00042098175617866218, 0.00047102465759962797, 0.0006283164257183671, 0.00055037124548107386, 0.00041409762343391776, 0.00045021611731499434, 0.00039904937148094177, 0.00069388968404382467, 0.00036067134351469576, 0.00072180561255663633, 0.00047405494842678308, } };
const TfArray<18, int> quant2_zero = { 18, { 0,0,0,0,0,0,0,0,0,0,0,0,0,0,0,0,0,0 } };
const TfLiteAffineQuantization quant2 = { (TfLiteFloatArray*)&quant2_scale, (TfLiteIntArray*)&quant2_zero, 0 };
const ALIGN(16) int8_t tensor_data3[18*1*1*32] = { 
  /* [0][0][][] */ 15,-26,-24,64,-43,-13,-15,2,-55,-22,-27,-52,-6,3,3,-50,11,-5,52,-15,1,-46,-41,-4,23,22,16,9,-33,-27,127,-27, 
  /* [1][0][][] */ 40,-5,-29,-24,24,5,-48,32,54,-9,-54,7,15,-124,-32,45,11,-59,-127,-32,51,54,60,14,7,-51,-35,50,-112,0,28,29, 
  /* [2][0][][] */ -7,-7,-36,-27,36,43,-38,52,-50,1,-9,-69,0,1,39,11,-3,28,-127,43,-50,26,33,16,-19,-38,-36,-3,-54,-16,-73,52, 
  /* [3][0][][] */ 32,19,-46,37,32,-27,40,-39,-18,-1,45,37,25,25,24,26,0,-15,-58,32,-44,12,-57,46,-127,-6,-21,12,-122,-19,-39,36, 
  /* [4][0][][] */ -18,-3,55,-127,-21,-15,51,67,43,21,41,-62,13,-58,-31,29,10,65,-22,55,-50,-39,16,-9,-75,19,-88,-78,52,33,-50,-46, 
  /* [5][0][][] */ 29,44,-44,-76,-18,-15,-24,3,47,30,-36,-69,-45,13,7,46,-33,37,-53,13,35,-8,50,27,-127,5,-55,-27,-106,35,-21,37, 
  /* [6][0][][] */ 50,-8,40,-12,-60,2,-1,31,-4,45,-52,-23,-10,3,-40,45,-37,1,40,52,36,26,53,-52,-127,-52,39,10,8,52,-106,24, 
  /* [7][0][][] */ -41,77,23,-85,-30,-11,-68,-3,39,-30,74,35,35,-33,22,40,2,22,-127,-56,42,-8,-41,-43,-95,13,-66,55,-17,-65,-13,37, 
  /* [8][0][][] */ -30,46,43,5,-25,16,-40,-44,55,8,-69,-30,-18,-73,63,4,-9,16,-86,13,29,26,9,-16,-17,56,-24,-5,-127,18,-113,-10, 
  /* [9][0][][] */ -32,18,19,-10,13,39,-39,-40,47,-11,29,41,-41,-39,-9,-18,-9,28,-3,12,25,26,12,-31,-36,7,34,-1,0,-30,-127,-10, 
  /* [10][0][][] */ 17,-13,-16,3,1,11,3,41,10,-6,7,-13,18,-84,9,-9,10,0,-78,17,26,-28,-5,44,-96,59,30,45,16,39,-127,-18, 
  /* [11][0][][] */ 51,28,64,35,-105,-45,61,11,-6,28,-33,-7,-75,8,30,38,35,-38,-106,-34,-13,62,12,-1,-91,-33,47,65,-127,-18,-90,40, 
  /* [12][0][][] */ -34,27,-56,34,63,-21,-3,-15,-50,11,-30,19,-127,-69,59,0,14,46,4,57,6,53,26,38,-28,72,-14,-78,-56,-10,-88,-31, 
  /* [13][0][][] */ 2,-4,64,57,-94,-16,-46,-36,74,25,25,-15,0,-39,40,73,6,53,-44,2,-20,55,-31,14,-47,-27,-12,-23,-97,-10,-127,6, 
  /* [14][0][][] */ 34,46,-21,-38,-27,8,32,12,-29,24,44,15,-44,-12,-15,-8,43,17,-95,32,-2,8,-19,-15,-115,44,-24,-35,-43,25,-127,11, 
  /* [15][0][][] */ 16,-25,63,-107,-16,49,46,57,-53,-6,-62,58,-31,-71,75,21,-32,-37,-127,-23,37,26,60,-83,-99,66,-64,-46,72,84,-57,-7, 
  /* [16][0][][] */ 44,-18,-11,27,-7,31,5,-5,5,-31,-37,-11,9,-11,7,-1,-24,-2,-13,-23,-21,43,-3,34,-55,-6,-15,7,33,-11,-127,22, 
  /* [17][0][][] */ -18,6,-13,-56,-62,-38,-1,24,1,35,43,-19,-24,51,63,-45,-21,57,-49,-26,64,-33,39,54,-74,-36,33,-91,-54,-41,-127,-28, 
};
const TfArray<4, int> tensor_dimension3 = { 4, { 18,1,1,32 } };
const TfArray<18, float> quant3_scale = { 18, { 0.0077774431556463242, 0.0056112632155418396, 0.0069485516287386417, 0.0062815523706376553, 0.005655284970998764, 0.0070442277938127518, 0.0062390188686549664, 0.0053061000071465969, 0.005936846137046814, 0.0079193683341145515, 0.0069369394332170486, 0.0052193314768373966, 0.0056745731271803379, 0.0050296615809202194, 0.0087458612397313118, 0.0045459410175681114, 0.0090977167710661888, 0.005975040141493082, } };
const TfArray<18, int> quant3_zero = { 18, { 0,0,0,0,0,0,0,0,0,0,0,0,0,0,0,0,0,0 } };
const TfLiteAffineQuantization quant3 = { (TfLiteFloatArray*)&quant3_scale, (TfLiteIntArray*)&quant3_zero, 0 };
const ALIGN(16) int32_t tensor_data4[32] = { 43, -311, -234, 1905, 16, 435, 201, 476, -1059, -340, 94, -334, 563, 1424, 164, -941, 47, 126, 3059, -218, 299, -517, -74, -291, 1977, 800, 416, 285, 402, -137, 3449, -559, };
const TfArray<1, int> tensor_dimension4 = { 1, { 32 } };
const TfArray<32, float> quant4_scale = { 32, { 7.4610630690585822e-05, 6.0730744735337794e-05, 6.9695975980721414e-05, 6.7903158196713775e-05, 8.0834281106945127e-05, 6.0668138758046553e-05, 5.0281065341550857e-05, 5.9431862609926611e-05, 5.5492884712293744e-05, 4.6675937483087182e-05, 5.3953866881784052e-05, 6.939297600183636e-05, 5.8273813920095563e-05, 6.1545884818769991e-05, 6.1779122916050255e-05, 5.3622414270648733e-05, 5.2125746151432395e-05, 6.5037820604629815e-05, 9.4574606919195503e-05, 4.7151708713499829e-05, 5.6452539865858853e-05, 5.7416855270275846e-05, 7.897386240074411e-05, 6.0809536080341786e-05, 0.00012676442565862089, 5.364108073990792e-05, 6.2338716816157103e-05, 6.0562520957319066e-05, 7.5278978329151869e-05, 5.406220952863805e-05, 0.00011126157914986834, 5.0082169764209539e-05, } };
const TfArray<32, int> quant4_zero = { 32, { 0,0,0,0,0,0,0,0,0,0,0,0,0,0,0,0,0,0,0,0,0,0,0,0,0,0,0,0,0,0,0,0 } };
const TfLiteAffineQuantization quant4 = { (TfLiteFloatArray*)&quant4_scale, (TfLiteIntArray*)&quant4_zero, 0 };
const ALIGN(16) int8_t tensor_data5[32*1*1*96] = { 
  /* [0][0][][] */ -6,-13,79,5,64,-1,-55,-77,5,-79,-73,-10,42,18,-41,43,-53,-30,-42,-41,-81,-71,18,69,-66,-16,54,-11,63,9,7,-53,37,-20,-70,36,-58,-64,-51,15,36,-40,-51,72,29,-63,84,2,-12,-127,-13,56,-36,-37,-70,71,11,36,106,-52,-56,58,-45,30,9,30,25,61,41,55,51,-98,75,-77,39,38,-57,-9,-30,29,38,6,71,16,-16,-55,-49,48,30,98,6,-55,-11,40,-13,2, 
  /* [1][0][][] */ -92,23,-48,7,-8,68,35,-1,64,-62,-92,82,42,-31,-35,24,78,-21,2,104,-64,-15,40,36,57,18,-37,92,18,-12,77,-40,58,58,-9,28,69,43,-33,-43,-37,26,-7,-82,-30,19,-19,-33,3,-127,101,61,20,51,-73,-46,22,73,72,48,-35,77,-36,-44,-26,19,45,6,55,26,4,5,-85,84,-51,15,69,8,-57,63,-47,60,-35,-65,7,114,-56,-42,73,90,51,16,28,22,26,-1, 
  /* [2][0][][] */ 5,19,-33,66,-17,-55,53,71,-61,57,-28,93,65,-23,59,-63,-37,-10,1,41,-117,12,71,23,-40,44,77,12,-48,58,30,49,-40,-30,-53,-68,-42,67,84,1,-93,-64,16,12,-78,70,-25,-45,76,-20,49,-40,-25,32,15,19,-56,73,-46,-1,-2,54,-48,43,50,15,36,53,-67,54,0,-57,35,-64,32,3,-34,9,17,22,32,-71,-24,-53,3,-127,-9,-6,43,62,-13,16,-39,-56,-71,-44, 
  /* [3][0][][] */ 81,21,31,-15,-33,26,-63,6,52,21,74,-4,76,101,51,28,65,80,-2,21,127,-39,-1,-72,-18,-58,-5,81,66,-31,85,-8,-33,-4,14,-12,-58,3,43,34,-18,-52,-71,7,33,79,-9,-9,52,-15,36,-25,96,55,124,-49,-71,-59,-45,-43,-59,29,-25,73,63,-7,-24,4,-5,-66,33,86,36,-81,62,19,29,51,104,-31,-47,-73,90,85,31,59,2,-58,-17,59,34,-74,112,-66,-78,65, 
  /* [4][0][][] */ 56,64,3,24,-14,-5,13,35,93,42,22,33,25,0,12,-31,23,0,15,9,114,-24,52,14,31,-8,42,-17,5,26,-44,14,44,67,1,-26,-5,-2,-42,46,-48,-60,-36,-48,19,49,24,59,-6,-30,15,12,-71,2,-71,17,53,-44,1,34,51,-64,-38,-67,-18,35,16,-3,39,-53,-29,-93,-28,11,65,-12,62,3,13,-9,14,-52,-100,-94,23,58,47,11,-69,-27,36,24,26,93,-127,-17, 
  /* [5][0][][] */ 113,-47,74,70,49,-68,32,63,58,-45,21,-26,40,74,57,48,67,69,-23,69,1,41,-17,4,-84,-18,9,-55,47,38,27,-46,-21,31,-44,35,-84,-13,52,45,-46,-45,38,90,-51,25,45,-23,-47,117,39,34,41,9,2,-9,97,54,-61,-1,53,-34,-20,-48,-2,90,5,42,73,6,63,-33,-13,80,3,-67,17,-62,-14,67,93,35,36,62,-32,-17,-54,46,58,-90,83,88,-2,36,127,-68, 
  /* [6][0][][] */ 35,-31,125,88,-66,-10,-10,57,-43,-96,-48,-60,94,79,116,-86,21,-33,-29,104,-127,-60,119,65,-53,-86,-6,-11,-12,-102,59,-74,-73,-70,-29,-86,22,41,-91,63,96,115,31,5,-115,104,-45,-21,-112,-55,-24,-53,68,-86,58,8,-6,5,-25,85,-112,54,86,-36,-36,95,92,-31,97,17,-94,-14,86,-69,-58,-31,-91,-77,-33,3,47,-45,43,5,-42,-85,-39,-82,90,118,115,30,-55,-64,19,-27, 
  /* [7][0][][] */ 108,31,-7,-6,-48,85,-17,6,41,9,-97,25,58,-50,40,50,34,-13,-11,99,4,41,-12,77,-62,86,5,40,-65,54,-17,26,38,39,65,89,-77,85,-21,-34,71,-56,75,59,52,-19,108,-97,1,-12,-81,-73,-14,38,-22,47,91,-65,-6,-49,-19,18,44,-84,-56,-44,52,26,-75,43,58,79,80,26,49,42,-78,24,-83,40,81,-11,2,-127,72,-1,-84,75,69,4,82,68,-35,-11,30,-42, 
  /* [8][0][][] */ 3,43,-47,-74,50,20,-45,-6,-17,45,54,102,9,-42,-89,-44,-30,106,-66,17,-21,-19,104,93,-102,80,52,69,-48,21,-93,113,65,-29,36,-10,108,-5,-21,102,62,60,-93,-79,1,-47,-21,103,70,-118,-46,29,-63,-23,-54,-76,32,113,-68,116,127,32,28,80,-15,-46,-20,84,-56,44,21,-20,68,45,24,-30,-17,107,64,57,24,67,-110,-78,42,-11,92,-20,5,-54,-85,77,-88,-103,-66,39, 
  /* [9][0][][] */ -40,-35,120,64,73,-125,-62,-86,40,61,-66,80,-11,-71,-127,-43,-20,-19,-106,-38,-39,97,-43,-81,111,-5,-3,38,-18,-49,-94,31,76,-17,47,-34,-34,37,6,-86,25,-70,65,-73,65,-30,-70,54,72,-93,-79,-64,87,-85,-94,117,35,-53,49,-38,-86,109,77,-55,-72,-10,83,18,-77,124,117,-63,26,86,-100,-124,-74,-77,-4,114,44,-10,125,-31,-42,-94,79,47,121,87,-23,115,76,-12,18,-30, 
  /* [10][0][][] */ -73,52,85,-31,10,103,112,58,-9,52,19,-6,91,54,-31,-12,-16,86,-79,-17,-63,40,62,-37,26,72,-122,-95,-21,43,-57,-48,92,91,127,64,-6,44,-20,44,-13,126,-86,-48,-116,-61,20,-74,35,5,47,-22,83,26,-80,-14,-81,8,58,-56,-28,73,116,67,105,-64,-73,-36,20,-2,-98,-24,92,103,-80,84,-53,88,11,8,76,-12,70,104,-106,60,99,-19,58,28,-17,-36,-41,-82,-12,-51, 
  /* [11][0][][] */ 33,23,6,68,88,57,39,26,38,53,-52,75,-4,-83,-28,-37,-39,-57,48,28,-48,11,24,-65,-26,-62,-18,60,58,-8,43,3,-56,-37,24,29,-26,39,-11,-30,4,93,-49,1,-48,-77,-45,-50,65,6,90,32,-38,-50,-27,3,-42,-31,16,-45,-52,61,75,19,36,83,-37,10,74,29,-127,-48,29,91,-68,20,-57,30,-32,48,-61,-16,-26,31,21,-17,6,-38,-32,51,-10,-62,-76,-37,-31,-34, 
  /* [12][0][][] */ 50,57,-31,10,69,32,-18,-10,-90,58,-30,5,-36,30,29,-64,-77,-24,-49,-53,24,-9,37,65,-33,-20,65,-72,80,16,-8,99,-47,-24,-12,14,0,-57,-33,30,127,55,-91,-35,29,-57,-21,83,-6,-71,-49,73,29,25,-57,83,15,-42,53,39,19,104,41,53,86,40,-50,87,66,78,37,75,69,67,-20,38,-33,39,-70,-90,-44,101,23,82,-27,98,91,63,-68,-108,86,32,66,-4,63,77, 
  /* [13][0][][] */ 89,6,68,70,57,94,68,61,40,-101,48,-45,62,75,62,-18,-99,-52,-28,19,101,-33,120,-47,-66,23,8,23,-65,-24,70,7,24,88,0,9,-74,-23,88,16,-20,91,-32,17,-1,72,-8,-19,22,106,-40,-127,-51,84,88,-53,-33,15,26,-71,-58,70,-4,23,-35,-14,-64,67,-14,-13,85,35,-66,51,-50,11,-81,2,124,-57,35,-51,91,42,-58,36,105,118,32,14,-31,31,97,-20,49,20, 
  /* [14][0][][] */ -50,-77,69,62,71,1,9,-66,-42,-9,38,85,-6,-56,-79,-71,-19,-26,-25,35,-40,34,3,60,-70,-34,-18,35,-58,-89,-46,37,93,-6,-7,17,84,94,18,-51,5,-62,31,67,45,-85,56,-40,127,69,60,56,82,17,-9,25,-21,31,27,72,-2,-46,2,74,-50,-10,73,-66,-65,-53,-65,78,14,75,42,-77,49,-52,15,34,42,-17,-88,-107,-75,-25,-79,81,77,-25,67,-28,74,75,-19,51, 
  /* [15][0][][] */ 15,-23,-16,57,83,-62,43,-79,44,24,-87,8,89,-1,-90,-93,42,10,-93,24,5,13,82,98,98,66,46,85,16,57,71,-92,14,9,-48,-13,-37,66,99,-37,26,80,-37,-7,25,-86,-15,-74,19,-119,16,16,-86,-103,-60,5,29,41,-8,83,-41,-35,1,85,-16,81,-78,-16,-53,12,53,-60,18,-46,48,-127,10,85,88,67,-66,51,-75,-36,-96,-52,-58,54,76,89,-97,-30,12,86,-76,85, 
  /* [16][0][][] */ -87,-3,89,-58,54,60,-59,9,51,57,-95,59,-19,-36,-59,-69,71,42,66,50,120,75,-61,42,-12,53,-66,48,-71,2,49,0,-78,54,33,65,-20,49,-75,-80,-55,-39,54,56,9,86,90,-14,-127,-111,37,88,-24,98,55,19,34,54,69,-3,86,89,-49,58,59,5,-43,64,25,60,-28,-10,19,78,40,72,-18,80,-112,-11,12,-90,57,28,-7,76,39,-22,88,42,-16,86,45,-36,-47,16, 
  /* [17][0][][] */ 24,-100,25,69,-12,-93,-29,-37,51,-22,74,60,92,46,-79,25,46,80,80,100,-53,16,35,-12,31,75,-34,28,89,-35,-20,49,4,-3,49,16,-5,91,-50,3,-67,-39,1,-32,-3,10,78,-57,119,88,-1,20,0,60,47,-32,-71,80,-35,-77,31,-81,61,83,-42,-74,44,-74,-86,13,93,46,27,-53,-46,14,90,-3,32,-22,21,-26,-32,-127,-78,57,76,-40,28,54,-63,-68,-4,62,17,15, 
  /* [18][0][][] */ -35,45,42,-25,-19,-66,-29,19,56,36,-16,-51,-25,69,67,-8,19,8,90,-8,127,-4,25,-55,24,-20,-4,54,27,31,-2,20,32,-7,-12,-58,-29,58,47,8,-16,7,-13,-7,-72,48,-15,-8,-4,47,4,3,-26,34,116,32,-3,15,2,-85,35,54,27,31,-49,-46,13,61,44,-41,14,100,-46,-7,-40,71,32,7,52,-41,-21,-2,5,40,39,29,87,8,-17,-32,5,53,105,-28,25,70, 
  /* [19][0][][] */ 34,6,79,45,67,-102,68,68,123,-8,-24,-7,-81,49,-72,37,56,-108,117,65,13,81,-56,23,97,-39,23,-58,-69,-125,-36,37,96,-66,43,16,24,-51,-70,-120,37,-125,-68,-5,-107,19,95,-91,-18,25,-17,24,-31,26,-32,-7,39,63,14,-55,52,-39,64,57,-54,-10,-38,-14,-28,58,95,-33,-52,-123,-70,-105,-19,-75,-5,105,58,-127,11,46,-83,4,16,-48,106,58,3,61,-38,111,83,-44, 
  /* [20][0][][] */ -19,58,53,95,-74,82,43,78,-5,-26,-27,36,12,69,19,-43,-13,0,-99,-7,-27,-29,-20,-43,50,-73,-76,49,11,5,-63,117,79,27,-3,38,48,-5,28,-56,-65,-28,-50,-55,-1,-64,-55,99,75,-108,-95,54,45,77,18,24,79,85,88,101,108,-43,-39,-25,-23,-52,-26,31,-58,-24,-47,56,-27,-39,44,35,96,70,112,96,81,17,51,-13,76,96,29,127,-3,59,23,68,14,5,-31,23, 
  /* [21][0][][] */ 83,83,71,-81,88,-56,55,26,32,-25,-55,44,21,35,-53,-51,-88,-22,0,-8,89,-27,59,-42,74,-60,4,72,21,27,12,-24,14,27,-70,-73,101,56,-87,0,-17,-16,32,13,-122,-72,-34,90,-11,-65,17,85,27,16,-111,24,-43,49,-15,117,70,-56,-33,-18,80,42,-28,-48,-72,-9,53,36,37,-6,74,-19,-61,-4,65,97,21,52,46,-111,39,-127,19,-56,-57,97,77,-70,-42,-36,37,-26, 
  /* [22][0][][] */ 30,-20,-31,-39,40,-34,55,57,-36,42,-25,-42,78,-57,-55,-36,25,35,-70,-22,56,-34,38,29,63,-5,-59,61,-44,-36,-49,-59,34,33,20,10,6,8,-2,-50,-3,-30,15,70,45,-82,66,-6,-47,-1,-4,1,-41,-75,-69,35,-17,-8,-12,7,78,-46,-59,-85,-39,11,-51,-18,59,82,1,8,-30,24,48,-78,36,-23,72,64,69,-45,-30,-127,60,41,63,29,-27,26,-30,47,15,23,-11,60, 
  /* [23][0][][] */ 50,-57,-2,43,69,-72,9,-83,48,-60,48,54,18,-58,-24,-41,73,-20,-102,81,61,-49,96,-21,-11,-1,51,30,72,16,50,-23,-10,45,29,27,85,-2,-107,3,-63,11,-3,-100,-46,-78,98,45,83,-38,-78,-31,45,-40,-75,81,-36,-14,76,39,-94,-86,-23,2,32,29,-89,-78,54,-13,92,-50,-3,-19,-37,-115,49,-5,65,85,-42,-68,14,-127,74,25,99,-55,-72,1,78,-19,76,-38,-53,56, 
  /* [24][0][][] */ -24,12,-34,-16,-22,-25,-6,-36,42,49,51,4,39,31,13,-31,-18,17,66,-19,91,-28,-24,-20,23,6,32,19,46,37,21,1,-3,11,23,33,-28,-12,24,-4,-13,-25,47,23,36,-2,5,32,-39,60,23,37,35,38,127,-33,7,34,0,12,62,21,35,47,-26,44,5,-7,-15,13,-11,20,-18,26,47,111,39,-36,-25,-26,-18,9,-3,12,5,29,1,-24,33,-20,19,-23,36,28,6,55, 
  /* [25][0][][] */ -70,-71,-56,8,92,-72,-71,48,61,-104,-42,40,74,18,-82,-18,-20,73,-1,-69,63,91,-17,-25,24,-41,-72,53,89,-93,18,127,99,-80,39,81,106,-47,-23,8,-123,89,-87,7,79,53,51,54,-52,54,-69,21,41,31,-30,27,19,58,-113,56,117,82,8,53,3,63,12,23,-74,0,-11,-117,55,-121,63,27,75,82,-10,47,56,6,-72,46,-50,15,-107,-67,-25,-51,107,26,-101,-30,-77,-65, 
  /* [26][0][][] */ 11,-83,-22,-5,-70,-29,5,24,-45,-127,117,86,-40,-20,22,4,94,48,31,-50,35,63,78,5,15,46,23,38,17,22,-70,-7,-19,-58,-64,-63,-39,95,20,66,-91,73,41,14,-90,64,-21,96,2,1,-3,79,20,-2,-6,-76,104,52,69,22,-3,-103,45,-2,88,-25,-20,47,-55,58,80,80,70,-55,-47,11,15,-96,-30,10,-14,29,91,-72,70,-22,6,20,-46,82,12,15,-25,110,8,59, 
  /* [27][0][][] */ -5,34,-27,-60,-58,-26,-30,-5,10,51,45,-44,0,54,46,0,61,0,8,-60,-93,22,0,-2,-71,30,-56,24,71,42,-20,25,49,62,-83,-32,-36,-31,-78,75,-44,37,21,29,41,14,77,112,68,5,78,-23,-58,-55,-68,-16,112,4,-50,-27,-40,-28,-12,40,63,-15,-77,94,65,3,-75,-21,69,-54,20,-82,45,-53,71,86,77,-3,78,-127,-21,-89,-14,35,-34,9,-10,-21,11,33,41,34, 
  /* [28][0][][] */ 123,-26,83,40,-97,-62,-109,7,19,-26,27,48,-28,-12,76,83,66,55,15,50,14,56,-63,-27,-127,55,-21,-39,-32,-19,-2,-18,-78,43,82,39,2,-36,33,46,12,-4,-25,40,-76,18,31,31,7,-36,-96,-58,-58,5,7,54,41,7,13,31,-31,-20,-80,-33,24,56,41,63,-8,47,-32,-23,70,13,27,-69,-82,-84,-7,60,-21,-67,73,-40,58,-48,-2,-51,-64,-28,32,-19,-54,62,-117,-85, 
  /* [29][0][][] */ 48,6,62,-25,-75,17,-119,11,68,-12,-107,-58,96,-68,-32,-41,-78,68,-4,-46,-101,-9,39,16,-24,-2,-35,-19,-86,-16,65,12,59,4,-61,-41,-8,80,1,81,35,71,-33,77,26,64,-30,-35,32,-68,23,-89,53,-76,83,63,-64,41,-50,76,-95,127,-90,-48,-64,-54,48,73,72,-47,36,-77,104,31,53,13,87,-34,-41,42,6,-53,-21,-48,59,108,45,87,-31,81,69,78,-87,16,-20,47, 
  /* [30][0][][] */ 21,20,-33,12,-38,21,27,-23,33,-4,55,-41,-51,76,68,21,5,29,127,-42,82,-31,-30,-12,-23,38,-31,41,12,-28,16,20,-37,-14,-31,-3,-22,-3,19,6,52,31,-5,56,82,33,10,16,-45,50,23,-39,57,89,109,40,11,-19,-27,-18,-23,34,33,39,-42,-29,-33,66,-18,26,39,20,-40,19,33,71,-3,-37,-29,-31,12,107,-23,78,-32,48,14,58,29,-37,50,18,13,-11,45,44, 
  /* [31][0][][] */ 90,-54,54,96,77,80,-42,-89,-64,23,-96,-84,94,-115,-58,98,-105,-93,27,56,13,7,-16,113,62,-68,34,42,-53,-46,83,71,24,46,-69,8,94,-25,-55,-105,85,-33,-12,28,8,-68,7,17,67,66,127,-40,-80,-74,-116,22,-103,50,52,97,-81,-6,93,-47,94,120,-64,-90,73,-93,-113,32,-82,20,2,-42,-58,-24,23,68,-58,-10,102,52,47,69,-100,3,52,6,-82,-41,14,96,44,-22, 
};
const TfArray<4, int> tensor_dimension5 = { 4, { 32,1,1,96 } };
const TfArray<32, float> quant5_scale = { 32, { 0.0031709517352283001, 0.0025810566730797291, 0.0029620788991451263, 0.0028858841396868229, 0.0034354568924754858, 0.0025783958844840527, 0.0021369452588260174, 0.0025258541572839022, 0.002358447527512908, 0.00198372732847929, 0.002293039346113801, 0.0029492012690752745, 0.0024766370188444853, 0.0026157000102102757, 0.0026256127748638391, 0.0022789526265114546, 0.002215344225987792, 0.0027641074266284704, 0.0040194205939769745, 0.0020039475057274103, 0.0023992329370230436, 0.0024402162525802851, 0.0033563890028744936, 0.002584405243396759, 0.0053874882869422436, 0.0022797458805143833, 0.0026493952609598637, 0.0025739071425050497, 0.0031993566080927849, 0.0022976438049226999, 0.0047286171466112137, 0.00212849210947752, } };
const TfArray<32, int> quant5_zero = { 32, { 0,0,0,0,0,0,0,0,0,0,0,0,0,0,0,0,0,0,0,0,0,0,0,0,0,0,0,0,0,0,0,0 } };
const TfLiteAffineQuantization quant5 = { (TfLiteFloatArray*)&quant5_scale, (TfLiteIntArray*)&quant5_zero, 0 };
const ALIGN(16) int32_t tensor_data6[96] = { 556, -35, 1597, 3230, 1706, -986, 1343, -676, -1241, -263, 2893, -1373, 1558, 3002, 1317, 1402, -353, -108, -317, 2511, 1881, -395, 840, -476, -549, 1122, 664, 892, 2539, 1222, 2141, 846, 655, 1787, 2236, 1788, -680, 1396, 1525, -1946, 4, 660, 16, 1142, -212, 687, -648, 370, -2997, 1655, 589, -1593, 3448, 8, 1427, 587, 635, 1116, -356, -1304, 150, 985, 325, 2072, 3113, 1430, 1666, 3064, 1978, -616, 1428, 3564, 1261, -542, 2444, 4670, 383, -2149, 186, 303, 3729, 764, -129, -429, 483, 940, 697, -778, 1672, -316, 2145, 584, 171, -1371, 89, 780, };
const TfArray<1, int> tensor_dimension6 = { 1, { 96 } };
const TfArray<96, float> quant6_scale = { 96, { 0.00035353412386029959, 0.00049578171456232667, 0.00035164013388566673, 0.00023297044390346855, 0.00032156251836568117, 0.00038994205533526838, 0.00039149256190285087, 0.00036703911609947681, 0.00031223331461660564, 0.00062471145065501332, 0.0002810084552038461, 0.0003668175486382097, 0.00032982934499159455, 0.00026365008670836687, 0.00037047202931717038, 0.00029223266756162047, 0.00044543732656165957, 0.00042012668563984334, 0.00044940545922145247, 0.00021956725686322898, 0.00040566525422036648, 0.00039410463068634272, 0.00030017533572390676, 0.00042209666571579874, 0.00048966926988214254, 0.00048997864359989762, 0.000323371437843889, 0.00038623737054876983, 0.00030677785980515182, 0.00031666341237723827, 0.00028812591335736215, 0.00040397752309218049, 0.00041576210060156882, 0.00032193050719797611, 0.0002642229082994163, 0.00029666622867807746, 0.00030441803392022848, 0.00031998913618735969, 0.00032522965921089053, 0.00024098191352095455, 0.00043150354758836329, 0.00032903041574172676, 0.00031089704134501517, 0.00030570186208933592, 0.00044798082672059536, 0.00028768560150638223, 0.00034813670208677649, 0.00030554787372238934, 0.0002280171902384609, 0.00036390434252098203, 0.00042297926847822964, 0.00028533313889056444, 0.00023814334417693317, 0.00028094882145524025, 0.00047228735638782382, 0.00044610467739403248, 0.00032199342967942357, 0.00030131713720038533, 0.00047228933544829488, 0.00028814960387535393, 0.00039786752313375473, 0.00036086401087231934, 0.00051823665853589773, 0.00035058290814049542, 0.00019263396097812802, 0.00029335144790820777, 0.00023808726109564304, 0.00025974435266107321, 0.00032014798489399254, 0.00034626110573299229, 0.00035836081951856613, 0.00022690482728648931, 0.00029744300991296768, 0.00038617171230725944, 0.0002967403270304203, 0.00022307323524728417, 0.00031066578230820596, 0.00029160882695578039, 0.00045206377399154007, 0.00037853702087886631, 0.00023086357396095991, 0.00038639726699329913, 0.00041292436071671546, 0.0004790738457813859, 0.00036534719401970506, 0.00032727885991334915, 0.00049773667706176639, 0.00035862487857230008, 0.0003784548316616565, 0.00043728697346523404, 0.00030431378399953246, 0.00033613693085499108, 0.00035402399953454733, 0.00029705028282478452, 0.0004246437456458807, 0.00038521777605637908, } };
const TfArray<96, int> quant6_zero = { 96, { 0,0,0,0,0,0,0,0,0,0,0,0,0,0,0,0,0,0,0,0,0,0,0,0,0,0,0,0,0,0,0,0,0,0,0,0,0,0,0,0,0,0,0,0,0,0,0,0,0,0,0,0,0,0,0,0,0,0,0,0,0,0,0,0,0,0,0,0,0,0,0,0,0,0,0,0,0,0,0,0,0,0,0,0,0,0,0,0,0,0,0,0,0,0,0,0 } };
const TfLiteAffineQuantization quant6 = { (TfLiteFloatArray*)&quant6_scale, (TfLiteIntArray*)&quant6_zero, 0 };
const ALIGN(16) int8_t tensor_data7[96*1*1*16] = { 
  /* [0][0][][] */ -21,85,-99,42,51,-33,106,80,-69,20,43,-99,103,127,-96,45, 
  /* [1][0][][] */ -21,3,-54,-7,-20,53,25,-127,33,-43,-43,-66,-18,-36,-62,2, 
  /* [2][0][][] */ -31,-39,50,84,12,39,-118,127,-25,22,71,-90,-8,-79,-47,88, 
  /* [3][0][][] */ 95,-118,101,-17,-19,-51,-29,127,-25,84,77,48,17,65,12,14, 
  /* [4][0][][] */ -51,-29,9,60,-86,35,-1,-127,22,7,19,-22,52,36,79,99, 
  /* [5][0][][] */ 127,24,-9,-19,-86,9,35,78,13,-20,43,87,122,31,-71,-12, 
  /* [6][0][][] */ 23,-33,-45,-38,-75,-9,11,-53,-43,-37,-26,17,60,37,127,-10, 
  /* [7][0][][] */ -44,28,-33,-78,19,-48,-61,18,-96,37,-53,-50,-127,-30,13,80, 
  /* [8][0][][] */ 56,46,80,17,58,37,76,-3,75,-19,33,18,-127,-34,-81,3, 
  /* [9][0][][] */ -31,65,28,-50,-18,-23,37,-13,-23,39,-33,14,33,127,15,18, 
  /* [10][0][][] */ 71,46,-30,76,-27,-16,36,-88,-96,-4,-68,-87,-127,-54,44,107, 
  /* [11][0][][] */ 58,-2,65,-12,-19,-36,19,90,-113,29,-35,19,0,-19,60,127, 
  /* [12][0][][] */ -56,-45,14,4,14,-14,127,46,-59,49,13,-13,5,61,-41,121, 
  /* [13][0][][] */ 43,63,9,37,112,50,99,65,-69,48,-127,-68,27,72,-100,-25, 
  /* [14][0][][] */ -98,127,0,-16,11,18,54,3,-26,4,82,-4,-101,23,-50,27, 
  /* [15][0][][] */ -5,-7,-127,-55,89,-59,-93,-50,-17,-26,-20,-79,-8,-75,-58,39, 
  /* [16][0][][] */ 107,-14,17,-16,42,-45,51,-33,-33,24,127,51,20,11,-36,13, 
  /* [17][0][][] */ -6,4,-22,-99,-7,-64,127,-108,-44,-2,-38,59,25,84,21,73, 
  /* [18][0][][] */ 12,119,-25,-40,56,-62,-23,-79,-15,127,-28,9,-29,26,-19,-27, 
  /* [19][0][][] */ -79,-127,126,-83,21,-112,44,-44,54,77,96,80,42,0,70,-17, 
  /* [20][0][][] */ -26,80,64,20,12,23,34,-54,66,17,79,-12,-127,-44,-70,-3, 
  /* [21][0][][] */ -68,38,39,9,49,39,48,31,-127,65,-38,21,-7,34,-29,-22, 
  /* [22][0][][] */ 10,-127,45,8,19,-121,123,-17,5,-38,-49,-76,77,-101,-79,-35, 
  /* [23][0][][] */ -60,-98,28,53,13,-7,21,-30,17,-32,74,-14,26,67,61,127, 
  /* [24][0][][] */ -10,-6,30,83,28,10,-50,-127,74,29,-31,16,-9,6,-14,-28, 
  /* [25][0][][] */ -11,32,27,-81,-22,-16,44,-33,-54,52,-44,19,30,127,20,1, 
  /* [26][0][][] */ -62,89,-2,15,25,-81,-1,-35,15,17,1,74,14,-2,-95,127, 
  /* [27][0][][] */ -20,-127,-39,11,-61,81,7,-67,20,-34,37,-22,40,-55,-100,-26, 
  /* [28][0][][] */ -27,0,23,84,21,16,-22,-127,-97,43,74,-10,74,0,-56,-16, 
  /* [29][0][][] */ -124,99,-34,-11,-24,31,-110,-85,-32,-26,-7,1,-14,-70,-127,66, 
  /* [30][0][][] */ 33,64,-39,104,-90,-68,-88,-11,-24,5,9,-96,127,17,-10,93, 
  /* [31][0][][] */ 127,7,-45,-29,-64,18,108,11,-94,10,74,95,44,9,-11,33, 
  /* [32][0][][] */ -37,-41,127,1,-34,58,80,22,-19,0,2,35,14,53,69,57, 
  /* [33][0][][] */ 7,18,-74,-32,-44,25,123,27,-5,-9,10,-94,93,127,-39,52, 
  /* [34][0][][] */ -77,-8,123,11,33,-65,101,-33,-127,52,51,-66,60,85,-27,-62, 
  /* [35][0][][] */ -16,5,-42,22,-84,97,-35,2,-11,127,18,58,-55,74,38,27, 
  /* [36][0][][] */ 4,-80,127,-48,-54,24,-37,-32,24,32,-39,100,27,-99,-34,42, 
  /* [37][0][][] */ 57,-26,79,-18,81,-67,-20,25,-64,127,-67,18,-58,-45,70,-1, 
  /* [38][0][][] */ 39,53,20,-118,-2,-76,-127,68,-87,29,-93,-55,-93,-93,-98,49, 
  /* [39][0][][] */ -89,13,-54,-20,-67,-77,87,7,-127,-20,28,76,35,-3,-20,63, 
  /* [40][0][][] */ 127,26,12,-60,-101,40,33,-79,-22,5,-49,-93,42,21,14,65, 
  /* [41][0][][] */ 85,-81,-40,-44,-17,-4,-55,-32,49,-13,-3,-48,127,-71,53,-32, 
  /* [42][0][][] */ -20,-79,-46,127,-2,-86,-108,28,11,23,5,43,-95,78,-56,2, 
  /* [43][0][][] */ -104,-49,-58,-121,-57,17,-11,101,51,-127,-29,19,-22,-43,-24,107, 
  /* [44][0][][] */ -47,21,5,-23,-25,-30,32,85,91,-58,87,127,90,16,17,26, 
  /* [45][0][][] */ 30,65,-69,75,127,-85,-33,-81,89,-60,74,-37,-34,5,-57,60, 
  /* [46][0][][] */ -25,-43,15,0,84,-13,31,18,-1,127,-22,-106,26,60,-34,60, 
  /* [47][0][][] */ 102,-46,-48,-20,81,-14,-25,-63,-27,127,-45,58,-16,-121,-103,12, 
  /* [48][0][][] */ -16,5,8,-106,-35,-84,127,-118,-17,20,-57,37,87,64,-8,48, 
  /* [49][0][][] */ -63,61,-55,70,8,-52,95,70,-44,66,40,-83,-32,74,127,-28, 
  /* [50][0][][] */ 1,35,-11,15,-127,1,-70,-63,54,70,22,25,-26,-36,12,33, 
  /* [51][0][][] */ 127,-65,-54,10,-60,99,-74,-50,39,-3,-31,97,-42,-108,-17,61, 
  /* [52][0][][] */ -17,-47,47,46,-43,-91,-127,-8,-75,-46,-26,-61,45,-41,63,69, 
  /* [53][0][][] */ 18,116,55,-117,24,127,105,-30,-14,-39,-7,-20,49,-123,10,65, 
  /* [54][0][][] */ 10,105,-6,12,-2,-66,-96,48,26,-10,-49,127,79,79,10,87, 
  /* [55][0][][] */ -54,-36,46,39,49,-20,104,117,-68,5,27,12,127,44,-31,10, 
  /* [56][0][][] */ 127,5,0,30,-52,112,-49,-73,-34,77,-84,10,-73,92,-10,63, 
  /* [57][0][][] */ -47,-45,-33,-22,-79,-78,52,-25,-127,-19,31,56,17,38,2,57, 
  /* [58][0][][] */ 50,-55,61,29,-2,-70,-28,10,32,-4,-127,-38,28,-36,-40,40, 
  /* [59][0][][] */ 51,-7,-123,94,-2,37,74,-12,-92,-37,43,-80,-96,-83,11,127, 
  /* [60][0][][] */ -1,20,-11,30,-22,-4,-16,-9,-38,-60,50,127,-45,-124,-29,2, 
  /* [61][0][][] */ -49,7,113,-68,-98,67,-4,121,-2,-86,48,58,103,13,10,127, 
  /* [62][0][][] */ 65,28,16,-127,-31,-12,20,-40,-13,47,-40,32,36,-15,-72,-71, 
  /* [63][0][][] */ -5,-26,11,1,-58,-44,-35,-14,-76,1,-42,3,127,-11,24,3, 
  /* [64][0][][] */ 40,10,-21,51,-114,-40,-36,-98,32,125,27,-21,35,-63,-34,127, 
  /* [65][0][][] */ -46,-2,-32,-8,-99,97,16,-24,61,-109,127,-94,100,69,-119,78, 
  /* [66][0][][] */ -127,80,-85,-94,27,-43,-119,-44,-107,96,116,45,-91,-55,40,58, 
  /* [67][0][][] */ 5,-29,-127,-116,69,72,13,-29,-22,-5,27,-20,29,23,3,53, 
  /* [68][0][][] */ 68,35,-16,-32,-76,55,9,43,-49,64,114,-43,7,-36,-127,-11, 
  /* [69][0][][] */ 57,-93,51,-50,19,-104,-26,127,9,56,45,60,-32,57,-31,-3, 
  /* [70][0][][] */ 46,-9,124,40,84,-41,127,2,26,38,-93,30,-47,82,-76,48, 
  /* [71][0][][] */ 19,37,116,-84,-126,-105,38,11,-33,-17,21,-127,-106,15,29,12, 
  /* [72][0][][] */ -57,-96,26,-127,72,-7,12,59,-83,14,-114,-35,67,105,-59,121, 
  /* [73][0][][] */ 9,17,50,18,99,-90,-51,21,-3,102,-44,11,-91,-55,127,-25, 
  /* [74][0][][] */ -94,-7,-127,-42,52,-23,-22,33,-66,0,-96,-5,-12,-65,-51,85, 
  /* [75][0][][] */ 64,-37,52,-28,10,-11,-127,-25,7,-79,53,-4,15,6,3,-4, 
  /* [76][0][][] */ 11,-41,-20,79,33,70,85,-67,52,-93,54,127,35,-67,-24,25, 
  /* [77][0][][] */ -40,-40,127,-32,21,-45,-28,-117,0,7,44,91,58,36,33,4, 
  /* [78][0][][] */ -41,-18,15,-15,-5,-39,50,-29,14,2,-7,-42,-39,-68,-127,-20, 
  /* [79][0][][] */ -127,-116,-35,26,118,17,-30,21,7,64,-7,36,-39,-92,-38,11, 
  /* [80][0][][] */ 15,-127,24,72,-18,-7,-58,92,-43,41,55,12,-68,-16,-1,84, 
  /* [81][0][][] */ 126,44,-13,75,-21,7,16,116,28,1,104,61,127,5,86,-36, 
  /* [82][0][][] */ -54,-10,8,-18,33,-127,-97,-82,22,93,-55,-39,-25,62,-98,9, 
  /* [83][0][][] */ 43,-31,100,0,-30,-26,-127,-16,33,-74,14,-45,10,3,20,5, 
  /* [84][0][][] */ 26,-67,-98,25,127,24,31,53,-107,16,-96,-25,9,-39,-91,8, 
  /* [85][0][][] */ 2,66,42,-38,69,-17,44,-103,127,-30,41,15,93,-97,39,-2, 
  /* [86][0][][] */ 99,-46,127,40,19,-70,83,39,-58,-40,-64,-50,27,31,-46,8, 
  /* [87][0][][] */ -18,4,26,-105,84,-41,-52,62,24,-51,86,-81,-124,-127,3,18, 
  /* [88][0][][] */ -70,-39,50,-2,7,18,-76,-41,-3,21,-62,-127,-37,-28,-2,-10, 
  /* [89][0][][] */ -89,-6,34,-61,21,2,-127,12,82,34,-74,0,4,-87,-60,-3, 
  /* [90][0][][] */ -14,-27,-38,-79,127,39,-59,33,34,76,42,-2,57,18,-60,-4, 
  /* [91][0][][] */ -36,-60,31,30,-16,3,-4,127,-60,-85,40,-21,-41,81,34,126, 
  /* [92][0][][] */ -15,85,9,-4,-24,60,-97,41,-34,-10,57,-16,-34,127,74,14, 
  /* [93][0][][] */ -20,55,-40,-43,54,75,-70,15,67,86,76,52,-127,23,-48,79, 
  /* [94][0][][] */ 23,66,98,15,-127,-36,-3,-1,53,-5,39,-54,-61,-16,22,-19, 
  /* [95][0][][] */ 1,25,30,2,127,-7,-54,88,8,9,-87,88,-23,18,82,-50, 
};
const TfArray<4, int> tensor_dimension7 = { 4, { 96,1,1,16 } };
const TfArray<96, float> quant7_scale = { 96, { 0.0029693301767110825, 0.004164066631346941, 0.0029534224886447191, 0.0019567168783396482, 0.0027008010074496269, 0.0032751201651990414, 0.0032881428487598896, 0.0030827585142105818, 0.0026224451139569283, 0.0052469461224973202, 0.002360187703743577, 0.0030808974988758564, 0.0027702338993549347, 0.0022143949754536152, 0.003111591562628746, 0.0024544596672058105, 0.0037412245292216539, 0.0035286406055092812, 0.0037745528388768435, 0.0018441436113789678, 0.003407179145142436, 0.0033100815489888191, 0.0025211700703948736, 0.0035451864823698997, 0.0041127284057438374, 0.0041153267957270145, 0.0027159941382706165, 0.0032440044451504946, 0.0025766247417777777, 0.0026596533134579659, 0.0024199672043323517, 0.0033930039498955011, 0.0034919825848191977, 0.0027038916014134884, 0.0022192059550434351, 0.0024916972033679485, 0.0025568045675754547, 0.0026875862386077642, 0.0027316012419760227, 0.0020240051671862602, 0.0036241947673261166, 0.0027635237202048302, 0.0026112217456102371, 0.0025675874203443527, 0.0037625872064381838, 0.0024162689223885536, 0.0029239973518997431, 0.0025662940461188555, 0.0019151144661009312, 0.0030564295593649149, 0.0035525993444025517, 0.0023965106811374426, 0.0020001640077680349, 0.0023596868850290775, 0.0039667375385761261, 0.0037468294613063335, 0.0027044201269745827, 0.0025307601317763329, 0.0039667543023824692, 0.0024201662745326757, 0.0033416859805583954, 0.0030308938585221767, 0.0043526655063033104, 0.0029445430263876915, 0.0016179310623556376, 0.0024638564791530371, 0.0019996929913759232, 0.0021815907675772905, 0.0026889203581959009, 0.0029082442633807659, 0.003009869484230876, 0.0019057717872783542, 0.0024982213508337736, 0.0032434531021863222, 0.0024923195596784353, 0.0018735902849584818, 0.0026092794723808765, 0.0024492200464010239, 0.0037968799006193876, 0.0031793294474482536, 0.0019390212837606668, 0.0032453474123030901, 0.003468148410320282, 0.0040237372741103172, 0.0030685481615364552, 0.0027488125488162041, 0.0041804863139986992, 0.0030120874289423227, 0.0031786391045898199, 0.0036727697588503361, 0.0025559288915246725, 0.0028232112526893616, 0.0029734447598457336, 0.0024949228391051292, 0.0035665794275701046, 0.0032354409340769053, } };
const TfArray<96, int> quant7_zero = { 96, { 0,0,0,0,0,0,0,0,0,0,0,0,0,0,0,0,0,0,0,0,0,0,0,0,0,0,0,0,0,0,0,0,0,0,0,0,0,0,0,0,0,0,0,0,0,0,0,0,0,0,0,0,0,0,0,0,0,0,0,0,0,0,0,0,0,0,0,0,0,0,0,0,0,0,0,0,0,0,0,0,0,0,0,0,0,0,0,0,0,0,0,0,0,0,0,0 } };
const TfLiteAffineQuantization quant7 = { (TfLiteFloatArray*)&quant7_scale, (TfLiteIntArray*)&quant7_zero, 0 };
const ALIGN(16) int32_t tensor_data8[16] = { 3458, 6002, 6, 4515, 2611, 5431, 474, 3134, 12146, -2411, -9227, 4116, -10882, 12021, 3345, 10883, };
const TfArray<1, int> tensor_dimension8 = { 1, { 16 } };
const TfArray<16, float> quant8_scale = { 16, { 6.8639310484286398e-05, 0.00011095679656136781, 7.1705537266097963e-05, 7.5481162639334798e-05, 9.2605412646662444e-05, 9.8818760307040066e-05, 6.5970438299700618e-05, 8.5277053585741669e-05, 0.00013031906564719975, 0.00010504826786927879, 5.656261055264622e-05, 9.1804038675036281e-05, 0.00012354174396023154, 7.7328309998847544e-05, 0.00013085750106256455, 9.5844457973726094e-05, } };
const TfArray<16, int> quant8_zero = { 16, { 0,0,0,0,0,0,0,0,0,0,0,0,0,0,0,0 } };
const TfLiteAffineQuantization quant8 = { (TfLiteFloatArray*)&quant8_scale, (TfLiteIntArray*)&quant8_zero, 0 };
const ALIGN(16) int8_t tensor_data9[16*1*1*96] = { 
  /* [0][0][][] */ -89,49,63,16,-51,-22,-55,14,-30,-1,4,-26,17,32,28,-35,30,13,78,13,6,-45,127,60,41,27,26,23,-29,-113,-57,-1,-16,-33,25,17,16,50,-6,50,2,19,-89,-2,-47,-21,2,78,-31,-10,-54,-14,29,8,16,-50,-80,-3,-20,85,66,33,10,4,-29,-62,-29,18,-50,-55,43,-21,-12,2,-71,-46,-32,12,-15,0,-49,49,77,-66,-4,57,12,53,23,-13,3,-32,-33,-8,-44,6, 
  /* [1][0][][] */ 28,54,30,-14,-62,-29,-37,16,4,-8,79,-62,-2,-24,-92,-34,36,11,-46,41,-18,-77,21,65,-10,-68,9,-40,84,-105,127,-72,76,42,4,75,51,64,-22,-34,35,37,-15,-7,19,61,-114,-37,-80,-43,-17,-1,64,-44,-46,34,28,0,-26,22,12,56,12,-88,-23,-4,-55,-3,10,-7,-59,-37,-55,-34,10,-68,23,38,36,-89,-23,-27,-65,-41,24,-26,-24,12,-45,-19,-53,45,30,86,-38,66, 
  /* [2][0][][] */ 77,-31,12,7,17,-84,68,20,-2,-1,-49,-3,-80,-31,9,-55,-100,-30,-38,53,22,-38,-39,-7,-11,-53,-7,-13,-42,34,-86,127,-65,99,-34,-23,-42,4,-18,-20,-79,80,87,5,-98,-8,-15,-10,52,19,-14,-40,57,-15,-36,65,34,-12,43,4,10,28,-62,18,83,20,-18,-2,-8,63,-31,18,54,47,77,29,11,-71,76,48,84,-13,-34,37,-56,40,15,53,8,26,-12,-2,-52,47,-10,22, 
  /* [3][0][][] */ 4,21,-24,15,34,-16,-12,-51,-55,48,25,57,24,2,-45,42,-5,-35,37,21,15,127,22,-58,13,3,-35,4,71,-33,61,-11,-9,31,-31,-40,4,49,39,11,-84,-51,-23,9,-15,38,22,9,-24,-45,-4,-26,22,-91,-32,-54,8,80,-43,9,1,-20,-46,5,24,45,-34,24,-35,-1,4,-64,-20,-54,27,-29,20,-17,-38,-28,-19,-22,-50,11,-2,-48,23,-18,-9,12,33,-41,43,6,-46,46, 
  /* [4][0][][] */ 45,-10,-24,13,22,31,-26,-6,-40,64,64,-13,-6,-3,17,-43,16,-12,-18,31,6,-38,52,53,-54,-1,-127,25,-38,-64,-3,8,-63,-51,22,74,0,25,9,-12,-31,-42,38,-34,-27,0,-31,48,-26,57,10,14,22,-5,-63,13,43,-7,19,-16,30,-18,44,14,-51,11,-23,-4,-29,18,-50,56,29,-55,-21,-46,25,-36,-25,15,-35,74,-60,10,-25,2,19,-35,35,15,12,18,-47,-42,32,34, 
  /* [5][0][][] */ -109,38,53,-27,45,-19,56,-20,-20,31,-11,-40,27,-15,-2,-42,8,-13,51,23,-127,-13,-62,18,-32,-15,46,5,40,-90,-17,45,36,109,-13,7,9,37,42,-4,-36,74,60,-33,12,59,51,-11,9,6,-36,24,-4,-49,33,-78,33,-43,-46,-66,60,90,-39,-20,75,-41,-76,-50,-42,-14,-78,-31,-11,19,-35,-44,45,-39,-41,1,101,2,38,-79,-85,36,46,-19,-39,50,28,21,-17,9,-3,82, 
  /* [6][0][][] */ 28,-25,-84,-10,-49,-107,127,106,-87,67,-13,61,-115,-69,92,48,-15,-66,-1,-22,-8,-39,-55,-84,-9,55,64,36,42,15,108,-67,33,-16,5,-105,24,20,-14,94,0,9,-58,-44,-14,-60,-76,44,89,-89,-22,50,-31,47,-12,-66,60,36,9,23,-81,35,-121,-7,27,18,-6,55,36,16,-11,-47,-42,22,107,42,56,-57,53,-69,-26,-52,-91,62,21,-42,38,-20,-65,79,63,30,-33,-11,-32,120, 
  /* [7][0][][] */ 60,54,-38,-79,-9,9,41,-14,-87,6,-6,-70,-36,15,9,-19,-16,-37,-21,49,-4,102,9,56,-10,19,16,65,43,41,42,-36,89,32,-17,31,-13,-37,14,12,-53,-11,-1,-77,7,-63,59,-6,37,-60,-77,-37,-77,31,0,6,5,25,-88,-15,-6,85,67,-3,-9,-11,-64,18,8,-24,-127,50,20,101,-31,59,-80,76,-3,-92,-21,-56,60,-65,61,-53,-34,3,3,40,-77,49,49,-46,-41,36, 
  /* [8][0][][] */ 8,81,-62,31,-27,-15,-101,26,-62,-32,20,5,-45,19,30,81,25,-34,7,39,37,6,9,6,-60,68,7,20,-9,-11,-26,-27,-37,-40,-15,-60,-53,44,37,9,3,-32,28,8,-30,-42,7,1,-48,-30,55,101,18,-43,-70,95,-5,28,3,-31,-58,14,-1,59,-25,-43,-35,-19,-55,17,20,2,-14,-43,-127,-26,-39,50,-62,-47,-29,15,-27,-40,-11,-16,34,38,16,19,-75,-7,-69,-108,15,-59, 
  /* [9][0][][] */ -4,-3,-60,52,-25,-32,82,66,-12,47,-55,108,-32,-5,44,103,21,33,46,-3,10,13,44,-114,-30,-9,21,0,-3,-35,20,49,-59,-7,0,-127,13,-17,-8,-52,-16,5,48,-32,-49,-11,11,0,44,76,31,-2,-43,-60,10,-25,-14,-15,73,8,-49,47,-56,-20,61,0,-5,-11,-67,25,35,53,-5,76,-8,-9,-19,31,-53,-1,61,-20,60,15,21,15,-23,-20,-56,34,-10,-32,29,23,-44,-12, 
  /* [10][0][][] */ 43,28,-31,-29,-5,-25,54,20,17,-41,-17,-12,-87,-7,6,-5,-81,-12,23,20,48,31,4,0,-46,70,23,-13,-32,-73,-30,0,83,-36,32,16,57,-70,93,127,19,-61,19,1,9,-64,-9,30,34,86,-61,-51,-17,14,4,47,20,-51,70,52,-21,50,-54,-16,3,-56,6,59,10,-26,-32,38,119,23,0,-66,16,-53,46,-14,-45,21,50,35,-22,4,29,25,-30,-11,33,56,42,47,-41,13, 
  /* [11][0][][] */ -67,-37,63,-77,12,-6,-46,-24,73,-40,28,0,6,-19,18,-6,-61,0,53,5,-61,31,-69,-120,38,10,-43,65,43,-83,60,-40,32,-1,14,-10,-67,46,-116,30,-77,89,-44,58,19,-5,25,-75,43,-37,-95,-42,-10,36,100,-69,17,-75,27,-66,-33,-39,-16,-127,12,-71,55,99,109,33,56,-45,-37,-23,55,-55,126,26,35,60,-8,22,-30,93,84,19,5,-42,-96,-27,9,42,64,30,36,65, 
  /* [12][0][][] */ 29,-43,-15,-68,20,95,-6,11,48,33,-7,52,13,45,34,-16,-52,41,6,31,127,-2,54,-104,33,39,-58,-80,-19,70,-24,-6,19,-15,0,-64,32,-12,-26,10,23,-2,32,67,-29,23,5,-18,-47,15,1,20,2,-45,6,32,-31,45,28,54,38,-80,-27,-98,19,99,-27,-53,-15,-43,70,-13,-11,10,-7,79,-21,56,-51,-8,-27,52,113,13,-4,67,-32,-65,47,22,-68,63,75,14,-22,-115, 
  /* [13][0][][] */ -17,34,-35,-41,-27,-18,23,-63,-2,-47,1,-62,50,-89,-56,-67,-5,-26,-92,-15,-127,-38,30,97,-48,11,98,14,33,-52,51,47,6,-24,-93,102,-50,-91,38,-84,121,2,-2,37,-31,-78,47,-19,76,14,-50,11,19,-1,-19,80,55,-41,-56,43,72,28,23,-85,-12,26,-48,-6,-61,-32,-78,-2,-70,22,-33,-48,-114,44,20,76,-19,46,32,-104,79,20,15,-21,-37,43,-8,0,-51,1,-25,8, 
  /* [14][0][][] */ -17,43,-58,-6,97,60,-92,-22,38,-76,52,-11,-16,-19,-63,-71,-54,49,26,127,23,-33,-6,15,-9,39,-11,65,18,-16,-25,13,96,-6,-39,-23,-12,42,50,13,66,3,20,18,0,-65,57,-68,30,-26,-46,-32,69,38,-24,20,41,46,-91,17,-10,-60,-27,-102,22,-61,-45,20,-71,59,-11,46,-16,-28,-9,-26,37,-13,-31,-42,24,-24,-14,-12,-7,69,-15,-12,-35,71,71,-16,-7,-34,-59,-67, 
  /* [15][0][][] */ -87,-67,61,-85,13,-6,-17,-81,-4,32,-28,88,13,-43,27,107,-126,-31,33,-80,28,-23,-4,-72,75,1,42,-41,-84,-94,-60,45,-65,52,64,-100,-9,-55,-5,-34,-22,-8,37,-1,-19,-21,73,80,-18,-23,32,-57,-58,64,21,-62,-114,-7,127,9,-42,13,-91,45,-57,2,16,34,59,-67,70,-15,46,-23,-18,-30,18,1,36,21,-10,72,51,53,-19,-10,-123,6,-8,-33,-98,65,40,-56,-9,83, 
};
const TfArray<4, int> tensor_dimension9 = { 4, { 16,1,1,96 } };
const TfArray<16, float> quant9_scale = { 16, { 0.002917170524597168, 0.0047156638465821743, 0.0030474853701889515, 0.0032079492229968309, 0.0039357300847768784, 0.0041997972875833511, 0.0028037435840815306, 0.0036242748610675335, 0.0055385599844157696, 0.0044645513407886028, 0.0024039109703153372, 0.0039016716182231903, 0.0052505237981677055, 0.0032864531967788935, 0.0055614435113966465, 0.0040733893401920795, } };
const TfArray<16, int> quant9_zero = { 16, { 0,0,0,0,0,0,0,0,0,0,0,0,0,0,0,0 } };
const TfLiteAffineQuantization quant9 = { (TfLiteFloatArray*)&quant9_scale, (TfLiteIntArray*)&quant9_zero, 0 };
const ALIGN(16) int32_t tensor_data10[96] = { -1443, -3861, -1258, -1439, 1411, -1890, 598, -3167, -1948, -9391, 3167, -1345, 240, 8316, 5984, -2371, 16719, 3866, -8238, 663, -1573, 3011, -8741, 309, 280, -3655, -4155, -2635, -568, -4164, -1430, -301, 7346, -223, -1423, -225, 7, -1468, -1130, 4318, 1432, -3491, 1648, -5539, 4977, 4085, 469, 11101, 2, 9444, 9396, -3369, 66, 382, 447, 8047, -1366, -1672, 6923, 3350, 3281, 11663, -677, -4012, 4212, 2116, -2761, 2587, -3005, -653, 4700, -128, 11765, -250, -658, 8909, -877, -8, 7109, 1536, 2177, 17948, 769, 1808, 12047, 801, -4727, -1863, -5042, -4815, 15243, 109, 3359, 1615, -7466, -2984, };
const TfArray<1, int> tensor_dimension10 = { 1, { 96 } };
const TfArray<96, float> quant10_scale = { 96, { 0.00030461873393505812, 0.00016133007011376321, 0.00015637051546946168, 0.00037623351090587676, 0.00027750764274969697, 0.00030438948306255043, 0.00035240480792708695, 0.00025459166499786079, 0.00022709490440320224, 0.00016358830907847732, 0.00014954157813917845, 0.00039953089435584843, 0.00023598338884767145, 0.00011464222916401923, 0.000284407171420753, 0.00020387560653034598, 0.00014268007362261415, 0.00028404875774867833, 9.0768662630580366e-05, 0.0001396939333062619, 0.00026002168306149542, 0.00046250474406406283, 0.00024569829110987484, 0.00033068124321289361, 0.00069986958988010883, 0.00022195518249645829, 0.00034520702320151031, 0.00014338492474053055, 0.0002058313402812928, 0.00013336051779333502, 0.00040926539804786444, 0.00016533611051272601, 0.00025009829550981522, 0.00017809131531976163, 0.00025876413565129042, 0.00033589170197956264, 0.00024018911062739789, 0.0002965741150546819, 0.00040112549322657287, 0.00024418294196948409, 0.00021059090795461088, 0.00016091630095615983, 0.00031397631391882896, 0.00019313121447339654, 0.00015134814020711929, 0.00019830220844596624, 0.00020602357108145952, 0.00013578204379882663, 0.00027270652935840189, 7.0281785156112164e-05, 0.00016393314581364393, 0.00013064361701253802, 0.00021738537179771811, 0.00014083142741583288, 0.00023155716189648956, 0.00018199688929598778, 0.00015857233665883541, 0.0001695935643510893, 0.00028360038413666189, 0.00016954746388364583, 0.00024822921841405332, 0.00011670655658235773, 0.00027748601860366762, 0.00010767975618364289, 0.00018351271864958107, 0.00027681552455760539, 0.00016811309615150094, 0.00018414077931083739, 0.00018851796630769968, 0.00025231463951058686, 0.00027213056455366313, 0.00018410863413009793, 0.00010290404316037893, 0.00027532226522453129, 0.00028216783539392054, 0.00011051900219172239, 0.00020070676691830158, 0.00021225298405624926, 0.00015567427908536047, 0.00020680978195741773, 0.00029160451958887279, 0.00012179809709778056, 0.00033000510302372277, 0.00029083204572089016, 9.6857627795543522e-05, 0.00021619330800604075, 0.00017150853818748146, 0.00018277661001775414, 0.00027221129857935011, 0.00016478214820381254, 7.6499716669786721e-05, 0.0012439257698133588, 0.00020535748626571149, 0.00016381844761781394, 8.7452935986220837e-05, 0.00035996423684991896, } };
const TfArray<96, int> quant10_zero = { 96, { 0,0,0,0,0,0,0,0,0,0,0,0,0,0,0,0,0,0,0,0,0,0,0,0,0,0,0,0,0,0,0,0,0,0,0,0,0,0,0,0,0,0,0,0,0,0,0,0,0,0,0,0,0,0,0,0,0,0,0,0,0,0,0,0,0,0,0,0,0,0,0,0,0,0,0,0,0,0,0,0,0,0,0,0,0,0,0,0,0,0,0,0,0,0,0,0 } };
const TfLiteAffineQuantization quant10 = { (TfLiteFloatArray*)&quant10_scale, (TfLiteIntArray*)&quant10_zero, 0 };
const ALIGN(16) int8_t tensor_data11[1*3*3*96] = { 
  /* [0][0][][] */ 48,97,26,-17,-34,14,44,27,88,-48,-47,50,-27,-24,18,-64,-96,4,26,35,26,30,127,96,1,-51,-43,-12,-34,4,27,-28,-42,-5,-35,41,30,12,10,-39,6,-20,-7,6,-127,21,16,-32,7,-57,-20,25,18,60,-15,-4,-96,-50,-18,-110,-127,-7,-10,-27,-42,11,46,-18,-46,28,16,15,-60,-5,35,-17,1,-52,-61,23,-10,-30,25,-50,-114,-55,-33,9,-106,-29,-82,35,70,-18,51,-1, -38,-19,-41,62,-16,107,-47,5,82,51,-127,37,-54,-52,-127,127,-127,43,101,127,83,-27,114,90,28,0,26,72,19,102,11,-127,127,68,10,33,44,127,-13,-85,127,1,87,127,-5,-43,127,-59,-7,-105,-45,-11,-36,127,-36,-127,6,38,-43,-48,37,-127,33,79,-41,57,104,-22,17,127,127,-22,-91,39,-46,-74,27,-76,7,127,-25,-105,127,-57,-127,-38,52,31,98,54,-59,-1,114,-49,127,32, 28,-99,-39,-8,-38,9,-14,42,44,60,-81,-47,4,61,4,-31,4,1,24,33,9,15,56,91,13,-48,11,-6,28,-22,22,-86,-43,-84,-58,127,19,9,2,67,-15,38,-7,13,51,37,-16,12,27,-55,47,7,70,14,12,-29,45,-82,-18,-77,-54,29,-51,-52,31,5,-127,-33,-57,-2,28,28,7,-48,-13,-2,-13,23,-99,-26,-8,-75,15,-13,-41,-77,12,1,-57,-13,-70,55,20,66,44,-1, 
  /* [0][1][][] */ 83,27,103,127,-14,-45,127,51,1,-61,-58,127,-1,-126,-36,15,-91,-54,120,27,-83,-18,-114,-127,-9,48,-78,127,-84,71,118,69,-6,68,16,62,-127,12,-2,-81,44,-79,8,59,-102,-24,11,-108,-127,-98,-127,11,127,-99,67,-21,-115,23,-37,-21,18,-71,-35,44,-118,-17,105,-92,-75,-3,-57,-127,-59,46,127,-83,127,88,-87,-55,127,-127,-43,45,9,-32,-3,127,17,45,-84,17,6,-110,125,-26, -127,43,-56,34,-56,-127,-115,-127,127,49,-9,53,-118,-127,-6,62,-113,-127,127,95,62,-127,-85,74,-127,127,39,80,-82,-12,-127,90,-41,82,127,-30,0,106,127,17,-72,65,13,99,8,-127,-86,-127,-8,-127,-69,127,47,72,53,-65,44,45,55,-30,-26,-48,-127,127,-39,-127,65,127,23,60,-115,-73,-45,63,-111,-127,110,127,127,-67,-95,-40,-100,19,-4,-108,127,81,127,127,-127,-127,-127,-99,90,127, 57,15,76,58,11,-15,19,35,-75,127,-31,59,5,13,-62,71,-5,-27,52,-23,-127,-3,-65,-123,6,12,127,-40,127,127,24,-122,-42,-127,-11,104,-119,60,-19,3,-25,127,3,29,-44,-4,-11,-73,109,-122,-63,48,126,-103,-127,63,127,-11,-127,85,-68,-98,3,72,127,-32,-111,-9,-78,-2,-85,-10,-63,-127,-9,0,-7,-24,-110,-66,-86,-109,-22,127,-69,40,20,-44,-28,-9,-24,109,-41,127,14,-3, 
  /* [0][2][][] */ 29,-101,35,-18,4,43,26,77,-44,25,93,-74,16,-21,-28,10,-51,0,29,59,24,33,51,-38,21,51,-6,-9,-4,-40,-14,30,-26,-5,-23,-23,56,28,13,-44,12,31,-22,-16,65,19,-29,0,-56,-1,-54,26,-74,-17,-37,-10,-19,15,19,11,-94,28,40,-49,-50,54,-89,-40,78,-3,26,47,-12,3,27,23,-24,-41,-3,-7,7,-15,-38,-11,-78,58,-23,33,-22,22,-7,27,-33,1,9,-10, -53,25,127,9,127,87,-39,42,-98,53,-52,-63,127,-10,-29,6,29,43,42,-53,32,26,111,-45,70,-50,13,62,-33,87,-26,46,-106,34,24,28,82,30,11,-127,-9,16,-127,51,47,28,-51,-11,3,-93,-92,55,70,-83,-43,-54,-33,127,-34,4,126,-100,111,77,-62,10,-10,5,127,-18,-4,117,-127,30,-9,-82,15,-97,-115,-46,-10,-123,-13,-60,-21,127,68,-38,101,32,31,41,-37,-41,10,13, 13,127,39,-22,-43,-2,-33,46,-4,39,83,-11,21,-5,13,16,-60,20,27,59,-1,27,16,-106,12,66,19,67,16,0,-3,-60,-13,-35,-17,57,36,17,-19,38,-4,4,19,12,2,-14,-29,18,28,34,66,-35,-93,5,19,35,-21,-4,54,127,-21,-8,84,-41,20,23,-119,56,47,-33,-34,89,-7,1,-16,-18,-37,-10,34,-12,-16,-61,5,-10,-3,47,4,-90,-41,8,18,55,-45,6,5,12, 
};
const TfArray<4, int> tensor_dimension11 = { 4, { 1,3,3,96 } };
const TfArray<96, float> quant11_scale = { 96, { 0.012946296483278275, 0.0068565281108021736, 0.0066457469947636127, 0.015989923849701881, 0.011794074438512325, 0.012936552986502647, 0.01497720368206501, 0.010820145718753338, 0.0096515333279967308, 0.0069525032304227352, 0.0063555170781910419, 0.016980063170194626, 0.010029293596744537, 0.0048722946085035801, 0.012087304145097733, 0.0086647132411599159, 0.0060639027506113052, 0.012072071433067322, 0.0038576680235564709, 0.0059369918890297413, 0.011050921864807606, 0.019656451418995857, 0.010442176833748817, 0.014053952880203724, 0.029744457453489304, 0.0094330953434109688, 0.014671298675239086, 0.0060938592068850994, 0.0087478319182991982, 0.0056678219698369503, 0.017393779009580612, 0.0070267845876514912, 0.010629177093505859, 0.0075688809156417847, 0.010997476056218147, 0.014275397174060345, 0.010208036750555038, 0.012604399584233761, 0.017047833651304245, 0.010377774946391582, 0.0089501133188605309, 0.0068389428779482841, 0.013343993574380875, 0.0082080764696002007, 0.0064322957769036293, 0.008427843451499939, 0.0087560014799237251, 0.0057707368396222591, 0.011590027250349522, 0.0029869757127016783, 0.0069671585224568844, 0.0055523533374071121, 0.0092388782650232315, 0.0059853354468941689, 0.0098411794751882553, 0.0077348677441477776, 0.0067393244244158268, 0.0072077261283993721, 0.012053016573190689, 0.0072057670913636684, 0.010549741797149181, 0.0049600284546613693, 0.01179315522313118, 0.0045763896778225899, 0.0077992901206016541, 0.01176465954631567, 0.0071448064409196377, 0.0078259827569127083, 0.0080120135098695755, 0.010723371990025043, 0.011565548367798328, 0.0078246165066957474, 0.0043734218925237656, 0.011701196432113647, 0.011992132291197777, 0.004697057418525219, 0.0085300374776124954, 0.0090207513421773911, 0.0066161570139229298, 0.0087894154712557793, 0.012393192388117313, 0.0051764189265668392, 0.014025215990841389, 0.012360361404716969, 0.0041164490394294262, 0.0091882152482867241, 0.0072891125455498695, 0.0077680055983364582, 0.011568980291485786, 0.0070032412186264992, 0.0032512377947568893, 0.052866846323013306, 0.008727692998945713, 0.006962283980101347, 0.0037167498376220465, 0.015298480167984962, } };
const TfArray<96, int> quant11_zero = { 96, { 0,0,0,0,0,0,0,0,0,0,0,0,0,0,0,0,0,0,0,0,0,0,0,0,0,0,0,0,0,0,0,0,0,0,0,0,0,0,0,0,0,0,0,0,0,0,0,0,0,0,0,0,0,0,0,0,0,0,0,0,0,0,0,0,0,0,0,0,0,0,0,0,0,0,0,0,0,0,0,0,0,0,0,0,0,0,0,0,0,0,0,0,0,0,0,0 } };
const TfLiteAffineQuantization quant11 = { (TfLiteFloatArray*)&quant11_scale, (TfLiteIntArray*)&quant11_zero, 3 };
const ALIGN(16) int32_t tensor_data12[96] = { 3182, 1150, 145, -1340, 3233, 4757, 4686, 1319, -442, 3811, 842, -3352, 1760, 1110, 320, -402, 2924, 3692, -126, -574, 2429, 11335, 9363, -1683, -2703, -460, 6207, -366, 830, 822, 7546, -1236, 5837, 1432, 3173, -2903, 173, -2875, 1133, 1042, 1587, 851, 939, 16, 386, 1553, 3316, 1881, 1904, 1069, 3178, 1820, -1727, 883, 601, 1288, 579, 1833, 5023, 628, -1341, 3922, 1170, 1862, 2088, 3275, -3293, 1300, 3461, -635, 4494, 754, 1487, 1556, 1863, 734, -569, 1050, 1206, 2142, 2177, 1766, 4403, -69, 2583, 2656, 290, -722, 7383, 9, 79, -3438, 6525, 1762, -121, -1000, };
const TfArray<1, int> tensor_dimension12 = { 1, { 96 } };
const TfArray<96, float> quant12_scale = { 96, { 0.0002298066538060084, 0.00027308028074912727, 0.00023384082305710763, 0.00026395596796646714, 0.00020635459804907441, 0.00016871702973730862, 0.00018936886044684798, 0.00023853422317188233, 0.00028155636391602457, 0.00019597631762735546, 0.00027203912031836808, 0.00015018008707556874, 0.0002566030016168952, 0.00035801666672341526, 0.00020255966228432953, 0.00022692001948598772, 0.00019865122158080339, 0.00020070288155693561, 0.00021590619871858507, 0.00026583948056213558, 0.00024849208421073854, 8.5096908151172101e-05, 0.00010213123459834605, 0.0002094761875923723, 0.00022066928795538843, 0.00022359919967129827, 0.0001283451565541327, 0.0002659312158357352, 0.00027007571770809591, 0.00024123457842506468, 0.00012218290066812187, 0.00019956982578150928, 0.00014484928396996111, 0.00032597736571915448, 0.00025320175336673856, 0.0002266374503960833, 0.0002908542228396982, 0.00021822565759066492, 0.00016274131485261023, 0.00035982535337097943, 0.00028856433345936239, 0.00026409744168631732, 0.00034260202664881945, 0.00034609061549417675, 0.00041994539787992835, 0.00017373189621139318, 0.00016246984887402505, 0.00031340020359493792, 0.00027192066772840917, 0.00035894181928597391, 0.00024258212943095714, 0.00025880709290504456, 0.0002393068716628477, 0.00040005150367505848, 0.0003673509054351598, 0.00035776160075329244, 0.00035563032724894583, 0.00023204513126984239, 0.0001613008207641542, 0.00026685063494369388, 0.00028245901921764016, 0.00017361289064865559, 0.00025465499493293464, 0.00031015352578833699, 0.00029343191999942064, 0.00022524748055730015, 0.00017804891103878617, 0.00033111736411228776, 0.00020131257770117372, 0.00028861372265964746, 0.00014969376206863672, 0.00019363107276149094, 0.00028229135205037892, 0.00023276153660845011, 0.00028575881151482463, 0.0002081640122924, 0.0002881334803532809, 0.00017166485486086458, 0.000283362518530339, 0.00024004271836020052, 0.00020654583931900561, 0.00023345233057625592, 0.00017304741777479649, 0.00020755316654685885, 0.00018778428784571588, 0.00023454942856915295, 0.0002855343627743423, 0.00038609380135312676, 0.0001275516115128994, 0.00035209651105105877, 0.00043482301407493651, 0.00015196949243545532, 0.00013728757039643824, 0.00027118183788843453, 0.00038011305150575936, 0.000211614795261994, } };
const TfArray<96, int> quant12_zero = { 96, { 0,0,0,0,0,0,0,0,0,0,0,0,0,0,0,0,0,0,0,0,0,0,0,0,0,0,0,0,0,0,0,0,0,0,0,0,0,0,0,0,0,0,0,0,0,0,0,0,0,0,0,0,0,0,0,0,0,0,0,0,0,0,0,0,0,0,0,0,0,0,0,0,0,0,0,0,0,0,0,0,0,0,0,0,0,0,0,0,0,0,0,0,0,0,0,0 } };
const TfLiteAffineQuantization quant12 = { (TfLiteFloatArray*)&quant12_scale, (TfLiteIntArray*)&quant12_zero, 0 };
const ALIGN(16) int8_t tensor_data13[96*1*1*16] = { 
  /* [0][0][][] */ -22,43,8,-28,-48,-50,-93,1,76,-42,62,-65,74,-62,-3,-127, 
  /* [1][0][][] */ -88,68,-50,-67,-67,46,56,53,-50,17,43,-53,36,127,-8,48, 
  /* [2][0][][] */ -78,-8,-91,9,-22,-26,53,-59,-78,127,56,11,55,48,-72,110, 
  /* [3][0][][] */ -51,-77,1,-72,-85,11,-52,-122,2,12,40,-76,-54,-40,-127,-27, 
  /* [4][0][][] */ 61,-13,25,63,-77,-6,-127,60,46,87,6,50,18,-2,-26,-39, 
  /* [5][0][][] */ -85,35,-69,-41,51,-35,15,-37,69,4,5,-35,45,-110,-127,-55, 
  /* [6][0][][] */ -4,-23,-29,14,-99,60,6,-53,-3,-56,127,-45,36,5,-95,-2, 
  /* [7][0][][] */ -33,94,127,-60,37,40,-36,-61,44,44,-66,-1,30,3,26,31, 
  /* [8][0][][] */ -49,5,33,-27,30,20,81,127,-34,-13,-59,-94,29,91,-95,-75, 
  /* [9][0][][] */ 20,7,48,12,-82,-62,-117,-67,28,-29,127,33,-24,-64,37,-35, 
  /* [10][0][][] */ 7,-60,26,-92,-72,81,85,40,8,-118,-5,45,-62,32,-127,16, 
  /* [11][0][][] */ 100,-75,-14,86,-120,-37,50,7,127,122,-53,46,52,-56,-25,92, 
  /* [12][0][][] */ -77,-52,127,-12,58,-39,27,99,19,-48,80,40,-45,26,-93,33, 
  /* [13][0][][] */ 7,-43,5,39,-11,47,127,36,-90,3,-3,3,-17,101,84,-57, 
  /* [14][0][][] */ 127,-81,113,-2,33,69,62,21,28,99,55,48,58,-31,64,-39, 
  /* [15][0][][] */ 1,121,2,-51,32,127,-76,86,-37,-8,-12,-22,-15,125,-27,-55, 
  /* [16][0][][] */ -42,63,113,-48,39,107,17,-22,7,16,-19,54,95,5,80,127, 
  /* [17][0][][] */ -19,71,56,-82,25,-52,-31,-59,-52,83,-17,23,-79,-16,127,-50, 
  /* [18][0][][] */ -127,10,-68,-87,120,63,-26,-88,55,109,124,103,-15,87,-43,-19, 
  /* [19][0][][] */ 31,101,98,83,33,-24,-33,-2,-12,127,54,98,49,53,-54,50, 
  /* [20][0][][] */ 63,-13,12,78,-54,25,-13,44,-40,-4,-127,-21,93,-22,63,6, 
  /* [21][0][][] */ -106,-127,-29,114,-19,22,-117,38,63,-2,30,48,2,25,-116,14, 
  /* [22][0][][] */ 1,-52,-47,-5,127,22,-68,97,93,125,39,105,-18,72,17,4, 
  /* [23][0][][] */ -51,15,-27,5,52,59,127,98,-3,101,-28,-21,-14,19,-95,-29, 
  /* [24][0][][] */ 12,-99,36,33,127,47,103,-41,90,30,54,42,-77,31,1,-16, 
  /* [25][0][][] */ 127,-32,79,0,42,-15,-9,76,120,-42,-73,-8,102,-78,51,14, 
  /* [26][0][][] */ 23,17,127,62,74,28,-42,-1,29,86,-34,108,70,-41,34,-45, 
  /* [27][0][][] */ -50,46,-73,4,-18,108,19,-112,20,-55,117,38,41,-39,127,118, 
  /* [28][0][][] */ -5,31,-65,-127,11,-75,4,-85,-106,81,-67,10,4,35,-12,54, 
  /* [29][0][][] */ 72,98,-56,18,43,31,-37,-12,53,26,26,65,-127,1,-28,82, 
  /* [30][0][][] */ -40,106,-91,-82,34,-34,-5,43,-126,66,-127,-48,52,63,-23,114, 
  /* [31][0][][] */ 54,-95,104,32,50,-118,-117,20,-54,5,44,-32,-87,48,55,127, 
  /* [32][0][][] */ -64,89,5,49,-127,91,9,55,26,-121,3,-107,19,44,35,94, 
  /* [33][0][][] */ -91,-18,71,93,-11,6,-65,20,-47,-55,17,-23,-7,-24,13,127, 
  /* [34][0][][] */ -8,-1,-76,-58,37,-14,-9,54,9,9,4,5,-40,-6,-19,127, 
  /* [35][0][][] */ 47,0,40,-29,4,26,-80,-47,-33,-127,-72,33,5,-32,35,-21, 
  /* [36][0][][] */ -11,-29,-127,-15,-14,117,-20,32,11,4,59,21,67,16,-44,52, 
  /* [37][0][][] */ 35,20,60,-38,63,-127,22,-30,-114,50,-89,-26,10,16,99,51, 
  /* [38][0][][] */ -40,127,14,-78,59,13,82,-92,-6,-13,-100,55,-63,-96,-93,34, 
  /* [39][0][][] */ 91,12,-127,-69,-28,14,20,-54,-5,5,12,-26,79,0,-84,-66, 
  /* [40][0][][] */ -65,-7,-69,-69,-80,-15,-6,-127,-9,13,-21,-58,52,91,51,81, 
  /* [41][0][][] */ -32,-84,-34,127,-10,-6,-58,-13,-18,-49,70,-72,-73,13,3,51, 
  /* [42][0][][] */ -25,56,-29,-127,15,24,21,-15,54,-19,-33,14,78,-14,-34,8, 
  /* [43][0][][] */ -13,52,12,9,108,21,17,21,13,32,-22,-85,-127,-50,-15,-26, 
  /* [44][0][][] */ 90,-12,27,10,-26,-47,24,25,36,-57,13,-1,127,1,-79,-32, 
  /* [45][0][][] */ 11,-104,-98,27,-67,-127,-19,55,32,-34,17,2,-100,118,37,-53, 
  /* [46][0][][] */ -32,-95,64,89,-6,-13,-125,92,35,-52,43,-50,42,110,69,127, 
  /* [47][0][][] */ -45,-70,17,74,-6,-30,59,10,-24,-67,-127,-34,34,-39,-53,41, 
  /* [48][0][][] */ -127,72,-13,-26,-8,53,4,-101,24,-32,40,-65,56,-99,-30,8, 
  /* [49][0][][] */ -59,-13,36,-30,9,-7,97,127,-32,-26,19,29,-44,38,-45,24, 
  /* [50][0][][] */ 37,21,-74,26,53,-118,-33,1,-81,48,-47,12,23,-66,-127,-49, 
  /* [51][0][][] */ -51,50,-25,97,-29,48,-59,-67,-70,-85,-7,-72,8,15,5,127, 
  /* [52][0][][] */ -127,-4,26,-18,36,35,72,6,1,-87,-48,-46,-77,-58,-118,-4, 
  /* [53][0][][] */ -49,-63,-49,-127,-32,-16,15,87,34,-45,-46,-2,-11,23,61,78, 
  /* [54][0][][] */ 24,-37,11,10,-44,36,34,-13,-38,-84,62,18,-29,-33,-127,17, 
  /* [55][0][][] */ -16,-17,-20,42,62,-50,76,40,-41,-53,-127,-13,39,-33,-41,34, 
  /* [56][0][][] */ 13,-27,-99,-10,-127,8,-42,-13,-10,12,-17,7,79,-28,-1,54, 
  /* [57][0][][] */ -49,22,32,-48,122,37,38,23,-52,6,9,7,-53,94,-127,-45, 
  /* [58][0][][] */ 36,24,-2,-27,42,-19,-73,-57,17,-127,-51,18,-71,-30,-27,64, 
  /* [59][0][][] */ -74,7,-31,-2,4,57,-88,-33,53,127,-52,22,8,30,-9,25, 
  /* [60][0][][] */ 11,-53,-1,23,-127,-33,41,10,-11,22,-13,22,-7,-48,27,23, 
  /* [61][0][][] */ 8,42,-107,-7,-49,-43,-127,-60,-33,-15,64,118,51,-39,89,76, 
  /* [62][0][][] */ 22,-9,37,-8,21,30,64,127,-56,114,25,58,3,6,62,119, 
  /* [63][0][][] */ 34,-120,-11,-7,-58,21,45,-14,2,-14,-6,5,-25,127,117,35, 
  /* [64][0][][] */ -44,-17,-101,-35,12,61,43,-3,5,-32,29,-5,66,-20,-57,127, 
  /* [65][0][][] */ -16,-28,89,59,68,-45,66,105,-37,-30,-127,-84,36,97,-27,-41, 
  /* [66][0][][] */ -62,-109,-9,-94,-84,-127,57,-47,4,-27,26,74,-63,-39,-92,98, 
  /* [67][0][][] */ -30,-127,-111,-23,-81,105,4,-105,-89,-9,-16,-72,20,25,-42,60, 
  /* [68][0][][] */ 127,7,38,1,-40,-15,-64,-40,-48,-110,-20,3,55,-2,47,-76, 
  /* [69][0][][] */ 57,0,54,-24,11,-36,-65,26,-4,127,-32,18,2,22,58,-48, 
  /* [70][0][][] */ 50,5,-17,32,-99,60,-7,-113,110,127,-5,87,56,-19,-17,27, 
  /* [71][0][][] */ 103,-121,95,107,-93,-35,-9,17,127,41,-55,86,120,-68,41,121, 
  /* [72][0][][] */ -24,-45,36,95,22,6,-127,87,63,13,49,-2,-33,-54,-49,82, 
  /* [73][0][][] */ 80,-9,72,-107,35,-127,-66,39,7,102,-49,19,42,-74,59,-44, 
  /* [74][0][][] */ 102,4,30,61,-127,-2,56,18,-92,-43,13,-63,31,-60,-5,30, 
  /* [75][0][][] */ 85,127,-76,13,46,38,-45,-56,-63,-30,16,53,-91,57,65,65, 
  /* [76][0][][] */ -50,-33,7,-14,-59,-10,77,-12,-77,41,84,58,-49,-127,-13,92, 
  /* [77][0][][] */ -119,127,-26,12,-62,-122,89,114,106,-94,-31,100,-76,18,-18,106, 
  /* [78][0][][] */ 127,54,-63,27,-89,31,-106,-40,-23,-11,-67,13,13,-110,51,72, 
  /* [79][0][][] */ -62,2,127,41,-15,-63,-34,-42,-42,-4,35,3,-60,115,-67,39, 
  /* [80][0][][] */ 64,127,27,-118,25,59,62,-2,4,25,-28,19,78,-23,16,-29, 
  /* [81][0][][] */ 25,-43,10,-127,121,35,-28,88,75,66,3,-25,-35,29,-97,-53, 
  /* [82][0][][] */ 72,45,92,-16,122,-102,44,37,-3,94,-18,16,16,-24,58,-127, 
  /* [83][0][][] */ -43,93,37,-17,48,127,125,89,8,102,-56,-49,-47,106,-55,-95, 
  /* [84][0][][] */ 0,-83,13,106,32,-99,-74,34,-76,49,-50,0,-127,65,-5,-82, 
  /* [85][0][][] */ -83,90,-22,4,-26,-74,-49,-70,-10,79,-1,-50,-127,-51,-30,46, 
  /* [86][0][][] */ 4,67,127,121,46,-50,43,-3,22,64,-69,-92,26,61,-116,-86, 
  /* [87][0][][] */ -41,30,127,-28,-99,-15,33,9,46,-1,6,37,-34,24,-12,19, 
  /* [88][0][][] */ -19,-63,-69,22,48,26,-9,21,-18,-36,-104,-95,127,-21,26,31, 
  /* [89][0][][] */ 43,27,-29,-127,-5,-77,-50,56,90,-34,55,-97,-26,-33,64,-48, 
  /* [90][0][][] */ 16,66,40,34,-38,37,43,102,-2,-53,-5,127,62,15,-38,83, 
  /* [91][0][][] */ -46,-15,-25,111,126,79,-28,-74,-27,62,-19,-3,-109,-127,-39,-14, 
  /* [92][0][][] */ -23,60,9,-31,-127,-26,-74,59,-35,25,79,72,-15,-22,61,-13, 
  /* [93][0][][] */ 100,80,127,21,-65,-63,41,22,-62,-78,-35,-59,28,-34,-28,-53, 
  /* [94][0][][] */ -12,-123,34,-127,25,67,-1,-11,108,-24,-17,82,29,42,-82,41, 
  /* [95][0][][] */ -41,-85,-46,-68,127,120,-44,46,89,86,-86,77,-49,122,-59,30, 
};
const TfArray<4, int> tensor_dimension13 = { 4, { 96,1,1,16 } };
const TfArray<96, float> quant13_scale = { 96, { 0.0024070767685770988, 0.0028603400569409132, 0.0024493320379406214, 0.0027647688984870911, 0.0021614315919578075, 0.0017672022804617882, 0.0019835168495774269, 0.0024984923657029867, 0.0029491216409951448, 0.0020527257584035397, 0.0028494345024228096, 0.0015730396844446659, 0.0026877510827034712, 0.0037499940954148769, 0.002121682045981288, 0.0023768411483615637, 0.0020807436667382717, 0.0021022334694862366, 0.002261478453874588, 0.0027844973374158144, 0.002602794673293829, 0.00089133530855178833, 0.0010697589023038745, 0.0021941282320767641, 0.0023113687057048082, 0.0023420576471835375, 0.0013443328207358718, 0.0027854582294821739, 0.0028288692701607943, 0.0025267768651247025, 0.0012797871604561806, 0.0020903653930872679, 0.0015172029379755259, 0.003414402948692441, 0.0026521252002567053, 0.0023738814052194357, 0.0030465107411146164, 0.002285773167386651, 0.0017046104185283184, 0.0037689388263970613, 0.0030225254595279694, 0.0027662506327033043, 0.0035885355900973082, 0.0036250762641429901, 0.0043986574746668339, 0.0018197298049926758, 0.0017017670907080173, 0.0032826652750372887, 0.0028481939807534218, 0.003759684506803751, 0.0025408915244042873, 0.0027108376380056143, 0.0025065853260457516, 0.0041902819648385048, 0.0038477641064673662, 0.0037473223637789488, 0.0037249987944960594, 0.0024305232800543308, 0.0016895222943276167, 0.0027950885705649853, 0.0029585761949419975, 0.001818483229726553, 0.0026673469692468643, 0.0032486584968864918, 0.0030735104810446501, 0.0023593222722411156, 0.0018649476114660501, 0.0034682413097470999, 0.0021086195483803749, 0.0030230428092181683, 0.0015679456992074847, 0.0020281607285141945, 0.00295682018622756, 0.0024380271788686514, 0.0029931394383311272, 0.0021803840063512325, 0.0030180127359926701, 0.0017980787670239806, 0.0029680398292839527, 0.0025142929516732693, 0.0021634346339851618, 0.0024452628567814827, 0.0018125602509826422, 0.0021739858202636242, 0.0019669195171445608, 0.0024567542131990194, 0.002990788547322154, 0.0040440838783979416, 0.0013360209995880723, 0.0036879843100905418, 0.0045544910244643688, 0.0015917825512588024, 0.001437998958863318, 0.0028404551558196545, 0.003981439396739006, 0.0022165286354720592, } };
const TfArray<96, int> quant13_zero = { 96, { 0,0,0,0,0,0,0,0,0,0,0,0,0,0,0,0,0,0,0,0,0,0,0,0,0,0,0,0,0,0,0,0,0,0,0,0,0,0,0,0,0,0,0,0,0,0,0,0,0,0,0,0,0,0,0,0,0,0,0,0,0,0,0,0,0,0,0,0,0,0,0,0,0,0,0,0,0,0,0,0,0,0,0,0,0,0,0,0,0,0,0,0,0,0,0,0 } };
const TfLiteAffineQuantization quant13 = { (TfLiteFloatArray*)&quant13_scale, (TfLiteIntArray*)&quant13_zero, 0 };
const ALIGN(16) int32_t tensor_data14[16] = { -27165, -7319, 1552, -16716, 12331, -9335, 19851, -6151, 12309, -7079, 10643, 16576, -3380, -25547, -1670, 7952, };
const TfArray<1, int> tensor_dimension14 = { 1, { 16 } };
const TfArray<16, float> quant14_scale = { 16, { 6.1802857089787722e-05, 7.4722200224641711e-05, 3.8178543036337942e-05, 7.1623500843998045e-05, 9.5226256235036999e-05, 0.00017738989845383912, 5.3137060604058206e-05, 7.7873963164165616e-05, 0.00011600631842156872, 0.00012514062109403312, 7.8048215073067695e-05, 8.3945044025313109e-05, 7.670163904549554e-05, 0.00013480489724315703, 6.2711616919841617e-05, 7.6365162385627627e-05, } };
const TfArray<16, int> quant14_zero = { 16, { 0,0,0,0,0,0,0,0,0,0,0,0,0,0,0,0 } };
const TfLiteAffineQuantization quant14 = { (TfLiteFloatArray*)&quant14_scale, (TfLiteIntArray*)&quant14_zero, 0 };
const ALIGN(16) int8_t tensor_data15[16*1*1*96] = { 
  /* [0][0][][] */ 41,29,-2,24,-9,-90,-12,6,-28,-80,21,-13,72,-65,61,56,-87,-18,22,5,102,17,-78,13,5,81,127,82,1,87,58,-40,-2,3,-6,-35,49,29,-7,-8,125,23,40,-20,-4,-3,8,-52,18,-51,88,-13,-83,-3,54,35,-13,-46,4,6,-1,38,-85,-17,5,-4,58,26,-2,-32,5,39,20,67,8,45,62,-33,52,15,-11,51,61,35,-63,8,-8,79,11,1,-98,-3,27,19,114,87, 
  /* [1][0][][] */ 33,49,-34,-10,8,-45,97,-70,-72,-29,-50,-56,-3,-39,13,-48,-19,-22,-37,1,-12,-108,127,-32,15,10,15,58,-47,14,-50,41,-65,23,19,-2,-12,55,-31,93,27,20,-1,-51,74,-77,4,18,-72,-6,49,-121,-55,58,60,59,57,27,-80,21,-35,-26,3,-7,32,31,89,25,-62,-117,10,3,36,70,-25,28,-66,-29,84,-37,57,-32,62,-57,-21,-34,-23,0,-32,-28,26,11,65,-66,-42,69, 
  /* [2][0][][] */ 2,-6,-6,-10,71,54,-57,28,-37,48,0,-20,30,0,1,43,26,-23,-127,4,-17,-30,-5,29,-3,-13,-61,26,-37,-15,-11,71,-23,-34,3,21,-45,34,-10,-41,77,9,11,39,7,53,11,-4,-79,18,-21,24,-34,63,8,-60,13,26,46,12,-17,3,-27,49,36,-9,-30,5,-5,2,-4,-34,19,56,35,74,-57,-20,-45,-33,35,32,67,-2,-10,-47,-31,-54,-22,-34,-10,80,-1,3,77,-28, 
  /* [3][0][][] */ 46,-31,-10,-118,-18,-20,81,-39,44,106,-71,-9,21,-15,-34,53,47,32,-8,21,-56,14,11,3,-38,79,13,6,-40,-21,-63,57,10,-21,23,-28,-1,-54,-1,48,8,17,-9,42,50,-62,6,41,48,-22,8,-37,90,57,5,9,-14,-16,-10,-33,-27,23,48,-9,-20,-25,127,-13,-32,-7,-44,27,17,-51,-1,-61,22,-46,115,7,-18,-39,-21,-34,-39,-20,63,66,-32,46,-58,20,16,-80,-28,41, 
  /* [4][0][][] */ -38,63,54,40,-23,20,-38,-18,18,-36,4,-4,11,58,-6,14,-21,-53,-18,-75,16,-23,-72,11,-35,-48,-31,12,-40,127,-51,-16,-2,-25,8,-43,67,48,-34,9,16,8,24,-47,-68,-6,57,-32,24,-12,-40,-2,-81,37,65,27,16,61,-14,43,-37,-77,-28,-4,57,26,-62,-19,-7,19,16,-85,-29,58,63,57,-43,44,-59,42,10,83,17,-66,46,-73,-31,-83,-38,-73,-53,-16,7,26,43,-33, 
  /* [5][0][][] */ -1,-21,36,-13,-12,0,-28,4,27,10,-12,-5,-14,-23,28,-22,-14,-17,-51,-37,-32,4,-15,7,27,-57,59,-30,0,39,4,64,-6,-80,24,9,-50,-38,-32,6,-45,-15,-32,0,-5,7,-76,21,-19,26,57,-11,32,-62,5,15,-13,-58,-24,-22,38,31,22,49,-35,-3,105,-37,-10,-22,13,14,-4,13,37,20,3,-5,127,43,-30,-11,-52,28,40,72,6,89,3,-35,-10,-1,7,-16,-34,9, 
  /* [6][0][][] */ 37,-66,70,31,-28,112,-60,-58,-42,-68,-95,50,-6,19,-27,118,8,22,-8,-58,-127,-15,-70,-79,8,-75,-9,78,-123,58,13,-34,34,81,-39,-7,-14,-31,1,-8,-59,18,51,-43,-9,32,-88,-10,37,18,-62,-90,74,1,-49,-3,34,-30,-3,13,3,-30,28,23,58,-76,-72,-81,-100,17,-8,-75,-19,-92,18,-77,96,36,-44,46,-36,77,32,-93,71,-51,-22,0,-58,65,-91,60,20,-37,77,-121, 
  /* [7][0][][] */ -31,-3,-58,56,-1,6,22,1,-70,-1,68,64,11,-59,12,-18,-20,-19,20,-15,-69,-4,-46,-46,68,40,8,50,17,32,17,20,-47,-127,32,109,-17,13,-42,7,1,-24,4,-60,15,58,75,80,-18,51,-22,20,14,-46,25,-30,-25,47,-64,-23,48,14,5,-32,66,-41,85,4,-56,-40,75,-29,4,-40,-61,-33,39,-45,69,-14,-12,-4,-76,-24,33,14,-83,38,6,0,6,23,53,10,69,2, 
  /* [8][0][][] */ -8,-55,-3,16,-9,4,28,-16,-10,-1,53,56,11,32,-43,-9,79,-7,-5,11,-1,-86,-30,2,-22,-32,60,20,-14,44,-2,-27,-21,14,16,10,-44,-18,27,-46,-15,62,7,-51,18,-26,9,-19,47,12,56,-2,3,16,-45,-2,-32,111,-64,31,-8,-62,-72,-6,-98,-28,-11,19,-6,24,27,-22,-11,-127,54,-92,-3,15,-71,13,-29,-10,6,60,72,-70,-57,56,-49,97,18,-27,-35,-4,7,-64, 
  /* [9][0][][] */ -22,-46,-29,17,-7,38,-4,41,-32,-4,49,66,-32,40,17,-49,-4,24,-36,-35,8,42,-4,4,-12,27,-6,23,27,-13,20,-6,-27,-10,23,39,-25,-8,26,6,-12,-32,27,-17,-6,41,-8,51,-14,19,-2,41,126,12,-25,-13,5,-22,34,27,-28,16,64,8,14,11,76,-14,37,-2,-5,17,-6,-127,-34,-118,-19,-7,37,14,-31,18,-15,-39,36,7,-50,8,5,84,28,14,50,36,-15,17, 
  /* [10][0][][] */ 30,39,11,-13,-25,25,-49,-6,58,7,-38,22,21,8,-2,-41,-28,-1,21,6,21,-22,0,-33,39,-11,-95,46,-9,56,-4,9,10,17,-19,-1,13,0,10,11,36,-15,54,-50,-16,-23,18,29,-2,8,12,-29,-18,-4,-6,34,-6,-9,-10,11,-13,-38,-8,22,0,-5,-88,-25,-59,-8,56,-13,-31,20,31,15,58,-22,-74,19,-18,31,-2,-1,3,19,-75,-127,-17,36,3,4,45,-48,5,28, 
  /* [11][0][][] */ 41,-64,4,13,-53,47,12,26,81,-18,-29,-46,15,15,13,-1,-14,48,-12,-63,6,19,15,-36,27,3,54,-8,40,-51,-24,16,7,109,-98,21,25,-4,63,21,-63,47,-36,5,-52,-20,-20,5,36,-17,-18,-16,-15,12,-76,79,-16,-6,-24,-49,15,4,-17,-71,-13,-53,-127,-107,0,-38,-78,21,53,8,-10,-27,36,57,-110,-30,-13,-7,-21,-3,-19,-28,48,84,15,-53,2,-14,-36,41,81,26, 
  /* [12][0][][] */ 18,26,-52,-30,23,-32,-15,38,51,-42,0,-1,13,-22,-26,18,16,-51,-20,12,-8,53,-4,75,-16,-24,-127,-14,58,-24,27,1,-27,-91,79,-9,24,-13,3,30,-14,-67,46,42,31,7,5,-4,-58,-13,-45,111,81,-48,17,-100,8,21,-42,-39,28,59,69,17,-12,-29,28,50,121,15,17,40,27,-31,-20,3,-27,-40,39,-64,19,-67,43,-42,-3,-14,-11,-100,0,29,-50,30,18,59,14,44, 
  /* [13][0][][] */ -15,15,-73,40,33,14,-25,0,28,59,-29,41,-50,-30,77,-64,16,38,31,22,-50,-43,-5,-1,72,33,-19,13,12,24,53,-19,-22,41,-9,49,8,-54,-52,-27,4,-9,29,13,24,51,-18,49,-31,36,5,13,-17,-37,42,36,20,-36,-11,15,28,10,1,6,18,77,127,29,12,-18,-26,-35,8,35,-84,46,35,-74,104,-12,-27,-42,12,10,12,54,-46,-30,3,-19,2,34,36,13,46,44, 
  /* [14][0][][] */ -14,73,13,34,-67,-47,36,34,-65,-17,68,11,-94,9,53,-21,-39,57,-75,26,-15,48,-101,3,-48,13,-50,-107,2,0,36,102,-66,32,8,-15,-14,-63,7,-47,26,-37,45,-30,0,44,-63,26,19,-48,72,33,-30,10,-35,34,-69,47,24,30,29,74,-13,43,10,-42,19,-69,37,48,69,34,-61,42,10,24,26,10,45,8,-83,127,16,-125,88,5,-23,4,-121,-25,-31,3,-30,13,57,38, 
  /* [15][0][][] */ 49,-42,13,22,30,8,-14,-5,5,29,-56,2,55,65,-9,-22,-14,-6,-82,29,-10,-14,0,20,46,-49,88,23,42,-36,-32,57,70,39,-11,-54,49,70,48,58,90,14,-14,17,-52,-99,29,-38,-38,-27,-15,10,11,-53,-40,36,-18,-1,-7,25,-14,-37,-26,24,25,35,-57,41,9,-46,-14,0,1,-127,-53,-104,-16,25,-116,33,60,-31,28,26,-51,-22,2,-11,42,77,15,-85,-22,-33,30,-37, 
};
const TfArray<4, int> tensor_dimension15 = { 4, { 16,1,1,96 } };
const TfArray<16, float> quant15_scale = { 16, { 0.0026266213972121477, 0.0031756935641169548, 0.0016225880244746804, 0.0030439987313002348, 0.0040471157990396023, 0.0075390706770122051, 0.00225832499563694, 0.0033096433617174625, 0.004930268507450819, 0.005318476352840662, 0.0033170490060001612, 0.0035676644183695316, 0.0032598194666206837, 0.0057292082346975803, 0.0026652438100427389, 0.0032455194741487503, } };
const TfArray<16, int> quant15_zero = { 16, { 0,0,0,0,0,0,0,0,0,0,0,0,0,0,0,0 } };
const TfLiteAffineQuantization quant15 = { (TfLiteFloatArray*)&quant15_scale, (TfLiteIntArray*)&quant15_zero, 0 };
const ALIGN(16) int32_t tensor_data16[96] = { 7246, 383, -2478, 3963, -2601, 2210, 1267, -2452, 5246, -5005, -219, -4395, 8568, -3696, -1261, -4756, -139, -1560, -7895, -1441, -2209, 1171, -3982, -468, 39, 6139, -10677, -4358, -2195, -2673, 3176, -578, 18829, 332, -2136, -1806, -1522, 8424, 8837, 9875, 454, 2628, -3547, 2312, 113, -2034, 11218, 7364, -3160, -635, -3226, 1294, -832, -737, -3690, 1352, -2664, 2709, 1230, 4207, -394, -762, 3188, 8008, 15761, -1237, 15452, 10543, -2520, 1241, 6899, -1325, -131, 159, -2647, -3861, 21148, 4693, 9502, 16734, 12159, -570, 13596, 12510, -429, -389, 5075, -4765, 5873, -1138, -5148, -2251, -1141, 1047, 23406, -2481, };
const TfArray<1, int> tensor_dimension16 = { 1, { 96 } };
const TfArray<96, float> quant16_scale = { 96, { 0.00013811292592436075, 0.00044280957081355155, 0.00030385615536943078, 0.00033122228342108428, 0.000165692123118788, 0.00056865467922762036, 8.2267477409914136e-05, 0.00022180030646268278, 0.00032801870838738978, 0.0001750056107994169, 0.00034965309896506369, 0.00018774972704704851, 9.4972594524733722e-05, 8.712857379578054e-05, 0.00027382755069993436, 0.00023649672220926732, 0.00026219303254038095, 0.00031513546127825975, 0.00018486255430616438, 0.00043279508827254176, 0.00020638719433918595, 0.00027165256324224174, 0.00020046067947987467, 0.00019939814228564501, 0.0025921894703060389, 0.00018812280904967338, 0.000264685571892187, 0.00017751810082700104, 0.00039711425779387355, 0.00016752188093960285, 0.00014272019325289875, 0.00033226606319658458, 0.00012127894297009334, 0.0006312826881185174, 0.00014587615441996604, 0.00022946925309952348, 0.00038651935756206512, 0.00019008765229955316, 0.00010872895654756576, 9.4082664872985333e-05, 0.00056864827638491988, 0.0002593555545900017, 0.00024556773132644594, 0.00026312546106055379, 0.00022337908740155399, 0.00030998967122286558, 0.00012762249389197677, 0.00019330864597577602, 0.00013598466466646641, 0.00034298791433684528, 0.0002907027374021709, 0.00027218140894547105, 0.00015624615480192006, 0.00091843074187636375, 0.00023519083333667368, 0.00028975741588510573, 0.0001538436918053776, 0.0005951549974270165, 0.00044998308294452727, 0.00033304639509879053, 0.00028676085639744997, 0.00026855766191147268, 0.00017950708570424467, 9.5279734523501247e-05, 0.00021288235438987613, 0.0005108267068862915, 0.00010001379996538162, 0.00019073889416176826, 0.000333234085701406, 0.00054183584870770574, 0.00013438700989354402, 0.00033054864616133273, 0.00040611354052089155, 0.0001840481418184936, 0.00012338539818301797, 0.00018785675638355315, 5.1958442782051861e-05, 0.00028586440021172166, 0.00015177678142208606, 0.00011805748363258317, 0.00014827458653599024, 0.00026867826818488538, 0.00011858857033075765, 0.00028700378607027233, 9.3619513791054487e-05, 0.00047081767115741968, 0.00022373383399099112, 0.00023377730394713581, 0.00016074533050414175, 0.00028236076468601823, 0.00017868480063043535, 0.00036290567368268967, 0.00032218472915701568, 0.00021986161300446838, 9.5785013400018215e-05, 0.00038170200423337519, } };
const TfArray<96, int> quant16_zero = { 96, { 0,0,0,0,0,0,0,0,0,0,0,0,0,0,0,0,0,0,0,0,0,0,0,0,0,0,0,0,0,0,0,0,0,0,0,0,0,0,0,0,0,0,0,0,0,0,0,0,0,0,0,0,0,0,0,0,0,0,0,0,0,0,0,0,0,0,0,0,0,0,0,0,0,0,0,0,0,0,0,0,0,0,0,0,0,0,0,0,0,0,0,0,0,0,0,0 } };
const TfLiteAffineQuantization quant16 = { (TfLiteFloatArray*)&quant16_scale, (TfLiteIntArray*)&quant16_zero, 0 };
const ALIGN(16) int8_t tensor_data17[1*3*3*96] = { 
  /* [0][0][][] */ -3,-8,-23,12,122,-7,64,8,-17,11,-9,-12,-13,-9,3,-3,-23,4,8,-4,1,21,51,29,-7,-21,-38,6,33,9,21,13,-67,2,18,-8,-4,-54,-57,-25,1,-2,81,-3,-16,40,-68,-34,-20,36,-14,59,-46,-5,37,-12,23,-19,6,-23,-2,-8,-45,-12,-47,-29,-44,-41,-10,9,7,-3,29,-4,22,41,2,18,127,-25,-82,14,-127,-14,-29,-21,12,18,-13,-24,9,-31,1,19,-26,24, 9,12,87,-114,-38,-6,92,-62,-13,-8,-33,44,-72,23,-105,48,-16,112,80,-31,3,127,54,127,29,-10,60,54,127,32,127,-37,-73,-15,-95,-12,-2,-127,127,-82,-32,-99,-17,-35,49,-29,-56,-22,73,1,15,122,-99,10,-74,-3,-52,-18,-1,17,-26,-127,-127,-53,-82,5,7,-97,1,13,-41,113,-127,2,15,-5,-95,-127,-9,-101,-127,-6,-1,-77,90,84,-31,25,-127,0,33,-19,17,127,-66,-72, -40,-26,-52,38,65,1,50,-10,-29,5,-1,17,-17,9,26,-70,-15,-6,-27,-20,-3,-11,-13,39,-21,23,-12,-17,-6,9,-4,-9,11,-8,-28,71,-5,-10,-94,45,6,63,43,-6,-18,-18,-62,-40,-20,2,-7,47,10,-26,3,-30,91,-25,-14,-40,-29,-4,-52,-1,-51,-27,127,-26,-5,14,22,20,16,10,0,20,-16,10,-25,-48,-63,-21,-109,-29,11,-69,12,-1,-73,-24,-7,24,4,13,-52,8, 
  /* [0][1][][] */ -82,-3,13,-71,76,73,-15,-23,-12,-7,-28,-4,-126,26,35,58,-6,43,63,37,25,-17,93,-51,43,55,51,16,1,-2,-34,-11,-98,-15,72,-8,-7,-107,-125,-127,-18,34,123,-29,-46,127,-92,-102,6,85,5,-43,-111,41,94,-22,33,-21,23,-23,26,-22,50,-85,-51,14,-35,-87,-8,-12,-60,27,78,110,29,-72,-107,-19,-59,-41,-55,-2,-46,-68,30,18,-127,40,-32,127,73,-47,127,-4,-64,8, 66,127,127,127,-127,-127,127,-62,127,127,-72,-58,-127,127,-49,61,127,-127,127,127,127,-92,127,-113,-127,-127,127,127,-99,127,-55,127,-127,127,127,-112,127,49,24,-69,127,-27,-127,-92,127,-19,120,121,127,-127,127,-127,93,127,-117,127,-115,127,-127,127,-95,104,94,-127,127,127,-11,127,-105,-127,-65,-127,0,127,127,124,-22,-12,74,-127,29,127,67,127,127,80,-73,127,-5,51,-38,2,-74,-34,-127,-23, -127,-26,-25,-87,22,45,-76,11,-38,-23,-2,127,-112,47,37,28,-36,52,63,9,21,-33,106,7,37,7,44,31,-21,-8,1,-8,-93,-42,85,127,10,-48,-127,-24,-34,-19,33,-13,-70,-57,-127,-127,52,64,-3,-36,127,16,127,-41,127,-35,35,-63,-10,-39,-108,-43,-81,6,-58,-64,7,2,-127,14,24,-90,-2,127,-127,-45,-58,-17,-38,-32,-70,-95,5,24,-98,45,-42,-65,127,127,-44,-35,-100,-8, 
  /* [0][2][][] */ -40,-35,-15,22,46,0,-24,31,-18,10,32,-16,96,24,-19,6,17,-11,-42,-18,-5,-2,-19,-34,0,-20,18,14,5,-2,-40,7,-15,0,24,-21,-2,-7,-49,-15,-18,46,27,14,15,15,-65,-19,-112,-9,-6,-15,-37,-28,32,-5,25,-13,-3,-28,10,44,9,-21,-49,-21,127,-1,25,22,-5,6,-19,1,0,-22,-26,37,-33,-38,-35,17,-96,-23,-5,-3,70,-15,36,6,-39,-8,-12,-8,-31,0, -27,-53,11,-99,-36,-9,51,127,-67,75,127,-24,-58,56,127,127,4,-35,60,-52,-1,-35,97,27,9,-19,44,-20,5,4,-108,-46,-73,-30,-96,0,-77,-48,78,-107,-29,-127,-51,127,31,-16,-49,-21,40,-3,-7,-26,27,13,-46,-37,-46,-48,47,-73,127,50,79,-2,-113,-49,-23,-55,127,26,-66,11,39,-7,20,-20,-36,-37,-14,26,-99,-12,-94,-106,31,-127,23,-2,10,-5,40,0,17,-111,-66,127, 9,9,-23,64,20,-13,-3,18,-32,1,-2,47,97,32,-38,-33,-3,2,-20,-23,-4,4,34,3,-21,-5,9,-14,-4,11,-48,8,-17,3,12,-16,4,35,-74,67,-40,11,32,2,1,-2,-19,-7,-45,13,-14,-21,15,-20,25,7,45,-7,-3,-37,-8,29,-39,-21,-8,-14,-9,20,34,0,9,-12,-41,-47,-25,-4,18,34,77,-46,8,-2,-29,-1,1,20,81,-8,32,4,4,5,-12,-10,-44,-20, 
};
const TfArray<4, int> tensor_dimension17 = { 4, { 1,3,3,96 } };
const TfArray<96, float> quant17_scale = { 96, { 0.0058697992935776711, 0.018819406628608704, 0.012913886457681656, 0.014076946303248405, 0.0070419153198599815, 0.024167822673916817, 0.0034963677171617746, 0.0094265127554535866, 0.013940794393420219, 0.0074377385899424553, 0.01486025657504797, 0.0079793632030487061, 0.0040363352745771408, 0.0037029644008725882, 0.011637670919299126, 0.01005111075937748, 0.01114320382475853, 0.013393256813287735, 0.0078566586598753929, 0.018393790349364281, 0.0087714558467268944, 0.011545233428478241, 0.0085195787250995636, 0.0084744207561016083, 0.11016804724931717, 0.0079952189698815346, 0.011249136179685593, 0.0075445189140737057, 0.016877355054020882, 0.0071196798235177994, 0.0060656080022454262, 0.014121307991445065, 0.0051543549634516239, 0.026829512789845467, 0.0061997366137802601, 0.0097524430602788925, 0.016427071765065193, 0.0080787250772118568, 0.0046209804713726044, 0.0039985133334994316, 0.024167550727725029, 0.01102261058986187, 0.010436628945171833, 0.011182831600308418, 0.0094936108216643333, 0.013174560852348804, 0.0054239556193351746, 0.0082156173884868622, 0.0057793483138084412, 0.014576985500752926, 0.012354865670204163, 0.011567709036171436, 0.0066404612734913826, 0.039033304899930954, 0.0099956104531884193, 0.0123146902769804, 0.0065383566543459892, 0.025294087827205658, 0.019124280661344528, 0.014154471457004547, 0.012187335640192032, 0.011413700878620148, 0.0076290508732199669, 0.0040493886917829514, 0.0090474998578429222, 0.021710135042667389, 0.0042505864985287189, 0.0081064030528068542, 0.014162448234856129, 0.023028023540973663, 0.0057114479131996632, 0.014048317447304726, 0.017259825021028519, 0.0078220460563898087, 0.0052438792772591114, 0.0079839117825031281, 0.0022082338109612465, 0.012149237096309662, 0.0064505133777856827, 0.0050174430944025517, 0.0063016698695719242, 0.011418825946748257, 0.0050400141626596451, 0.012197660282254219, 0.0039788293652236462, 0.020009750500321388, 0.0095086880028247833, 0.0099355354905128479, 0.0068316766992211342, 0.012000332586467266, 0.0075941039249300957, 0.015423490665853024, 0.01369285024702549, 0.0093441186472773552, 0.0040708631277084351, 0.016222335398197174, } };
const TfArray<96, int> quant17_zero = { 96, { 0,0,0,0,0,0,0,0,0,0,0,0,0,0,0,0,0,0,0,0,0,0,0,0,0,0,0,0,0,0,0,0,0,0,0,0,0,0,0,0,0,0,0,0,0,0,0,0,0,0,0,0,0,0,0,0,0,0,0,0,0,0,0,0,0,0,0,0,0,0,0,0,0,0,0,0,0,0,0,0,0,0,0,0,0,0,0,0,0,0,0,0,0,0,0,0 } };
const TfLiteAffineQuantization quant17 = { (TfLiteFloatArray*)&quant17_scale, (TfLiteIntArray*)&quant17_zero, 3 };
const ALIGN(16) int32_t tensor_data18[96] = { 629, 3731, 246, 1676, 2714, 7004, 79, 1808, 8860, -927, 10051, 1311, 3686, 203, 2012, 66, 1625, 1710, 14, 5538, 416, 4329, -1129, 497, -6065, 1034, 1848, 901, 3470, 442, 2399, 2412, 1642, 9750, 1710, 3441, 1480, 1248, 2356, 1672, 6347, 1446, 2076, 176, 1435, 4428, 4453, 11479, 1129, -658, 854, 3065, 1435, -2079, 3165, -212, 1586, 9917, 1151, 1417, 1806, 3861, 2720, -116, 11182, 9856, 938, 1214, 5610, 3557, 1521, 576, -2291, 2974, 1957, 2127, 328, 6543, 2501, 8128, 2083, 135, 2969, 7389, -374, 7928, 2040, 707, -444, 1247, 572, 6641, 2025, 2245, 3299, 2154, };
const TfArray<1, int> tensor_dimension18 = { 1, { 96 } };
const TfArray<96, float> quant18_scale = { 96, { 0.00043517799349501729, 0.00019847739895340055, 0.00033157807774841785, 0.00028600738733075559, 0.00023472192697227001, 0.00013332683010958135, 0.00025610945886000991, 0.00019708648324012756, 0.00010427537927171215, 0.0001972061290871352, 8.5054227383807302e-05, 0.00032025785185396671, 0.00013444082287605852, 0.0006378847174346447, 0.00029218592680990696, 0.00026801813510246575, 0.0003586130915209651, 0.00035040965303778648, 0.00030166484066285193, 0.00015239269123412669, 0.00046418426791206002, 0.000186503617442213, 0.00025693772477097809, 0.00032985559664666653, 0.00011816027836175635, 0.00022892351262271404, 0.00029296203865669668, 0.00037837505806237459, 0.00022891444677952677, 0.00040255862404592335, 0.00024070619838312268, 0.00021589345124084502, 0.00031807832419872284, 8.5848347225692123e-05, 0.00024512523668818176, 0.00019238708773627877, 0.00035390668199397624, 0.00036805574200116098, 0.0002208299410995096, 0.00027793963090516627, 0.00014096953964326531, 0.00025469949468970299, 0.00024148389638867229, 0.00031437634606845677, 0.00020571463392116129, 0.00019722827710211277, 0.00015609727415721864, 7.2750764957163483e-05, 0.0002772527514025569, 0.00036839590757153928, 0.00050867337267845869, 0.00021709915017709136, 0.00026074127526953816, 0.00023758407041896135, 0.0002277481253258884, 0.00038231909275054932, 0.0001867942773969844, 8.5741288785357028e-05, 0.00018572053522802889, 0.00017943675629794598, 0.0002082869759760797, 0.00020335610315669328, 0.00024185783695429564, 0.00034619306097738445, 8.8538545242045075e-05, 8.9482557086739689e-05, 0.00043398785055615008, 0.00046071544056758285, 0.00013019204197917134, 0.00014678825391456485, 0.00031594635220244527, 0.00032291878596879542, 0.00025022734189406037, 0.00021456532704178244, 0.00020858109928667545, 0.00030552229145541787, 0.0002341046929359436, 0.00012640988279599696, 0.00021630007540807128, 0.00011188201460754499, 0.00018971716053783894, 0.00030667110695503652, 0.00016905016673263162, 0.0001285909820580855, 0.00017502412083558738, 9.8036427516490221e-05, 0.00034539634361863136, 0.00042534616659395397, 0.00033107295166701078, 0.00040845980402082205, 0.0003335094079375267, 0.00011763881047954783, 0.00023902571410872042, 0.00016602012328803539, 0.00016629931633360684, 0.00027553821564652026, } };
const TfArray<96, int> quant18_zero = { 96, { 0,0,0,0,0,0,0,0,0,0,0,0,0,0,0,0,0,0,0,0,0,0,0,0,0,0,0,0,0,0,0,0,0,0,0,0,0,0,0,0,0,0,0,0,0,0,0,0,0,0,0,0,0,0,0,0,0,0,0,0,0,0,0,0,0,0,0,0,0,0,0,0,0,0,0,0,0,0,0,0,0,0,0,0,0,0,0,0,0,0,0,0,0,0,0,0 } };
const TfLiteAffineQuantization quant18 = { (TfLiteFloatArray*)&quant18_scale, (TfLiteIntArray*)&quant18_zero, 0 };
const ALIGN(16) int8_t tensor_data19[96*1*1*16] = { 
  /* [0][0][][] */ 32,1,19,58,-127,-20,66,66,63,76,-42,4,3,-11,51,62, 
  /* [1][0][][] */ -19,13,-66,13,127,97,-1,-7,21,24,-58,44,-20,105,-33,-49, 
  /* [2][0][][] */ -53,89,86,10,84,87,17,57,27,-14,40,-3,74,-127,-18,29, 
  /* [3][0][][] */ 127,-29,20,11,28,29,-8,7,40,24,-62,-7,-32,66,-33,68, 
  /* [4][0][][] */ -26,-43,5,35,-127,21,-74,-30,5,1,4,-37,0,47,-43,98, 
  /* [5][0][][] */ -77,13,20,9,127,16,19,-2,-39,17,-16,9,-37,43,-58,-14, 
  /* [6][0][][] */ -127,22,-30,19,-10,-56,56,16,12,-34,-51,37,9,6,-39,12, 
  /* [7][0][][] */ -5,105,40,-65,50,24,127,16,36,-20,-18,55,97,32,-17,21, 
  /* [8][0][][] */ -37,-25,-65,60,-78,67,-73,-94,38,-31,90,37,104,47,-127,-30, 
  /* [9][0][][] */ -15,-127,-38,85,-44,-37,-20,61,36,35,21,69,-70,8,5,-22, 
  /* [10][0][][] */ 11,-35,-106,29,-127,110,54,-83,-2,-84,68,-27,44,92,-94,97, 
  /* [11][0][][] */ -29,-70,-17,1,19,113,9,-25,4,32,25,-54,2,76,-91,127, 
  /* [12][0][][] */ -17,-117,-117,127,-95,-88,57,70,67,59,-35,93,16,-85,-38,-22, 
  /* [13][0][][] */ -64,-16,-41,-1,-16,-3,34,14,-31,127,1,-16,46,41,15,-3, 
  /* [14][0][][] */ -125,-25,-60,-65,-18,72,-3,-121,127,-69,54,-15,115,-45,-96,-83, 
  /* [15][0][][] */ -9,-127,93,-44,-33,-45,13,60,9,-54,-76,-18,96,-22,-28,-27, 
  /* [16][0][][] */ -3,-39,-3,-32,23,27,-35,-16,53,-127,49,-11,-16,-11,-65,-76, 
  /* [17][0][][] */ -54,13,15,-73,21,-27,-50,-1,80,-69,34,85,127,-79,-31,-119, 
  /* [18][0][][] */ 60,5,-15,-120,6,-26,127,-31,22,46,-15,53,-9,66,-15,-101, 
  /* [19][0][][] */ -68,-37,-28,-104,-100,62,-2,-21,36,-34,12,-127,-21,-32,-49,18, 
  /* [20][0][][] */ 11,59,67,-72,76,4,-33,74,-72,-107,18,-84,-14,127,-17,3, 
  /* [21][0][][] */ 16,-102,-118,-20,83,38,80,83,-78,-96,-36,17,110,-127,3,4, 
  /* [22][0][][] */ 47,-16,93,-14,15,4,83,44,0,127,40,37,-17,7,117,9, 
  /* [23][0][][] */ -127,-62,2,64,53,32,22,-12,-16,39,4,-76,14,97,82,93, 
  /* [24][0][][] */ 4,-31,69,55,36,-127,35,-70,30,119,-122,98,-10,-58,98,-81, 
  /* [25][0][][] */ 116,-53,76,127,11,-1,-19,58,-120,60,62,-83,-35,13,84,-10, 
  /* [26][0][][] */ -23,20,11,42,-58,108,-11,46,-61,-40,-82,32,10,26,48,-127, 
  /* [27][0][][] */ 43,-9,-6,-64,-42,11,-77,-1,-90,-25,-87,-50,-85,43,-28,127, 
  /* [28][0][][] */ -72,9,27,5,26,-9,-127,8,3,-29,-2,-24,20,-60,-73,-42, 
  /* [29][0][][] */ -22,-110,-28,83,-42,9,127,3,81,62,-110,69,29,-27,-50,63, 
  /* [30][0][][] */ 49,-66,-85,13,-127,34,67,-43,17,2,3,-30,-13,58,2,85, 
  /* [31][0][][] */ -127,-14,18,106,-30,5,-50,-1,-20,-50,-4,-48,-13,-63,-18,102, 
  /* [32][0][][] */ -121,-108,-83,-11,-89,-45,12,-28,127,77,-63,-68,34,38,35,-37, 
  /* [33][0][][] */ -20,-5,-96,44,-127,-108,43,10,-111,11,-48,-69,-36,105,61,73, 
  /* [34][0][][] */ 19,53,18,23,-78,-37,51,7,47,-127,-26,30,-27,-4,40,86, 
  /* [35][0][][] */ 63,8,-76,-30,-127,19,113,-65,66,77,-21,13,19,103,44,101, 
  /* [36][0][][] */ -8,15,-40,49,127,-8,43,63,-60,21,-81,-87,17,-27,6,5, 
  /* [37][0][][] */ -127,67,-12,-76,73,-113,-30,-26,-13,-10,-21,61,62,-79,23,-116, 
  /* [38][0][][] */ 67,60,27,-60,-116,-63,-127,-36,-66,-69,63,69,-49,-88,88,7, 
  /* [39][0][][] */ 5,-10,-40,53,5,65,75,-62,-39,51,23,-35,-28,85,53,127, 
  /* [40][0][][] */ 72,38,66,77,-46,-47,7,18,-64,63,8,-14,-43,-22,127,-15, 
  /* [41][0][][] */ -23,-9,13,61,-106,119,8,63,-74,25,-115,19,39,40,44,-127, 
  /* [42][0][][] */ 0,-89,9,-44,101,63,72,6,-22,-127,-77,-40,1,19,-9,64, 
  /* [43][0][][] */ -30,-71,4,18,127,3,8,116,-9,-53,-103,-60,111,-7,-33,25, 
  /* [44][0][][] */ -47,-42,-70,-120,62,127,63,-48,-22,-120,-118,71,-63,57,18,96, 
  /* [45][0][][] */ 26,-67,-62,-5,-127,59,-29,-57,99,-46,32,-70,-8,11,-30,24, 
  /* [46][0][][] */ 0,-71,-16,35,91,-77,-18,101,-33,-27,55,83,-74,-43,39,-127, 
  /* [47][0][][] */ -96,-60,-31,127,-43,2,27,21,-25,127,127,95,-39,88,2,97, 
  /* [48][0][][] */ 29,7,-83,-105,33,-88,18,73,46,-85,0,41,-60,34,-67,-127, 
  /* [49][0][][] */ 62,70,18,11,-10,-9,42,39,-39,127,-35,46,-36,-24,58,83, 
  /* [50][0][][] */ 3,-3,14,-1,-127,-17,-9,-48,51,24,9,46,-19,-61,12,-3, 
  /* [51][0][][] */ 17,22,-10,-127,-36,94,39,-44,25,3,14,-56,41,77,-35,13, 
  /* [52][0][][] */ 13,4,17,-127,96,-100,1,-58,40,4,117,-58,47,-3,-50,110, 
  /* [53][0][][] */ -42,-66,32,-31,-30,-127,14,-83,-11,85,-95,72,-45,-20,49,-66, 
  /* [54][0][][] */ 68,68,46,-16,-100,-60,-86,-127,14,-8,54,66,-53,-32,53,8, 
  /* [55][0][][] */ 24,7,-35,71,-31,17,27,-21,3,127,28,50,-3,-7,0,52, 
  /* [56][0][][] */ -4,-127,-73,82,-49,4,3,76,88,13,51,34,-16,-8,34,114, 
  /* [57][0][][] */ 17,61,102,-94,123,1,22,-11,114,-72,5,127,46,-63,92,-63, 
  /* [58][0][][] */ 91,-83,15,-61,31,22,-22,127,30,118,-12,54,70,-5,123,-9, 
  /* [59][0][][] */ -35,58,67,-66,-12,-76,10,-6,32,-8,-127,-83,-82,-62,82,-18, 
  /* [60][0][][] */ 80,-32,7,29,48,-29,61,-91,36,127,-46,98,3,-26,-55,-19, 
  /* [61][0][][] */ 72,54,36,-16,-65,-127,-9,-60,-23,-13,-42,6,-69,-34,63,72, 
  /* [62][0][][] */ -21,86,-44,59,-79,127,-51,48,-73,1,-34,35,-21,38,84,-108, 
  /* [63][0][][] */ 28,-8,-74,-127,-15,-32,90,-22,-13,-92,-13,35,-23,74,33,-18, 
  /* [64][0][][] */ -54,25,-1,-27,51,-47,37,61,-127,-21,-55,-23,-28,87,41,66, 
  /* [65][0][][] */ -77,-10,-66,-25,74,37,-44,-68,-107,-59,46,-40,-127,98,-78,40, 
  /* [66][0][][] */ -21,70,-18,26,-54,127,-15,7,-77,21,-10,43,-26,55,48,-59, 
  /* [67][0][][] */ 16,0,-26,-25,6,-77,66,-82,3,13,2,96,-55,-32,-6,-127, 
  /* [68][0][][] */ 3,-127,-35,104,-6,-18,26,116,79,49,73,0,-103,5,-25,2, 
  /* [69][0][][] */ 32,41,87,-96,33,1,-38,76,24,96,37,65,82,-108,44,-127, 
  /* [70][0][][] */ 53,28,60,-34,107,18,-120,-54,-127,-92,-16,44,-38,55,-98,-21, 
  /* [71][0][][] */ -50,-59,46,-24,55,-24,36,28,-93,61,-127,-58,15,97,-14,69, 
  /* [72][0][][] */ 11,4,58,24,-34,-25,-101,-64,-4,86,-28,83,51,127,-105,-10, 
  /* [73][0][][] */ -33,-40,-20,-21,20,-82,25,-30,50,55,101,5,34,11,-49,127, 
  /* [74][0][][] */ 6,5,-34,68,-79,-3,90,29,79,67,25,127,116,39,-52,13, 
  /* [75][0][][] */ -50,32,-23,44,-32,127,-27,43,-44,59,-33,55,-25,54,36,-71, 
  /* [76][0][][] */ -63,70,-69,49,-127,-10,-4,10,47,24,-33,-33,75,-30,-111,66, 
  /* [77][0][][] */ 127,113,-110,107,111,90,47,0,49,60,100,1,95,24,82,26, 
  /* [78][0][][] */ 18,-43,19,-62,84,-118,41,-52,92,60,127,-22,16,-8,-39,122, 
  /* [79][0][][] */ -43,48,-7,26,11,-40,-27,-7,-127,-5,67,15,106,45,-76,-36, 
  /* [80][0][][] */ -79,43,45,5,39,34,-13,-127,-80,48,-61,-55,-26,-96,33,58, 
  /* [81][0][][] */ 80,82,-45,4,33,-37,84,127,-100,122,-48,-45,-51,41,104,120, 
  /* [82][0][][] */ 32,127,-47,-62,2,-40,95,-91,24,27,-55,56,98,-23,70,-37, 
  /* [83][0][][] */ -15,-22,39,16,1,14,-11,-95,73,-34,72,12,31,-45,-58,-127, 
  /* [84][0][][] */ -122,-79,-55,-25,-26,112,96,-5,85,77,127,113,65,86,-83,0, 
  /* [85][0][][] */ 114,-9,119,-73,73,5,-4,72,-27,127,-56,7,-3,57,97,6, 
  /* [86][0][][] */ -61,67,-16,7,24,75,8,3,127,33,105,-35,-27,50,17,-41, 
  /* [87][0][][] */ 14,-63,23,-47,50,-127,26,-26,40,-8,64,-33,38,-41,-45,76, 
  /* [88][0][][] */ -90,64,24,-10,70,-25,5,35,-68,-59,104,-70,52,110,116,-127, 
  /* [89][0][][] */ -28,29,-22,19,-35,127,-13,41,-43,5,-40,13,-2,42,23,-84, 
  /* [90][0][][] */ 49,-82,20,29,127,6,31,16,-7,-91,-90,-11,5,-5,-45,38, 
  /* [91][0][][] */ -35,112,-69,-52,-42,-63,-95,56,-73,2,-48,-127,-100,-58,17,44, 
  /* [92][0][][] */ 76,58,79,33,-127,-126,-12,10,-33,70,-36,-34,-51,-106,33,3, 
  /* [93][0][][] */ -19,-127,-120,35,-63,-69,2,78,66,56,12,65,-64,58,-4,-5, 
  /* [94][0][][] */ 127,27,97,-23,22,-41,-4,48,26,105,7,62,0,-1,123,-10, 
  /* [95][0][][] */ -51,-57,-25,-24,127,-6,57,70,-58,-5,-110,-73,20,-8,-58,14, 
};
const TfArray<4, int> tensor_dimension19 = { 4, { 96,1,1,16 } };
const TfArray<96, float> quant19_scale = { 96, { 0.0056879976764321327, 0.0025942004285752773, 0.0043338937684893608, 0.0037382619921118021, 0.0030679348856210709, 0.001742649357765913, 0.0033474806696176529, 0.0025760205462574959, 0.0013629321474581957, 0.0025775842368602753, 0.0011117019457742572, 0.0041859326884150505, 0.0017572098877280951, 0.0083374772220849991, 0.0038190183695405722, 0.0035031333100050688, 0.0046872552484273911, 0.004580032080411911, 0.0039429129101336002, 0.0019918498583137989, 0.0060671241953969002, 0.0024376970250159502, 0.0033583065960556269, 0.0043113804422318935, 0.00154441490303725, 0.0029921466484665871, 0.0038291628006845713, 0.0049455543048679829, 0.0029920281376689672, 0.0052616456523537636, 0.0031461522448807955, 0.0028218370862305164, 0.0041574453935027122, 0.0011220815358683467, 0.0032039114739745855, 0.0025145970284938812, 0.0046257399953901768, 0.0048106755129992962, 0.0028863595798611641, 0.0036328122951090336, 0.0018425435991957784, 0.0033290518913418055, 0.0031563171651214361, 0.0041090585291385651, 0.0026887948624789715, 0.0025778738781809807, 0.0020402707159519196, 0.00095088948728516698, 0.0036238343454897404, 0.0048151216469705105, 0.0066486191935837269, 0.0028375962283462286, 0.0034080210607498884, 0.0031053444836288691, 0.0029767837841063738, 0.0049971048720180988, 0.0024414961226284504, 0.0011206822236999869, 0.0024274617899209261, 0.0023453296162188053, 0.0027224165387451649, 0.0026579676195979118, 0.0031612047459930182, 0.0045249192044138908, 0.0011572437360882759, 0.0011695824796333909, 0.0056724417954683304, 0.0060217850841581821, 0.0017016760539263487, 0.0019185971468687057, 0.0041295792907476425, 0.0042207124643027782, 0.0032705985940992832, 0.0028044779319316149, 0.0027262610383331776, 0.0039933314546942711, 0.0030598673038184643, 0.0016522414516657591, 0.0028271519113332033, 0.0014623547904193401, 0.0024796996731311083, 0.0040083471685647964, 0.0022095716558396816, 0.0016807494685053825, 0.0022876542061567307, 0.0012813858920708299, 0.0045145056210458279, 0.0055594905279576778, 0.0043272916227579117, 0.0053387773223221302, 0.0043591372668743134, 0.0015375990187749267, 0.0031241874676197767, 0.0021699673961848021, 0.0021736165508627892, 0.0036014243960380554, } };
const TfArray<96, int> quant19_zero = { 96, { 0,0,0,0,0,0,0,0,0,0,0,0,0,0,0,0,0,0,0,0,0,0,0,0,0,0,0,0,0,0,0,0,0,0,0,0,0,0,0,0,0,0,0,0,0,0,0,0,0,0,0,0,0,0,0,0,0,0,0,0,0,0,0,0,0,0,0,0,0,0,0,0,0,0,0,0,0,0,0,0,0,0,0,0,0,0,0,0,0,0,0,0,0,0,0,0 } };
const TfLiteAffineQuantization quant19 = { (TfLiteFloatArray*)&quant19_scale, (TfLiteIntArray*)&quant19_zero, 0 };
const ALIGN(16) int32_t tensor_data20[16] = { -2873, 10128, -20180, 2599, 11989, -14504, -41909, -9630, -4067, 11386, -14698, -12547, 6432, -12835, -2173, -3981, };
const TfArray<1, int> tensor_dimension20 = { 1, { 16 } };
const TfArray<16, float> quant20_scale = { 16, { 0.00014214971452020109, 0.00016189485904760659, 0.0001366220967611298, 0.00013396976282820106, 0.00012068971409462392, 0.00016467702516820282, 0.00011174225073773414, 0.000169017119333148, 0.000104297258076258, 0.000104501836176496, 0.00014916381041985005, 0.00010535136243561283, 0.0001358279405394569, 7.101576920831576e-05, 0.00014038418885320425, 0.00018832203932106495, } };
const TfArray<16, int> quant20_zero = { 16, { 0,0,0,0,0,0,0,0,0,0,0,0,0,0,0,0 } };
const TfLiteAffineQuantization quant20 = { (TfLiteFloatArray*)&quant20_scale, (TfLiteIntArray*)&quant20_zero, 0 };
const ALIGN(16) int8_t tensor_data21[16*1*1*48] = { 
  /* [0][0][][] */ 30,32,28,-43,74,56,-30,59,-9,116,-2,47,-38,38,0,52,36,76,38,-66,-76,78,-7,48,54,43,27,49,-52,-47,-14,90,-28,8,-73,49,51,-127,-38,10,18,-41,58,-2,-7,-57,-62,-19, 
  /* [1][0][][] */ -47,-10,-68,-48,11,88,-49,11,-8,-25,-44,30,54,-25,-20,-26,-32,-37,-12,19,-64,45,-109,-42,-51,-39,46,62,-28,-28,37,-47,12,-64,-35,51,18,-56,127,-39,-27,29,-51,-14,39,52,31,14, 
  /* [2][0][][] */ 10,-4,63,-35,-20,-77,33,36,111,80,-66,24,118,-50,127,81,-62,-25,-26,29,84,-85,-34,-104,4,-35,29,-80,33,52,-46,13,35,-30,62,33,-75,23,1,-33,32,31,73,-19,29,-84,90,-65, 
  /* [3][0][][] */ 46,10,-27,-32,34,114,15,-15,40,-56,22,-24,-64,17,10,41,-43,-68,54,-120,-18,0,-15,-12,-46,90,127,68,-7,-35,26,35,64,-24,102,33,-40,-54,0,45,32,4,-17,-7,19,17,-12,-27, 
  /* [4][0][][] */ 101,-10,-9,-53,68,101,38,-7,59,-12,-100,31,46,-36,-5,-15,-93,-116,-26,-84,-19,38,-44,-41,-64,127,-84,111,-50,-49,29,74,47,-45,14,-14,-6,22,-16,34,-56,-14,-3,57,-56,102,-28,-38, 
  /* [5][0][][] */ 9,-5,-53,10,-13,52,12,-30,66,55,34,94,57,-25,34,-1,-44,127,-11,44,-1,2,-70,-18,43,-2,-65,-32,-21,35,18,-29,-36,7,37,20,-40,2,-99,6,101,-21,25,44,-17,0,-50,35, 
  /* [6][0][][] */ 68,11,14,63,6,-35,94,-68,1,71,124,98,51,37,-48,69,45,-49,-79,96,48,-53,-42,52,-76,89,80,1,127,49,-30,5,92,-80,-127,-3,111,36,3,16,15,44,57,-14,57,125,37,12, 
  /* [7][0][][] */ -86,3,-25,33,-59,-52,14,47,70,106,-51,-71,-95,12,-18,-17,-79,104,11,118,-49,45,25,45,-17,-91,-20,-80,36,37,-2,6,-8,18,20,-9,13,-51,127,1,7,43,26,-19,53,73,-37,2, 
  /* [8][0][][] */ -10,-96,40,-58,55,-47,74,-38,-33,-121,26,13,-33,1,29,30,12,8,-49,102,10,29,-17,22,61,-19,-65,-37,-127,-19,-45,-114,9,-61,0,83,-22,25,120,10,18,2,76,123,-24,-72,-40,81, 
  /* [9][0][][] */ 24,-35,6,-80,22,80,-54,46,8,-32,-35,-24,32,-67,102,-17,18,-127,45,55,-79,54,60,-58,-14,-85,-18,91,69,74,-47,-29,-59,34,-8,127,-16,-56,-57,-4,-37,-12,39,106,47,91,-72,28, 
  /* [10][0][][] */ -7,21,-27,-7,15,34,-62,-42,58,33,62,-13,-30,-8,49,-48,-48,127,-1,46,1,-10,20,18,-38,33,2,92,40,3,-30,-13,70,6,-9,28,-14,-47,-33,16,-69,-3,24,-10,6,44,34,31, 
  /* [11][0][][] */ -33,52,-18,42,36,52,4,8,7,16,-127,-76,70,25,-14,-54,7,30,-41,-54,-4,-20,112,11,40,9,-12,41,14,26,1,61,25,2,-49,-4,39,84,111,11,24,-33,68,2,-54,-15,97,2, 
  /* [12][0][][] */ -53,-12,35,22,-62,-51,0,7,-23,-28,-127,8,75,-100,14,37,50,86,78,-108,-33,42,-45,-86,3,-20,37,-37,23,17,-15,69,63,63,29,-19,-55,-32,18,2,-26,18,51,2,23,-17,-32,-23, 
  /* [13][0][][] */ -52,-123,-43,-110,11,25,60,-2,-120,20,127,-66,62,40,122,6,118,32,1,-94,76,-62,120,5,-61,8,-20,10,-48,-96,-117,11,56,-26,-70,64,44,-59,86,-69,-8,57,74,43,51,-28,98,-64, 
  /* [14][0][][] */ 69,17,-50,-2,-44,6,-83,-16,-23,58,53,41,-21,-63,17,-49,45,-116,22,12,79,-63,25,5,-18,121,-89,-1,-46,-30,-93,-6,127,37,91,-33,-74,14,-31,57,-15,-50,102,-30,-46,-39,-59,42, 
  /* [15][0][][] */ -59,11,36,14,96,9,1,35,30,76,-20,46,67,-17,-33,-6,10,43,3,-35,25,-21,-46,-72,73,-71,-39,69,-33,0,10,10,-57,-7,127,5,-91,15,52,-11,-36,-20,18,6,-49,-32,-5,19, 
};
const TfArray<4, int> tensor_dimension21 = { 4, { 16,1,1,48 } };
const TfArray<16, float> quant21_scale = { 16, { 0.0060413628816604614, 0.0068805310875177383, 0.0058064390905201435, 0.0056937146000564098, 0.0051293126307427883, 0.0069987736642360687, 0.0047490457072854042, 0.0071832276880741119, 0.0044326335191726685, 0.0044413278810679913, 0.0063394620083272457, 0.0044774329289793968, 0.0057726874947547913, 0.0030181701295077801, 0.0059663276188075542, 0.0080036865547299385, } };
